nep4 2 Pd Au 
cutoff 6 4 92 28
n_max 8 8
basis_size 8 8
l_max 4 2 0
ANN 80 0
  5.9592322e-02
 -1.1382099e-01
  1.0116898e-02
  2.6128642e-02
  2.7432846e-02
 -4.0630731e-03
 -4.6340257e-02
 -4.0913122e-03
  1.1945780e-01
 -6.0719009e-02
  5.7283543e-02
 -4.9531538e-02
 -3.2105848e-01
  2.4199128e-02
  3.4994051e-02
 -6.4535469e-02
  6.5727510e-02
  1.5223750e-01
  2.3492840e-01
  2.1350676e-01
 -1.4956154e-01
 -2.4599554e-02
  4.1344151e-02
 -2.3648137e-02
 -3.2771111e-01
  9.3737831e-03
 -1.0907612e-02
  1.1650927e-01
 -9.6577117e-03
 -1.2120436e-01
 -6.4141907e-02
 -1.8619053e-01
 -5.4689337e-02
 -3.4872677e-02
  3.5163779e-02
  9.3941830e-02
 -6.2506393e-02
 -8.4064871e-02
 -9.4867580e-02
 -1.6386966e-01
  5.4344930e-02
 -5.5884276e-02
 -1.1428764e-01
 -2.2457177e-02
 -7.0024975e-02
 -5.3065754e-03
 -2.7259851e-01
  6.7160256e-02
  3.2432064e-02
  1.8097542e-01
 -7.1694672e-02
 -1.0333207e-01
  3.0709436e-02
  2.3575876e-02
  4.2249980e+00
 -8.2043964e-01
 -2.3286648e+00
 -2.1165309e+00
  3.4211490e-02
  5.6935292e-01
  4.1303423e-01
 -6.6636825e-01
  3.1580596e+00
 -1.1739656e+00
 -2.6731893e-01
  2.0689167e-01
  1.0507008e-01
  2.4480933e-01
 -3.4971185e-02
  8.2793933e-01
 -7.7728242e-01
 -1.2252684e-01
  3.6174193e-01
  8.0690628e-01
 -7.8006335e-02
 -5.5971760e-01
 -5.7374358e-02
  7.6385319e-02
  1.0056063e-01
 -5.9004478e-02
  4.0827552e-03
 -2.6435783e-02
 -3.6107317e-02
  5.3732717e-01
 -3.4352057e-02
  9.6396254e-03
 -5.7936568e-02
 -1.8917266e-01
 -2.9306880e-01
  9.9532694e-02
  7.6925313e-01
  6.6919154e-01
  1.6196872e-01
  2.1627372e-02
  2.1798372e+00
  8.6055994e-01
 -5.7515836e-01
  2.5198828e-02
  1.6760616e-01
 -1.7432436e-01
  4.9937468e-02
 -1.1670405e-01
  3.2914132e-02
 -1.0794312e-01
 -8.9974115e-03
 -8.2075946e-02
  4.6488744e-01
 -2.2380219e-01
  1.4434975e-01
  1.8885821e-01
  2.7345210e-01
  5.0799634e-02
  1.3621150e-01
 -4.0338606e-02
 -3.1042576e-01
 -9.7008988e-02
 -9.1539674e-02
 -1.6781473e-01
 -2.5778359e-01
  1.2977321e-02
 -7.6411434e-02
 -4.1789401e-02
 -1.3759757e-02
 -7.4536905e-02
 -6.9251761e-02
 -7.8671291e-02
 -4.7773447e-02
  6.4509511e-02
 -1.5416521e-01
 -2.7537797e-02
  1.0145774e-01
 -9.0636691e-04
 -1.6085801e-01
  5.2427191e-02
 -3.1751759e-02
 -3.1964257e-02
 -7.3893741e-02
 -9.1436721e-02
 -2.2421060e-03
  1.0529366e-02
  1.0225086e-01
  3.8939424e-02
  1.2734470e-01
  1.7308530e-01
 -1.2647696e-01
  1.1639056e-01
 -5.5749752e-02
  7.9340391e-02
 -7.6020092e-02
  1.2905914e-01
 -6.3453943e-02
 -1.7910078e-01
  7.2235666e-02
  1.0423751e-01
  6.9805793e-03
  2.6102784e-01
 -7.1235485e-02
 -1.0892112e-02
  1.2703666e-01
  4.1249292e-03
 -1.4304724e-01
 -1.2446983e-02
  1.0014581e-02
 -4.5688376e-02
  5.6961764e-02
  1.9031541e-02
  3.1168857e-01
 -4.5687750e-02
  1.6019978e-01
 -1.3668246e-02
  1.3516711e-01
 -3.8487953e-01
 -1.8983446e-01
  1.2000181e-01
  8.0328956e-02
 -1.6444676e-01
 -1.8920197e-01
  7.9424135e-02
  1.2248547e-01
  2.9245203e-03
  2.9657274e-01
  9.6943848e-02
  1.7869467e-02
  1.6823581e-01
  2.8072256e-01
 -1.2518936e-01
 -9.2210643e-02
 -3.5708162e-01
 -4.2944558e-02
 -4.3863524e-02
  1.5803543e-01
 -5.2389905e-02
  6.5908968e-02
  2.4088731e-02
 -2.8273192e-01
  2.2667952e-01
 -3.6178994e-01
 -1.7149612e-01
 -6.9467723e-02
 -4.9475674e-02
  1.1954463e-01
 -6.1850771e-02
  4.3572512e-01
  7.5915150e-02
 -5.1205881e-02
  5.8050554e-02
  4.8051342e-02
  8.8357605e-02
  9.2173971e-02
  2.5776250e-02
 -1.6387893e-01
  2.4955811e-02
 -2.8864232e-01
 -7.9481676e-02
 -7.8671081e-03
 -5.6500901e-03
 -9.2387730e-01
 -4.2878988e-01
 -4.8371930e-02
  3.3495350e+00
 -1.8279092e-01
 -2.1949628e-01
  3.6216909e-01
 -1.6530558e+00
 -2.0674882e+00
 -2.5165454e-01
  2.2599414e-02
 -1.0108200e-01
 -2.5149012e-01
 -1.9024896e-02
 -5.3102989e-02
 -9.7609508e-01
  2.5563499e-01
  3.2703482e-02
 -6.7823756e-01
  9.3863271e-02
  2.1748278e-01
 -6.5574072e-02
  1.0591093e-01
 -2.2688717e-01
  1.7711300e-01
  1.3937750e-01
  1.1315319e-01
 -7.0397191e-02
  3.3342126e-01
 -5.4370012e-02
  3.0130509e-02
  1.9434267e-01
 -4.9442130e-01
  3.5327792e-01
 -4.8228076e-01
  1.5719733e-01
 -4.9630359e-01
 -5.8876157e-02
 -1.3909671e-03
  9.5207006e-02
 -5.9730735e-02
 -5.4021639e-01
 -5.0240215e-02
 -8.3206184e-02
 -1.8213280e-01
 -7.8343076e-01
  6.4213820e-02
  4.6165556e-02
  6.0325027e-02
 -4.4517748e-02
 -1.7469315e-02
 -1.6677789e-01
 -2.0276671e-03
 -4.6956298e-01
  1.7395483e-01
  3.3964820e-02
  2.0288454e-02
  1.1000615e-01
 -3.6967110e-02
  1.6716976e-02
  1.6718653e-01
  7.1153543e-03
  4.4867343e-01
 -1.7528437e-01
  8.4120601e-02
  9.1941394e-02
  3.1214923e-02
  8.2385071e-02
  1.6700129e-01
  3.5749000e-02
 -1.2174292e-02
  6.4803034e-02
  2.6811214e-02
 -3.0316776e-03
  9.4820924e-02
  3.2531161e-02
 -1.0418766e-02
 -4.7547698e-02
 -9.6752174e-02
  1.9456789e-02
  1.2980661e-01
  3.3123188e-02
  7.6400593e-02
  7.5405240e-02
  6.4751124e-03
 -1.0392410e-01
  6.0887786e-04
 -4.4864304e-02
 -4.1533753e-02
 -8.5568413e-02
 -2.8589174e-02
 -8.0192918e-03
 -1.2150849e-02
  2.7426457e-01
  4.4203557e-02
 -9.6911944e-02
  3.0956966e-01
  2.7396953e-02
 -6.7502245e-02
 -1.0713683e-02
 -8.0690518e-02
 -1.5362069e-01
  1.0836168e-01
 -1.5968236e+00
  1.1650773e-02
 -1.4258651e-01
  1.0226686e-02
  9.2852108e-02
  5.8540896e-02
  1.6745660e-01
 -7.8623347e-02
  7.2977722e-02
  1.2584488e-01
 -1.9252393e-01
  1.2255523e-01
  1.3565472e-01
 -2.3184930e-01
 -5.8785030e-03
  1.5364445e-02
  1.0207304e-01
 -1.6130611e-02
 -1.4834347e-01
  4.4361670e-02
 -2.0797299e-01
 -1.5315597e-01
  9.2009626e-02
  2.6830372e-01
  6.4991303e-02
  2.3775948e-02
 -6.0420245e-02
 -1.1712065e-01
 -8.0886655e-02
  1.4800356e-01
 -1.0014557e-01
  8.8402599e-02
 -9.8424077e-02
  1.2960028e-02
  2.6676416e-02
  7.0339628e-02
  6.0202293e-02
  6.8107955e-02
 -1.9708144e-02
 -4.1448396e-02
  1.1856227e-01
  1.3940954e-01
  1.5360668e-01
 -1.0793582e-01
 -5.1763773e-02
 -4.6906289e-02
 -1.3501863e-02
  7.4518114e-02
 -3.6762919e-02
  1.5155721e-02
  1.9558138e-01
 -7.4199535e-02
  1.0709763e-01
 -6.8342388e-02
  2.6741053e-03
 -3.6661487e-02
  3.1469095e-02
  8.4445655e-02
  8.0842406e-02
 -5.4011005e-01
 -2.9402468e-01
 -2.4594741e+00
 -2.9606473e+00
  6.6051555e-01
 -4.6100223e-01
  1.2858022e+00
  4.0134758e-01
 -1.8543868e+00
 -3.7516717e-02
 -9.5087367e-01
  4.9132001e-02
  3.0114490e-01
  3.2464731e-03
 -5.1082176e-01
  6.7165327e-01
 -6.7433804e-02
  1.2252750e-01
 -1.2494659e+00
 -9.2770576e-02
 -7.1475238e-02
  6.5129913e-02
  9.5605001e-02
 -1.8788981e-01
 -2.2304341e-01
  1.3923833e-01
 -5.3252927e-03
 -1.0715940e-02
 -6.0880657e-02
 -8.7548755e-02
 -5.0027704e-01
 -5.3510195e-01
 -9.0347260e-02
 -1.3100214e-01
 -2.3170176e-01
 -1.6013622e-01
 -4.0561594e-02
  2.0206966e-01
 -1.2279806e-01
  3.3124778e-01
  4.5388527e-02
 -3.7865642e-02
  3.2311276e-02
  8.4869705e-02
  8.7604880e-02
 -4.8946932e-02
 -1.0386950e-01
 -1.7545499e-01
  1.0137810e-02
  4.2609615e+00
 -7.3894382e-02
  2.4198820e-01
  1.7940675e-01
 -5.9805354e-03
 -2.4918257e-01
 -1.2314899e-01
 -4.1616865e-02
 -3.8303959e-03
  1.3049964e-02
 -8.9163929e-02
  1.1154377e-01
 -8.8278510e-02
 -2.4173880e-02
 -2.1051543e-02
 -2.8744826e-01
 -8.4038116e-02
  4.3919612e-02
 -1.4121272e-01
 -3.5871260e-02
  1.8879069e-02
 -5.8702599e-02
 -4.2624515e-02
  3.8594969e-02
 -9.3765408e-02
 -1.5249810e-01
 -1.7992616e-01
 -1.0432355e-02
 -4.8863009e-02
 -3.6915533e-02
 -1.2297098e-01
  9.5697351e-02
 -1.9192450e-02
 -1.0997088e-02
 -1.3517793e-02
 -1.5267463e-01
 -5.7123199e-02
 -1.2908588e-01
 -8.7502822e-03
 -1.0257970e-02
 -5.0701541e-01
 -1.0484136e-01
 -1.1183064e-01
 -4.1131778e-03
  2.7334648e-03
 -4.7997467e-02
  9.8637015e-02
  4.2520385e-02
 -4.8823003e-02
  1.2049256e-01
  3.8110439e-02
 -1.6857527e-02
 -2.8441051e-02
 -5.4423850e-02
 -6.0657620e-02
 -1.3342426e-02
  5.9266090e-01
  9.3831092e-02
  2.6391210e-02
  6.7674138e-02
  3.0964831e-02
  6.9041371e-02
  3.1878352e-02
  2.1896688e-02
 -3.4462534e-02
 -1.0072441e-01
  2.0053279e-01
  6.3344193e-01
  6.9626413e-02
 -6.8949595e-02
  4.5527432e-02
 -6.3108459e-02
 -6.7805129e-01
 -2.5121346e-01
  1.3337323e-01
 -6.8825506e-02
  3.4548681e-02
  6.7477755e-02
 -3.7768555e-01
  6.0401734e-02
  1.1954227e-02
  1.9865574e-01
  1.0740924e-01
 -1.7982658e-02
  1.6475141e-01
 -1.2359067e+00
  3.8595226e-02
 -2.5431866e-02
 -5.7509173e-02
  1.3835230e-02
 -1.6348301e-01
  1.0893712e-02
 -9.2949510e-02
 -1.8074179e-01
  7.7341937e-02
  3.2359011e-02
 -1.8962181e-01
  7.9841323e-02
  6.9536515e-02
  1.2148107e-02
  5.7661820e-02
 -6.4719811e-02
 -1.3425002e-01
  7.6236166e-02
  2.7632532e-03
  1.0761787e-02
 -2.0271022e-04
  3.4439424e-03
 -2.3255577e-02
 -4.4146329e-02
  8.2114585e-02
  3.0424165e-02
 -1.6344868e-02
  3.7772420e-01
 -1.9658642e-02
  1.8652694e-01
 -2.9969504e-02
 -4.0186396e-01
  6.0627800e-03
 -1.0129935e-01
  5.8796182e-03
  7.4948454e-01
  1.9412506e-02
  1.3761833e-01
  9.0372927e-02
 -1.3013697e-02
  1.1231685e-01
  1.9899145e-01
 -9.4614411e-03
  9.9421248e-02
  1.0197464e-01
  2.0728248e-01
  2.2589256e-01
 -2.7660266e-03
  2.4127810e-01
  1.8805519e-01
 -5.5418466e-04
  1.3353972e-01
 -1.1192086e-03
  6.4133508e-03
 -2.8772828e-01
 -2.7307626e-02
 -8.4721521e-02
 -3.6325890e-01
 -1.2811543e-01
  2.9627686e-02
 -6.3188774e-05
 -7.7890769e-02
 -4.4325169e-02
 -4.4760831e-02
 -1.2757519e-01
  1.9649722e-01
 -2.0325089e-02
  5.5852219e-02
 -7.1083386e-03
 -7.4940510e-02
 -7.7710841e-03
 -5.9026852e-02
  2.0208633e-02
 -3.8481697e-02
  8.6239226e-02
 -1.0733703e-01
  8.1758454e-02
  9.6956924e-02
 -1.2354820e-01
 -1.2685987e-01
 -1.7247584e-01
 -1.4744148e-02
 -4.3361671e-03
  9.9698985e-01
 -2.4254659e-01
  5.6215849e-02
  8.5072909e-03
 -1.4169016e-01
  1.3508223e-01
  3.7543271e+00
 -7.4828714e-03
  1.1265781e-01
  1.2769156e-02
  1.2128193e-02
 -8.5475005e-02
  6.1435378e-03
 -4.3276425e-02
  1.1529851e-02
  8.2629070e-02
 -1.3927442e-02
 -3.2801399e-01
  7.6819435e-02
 -9.6555717e-02
  1.5776725e-02
  8.9075007e-02
  7.1422629e-02
  2.3994812e-01
 -4.5109734e-02
 -2.0080476e-01
  2.5519660e-01
  5.4108556e-02
  4.0423416e-02
  1.5534326e-02
 -1.7828281e-01
 -5.7511730e-03
 -2.5990523e-02
  2.1288596e-01
  3.2344934e-02
 -1.5355770e-02
  2.8543213e-01
 -1.3138460e-01
 -9.4753563e-02
  2.2692839e-02
 -1.2741945e-02
 -2.0491524e-02
 -1.1437644e-02
  2.0283855e-01
 -3.7778248e-03
  5.2039590e-02
 -2.0509319e-01
 -4.7777008e-02
 -3.7486091e-02
 -2.4698894e-02
 -2.1521854e-01
 -6.7507401e-02
 -3.7999410e-02
 -2.8652851e-03
  9.9813141e-02
 -9.1913380e-03
  1.0157200e-01
 -1.2036667e-01
  2.8871715e-02
 -1.2440389e-01
  2.6722001e-03
  1.1184390e-02
 -8.7136701e-02
 -4.3631773e-02
  3.7577659e-01
  2.1037275e-02
 -7.4287421e-01
  5.6952599e-02
 -2.5276756e-01
 -1.0362501e+00
 -6.5008655e-02
 -4.1003510e-02
  3.8309915e-03
 -1.3312212e-02
 -5.4071480e-03
 -2.0683357e-02
  5.4666415e-02
 -1.7851647e-02
  6.6502623e-02
  5.4120086e-02
 -5.1519156e-02
 -6.3144453e-02
 -3.1640060e-02
 -9.7779132e-02
 -1.7717089e-01
  6.0946266e-03
  2.0425341e+00
 -1.1374194e-01
  1.0128997e-01
 -1.1351265e-02
 -2.7822906e-01
  8.3537109e-02
  3.0235434e-01
 -1.2553990e-03
  2.5068514e-02
 -1.9395746e-01
 -6.8710402e-02
  1.2674375e-02
  2.3088726e-01
  3.4208134e-02
 -6.1621297e-02
  2.4880163e-02
  4.5728426e-02
 -3.8402408e-02
 -7.2399639e-02
  9.4823770e-02
 -1.3150501e+00
  1.4894396e-02
  2.0253049e-02
 -5.1569980e-01
  2.9916918e-01
 -9.2856783e-01
  4.3496024e-02
  5.2802718e-01
  4.9447280e-01
  3.6884623e-03
 -7.7174865e-02
 -2.8924018e-02
  6.6907224e-03
 -3.5883483e-01
 -8.6714536e-02
 -2.3604810e-02
 -8.2860075e-02
 -2.6175606e-01
  8.7420665e-02
  1.0996200e-01
 -1.1222187e-01
  2.6824279e-02
  5.6028336e-01
 -5.8437061e-02
  2.4725068e-01
 -4.2509079e-02
 -2.8092464e-02
  4.7491591e-02
  8.2853988e-02
 -5.2830119e-02
  1.2444033e-01
  8.8802807e-02
 -7.9510905e-02
  3.8677342e-02
 -1.5247211e-02
 -2.3269620e-02
 -4.7473926e-02
  1.0520560e-01
 -4.8906896e-02
 -8.0730043e-02
  1.8257453e-01
 -8.0502234e-02
 -1.3403152e-01
  1.7513722e-02
  6.1059747e-02
 -1.2566684e-01
  2.2809850e-02
  1.0600334e-01
 -1.3571016e+00
  6.4788193e-02
  9.6608728e-02
  4.3284379e-02
 -5.8109246e-02
 -1.4117376e-02
 -1.9703200e+00
  1.6798668e+00
  4.5046684e-01
 -1.3281047e-01
 -1.0515807e+00
  2.1490834e+00
  3.1561544e+00
  2.6515195e+00
  7.9538989e-01
 -3.6343720e-02
 -4.7016822e-02
  1.3978735e-01
  3.9319143e-02
 -2.4776265e-01
  6.9296288e-01
 -1.3085063e+00
 -2.1586142e-01
 -1.2482469e-01
  3.5161132e-03
  4.5480940e-04
 -1.8945700e-02
 -1.9745700e-01
  3.3788901e-02
  8.0299920e-01
 -2.1396567e-01
  1.8401837e-01
  5.3603035e-01
 -4.9823485e-02
  7.9396391e-01
 -2.9626334e-01
 -2.4851748e-01
 -1.5612032e-01
 -3.0526740e-03
 -2.3540553e-02
  5.1145804e-01
 -3.6288597e-02
 -9.3056381e-02
  1.0606198e+00
 -5.4200299e-02
 -5.8541703e-01
  8.2424945e-01
  3.2818708e-01
  5.2306715e-02
 -1.6585292e-01
  1.3043889e-01
 -1.1634696e-02
 -4.2750055e-01
  6.3610502e-02
 -1.2703158e-01
 -4.7740194e-01
 -1.5033155e-02
  3.6900830e-01
  2.3829851e-02
  6.4950772e-02
 -1.3956168e-01
 -2.1082275e-02
 -3.7082657e-01
 -5.2708191e-01
  2.3743488e-01
 -4.7534402e-02
  4.2425343e-01
 -6.9142573e-02
  8.3705656e-02
  1.2689599e-01
 -3.7216835e-02
  9.3758337e-02
  2.1302132e-03
  1.0466791e-01
  1.3749817e-03
  4.2807605e-02
 -6.1151359e-02
 -7.6424032e-02
  9.0701580e-02
 -3.4236688e-02
  2.2127090e-01
 -1.4335438e+00
  5.2108064e-02
  4.8170540e-02
 -6.4423449e-02
 -5.4922018e-02
 -1.8635356e-01
  7.8343928e-01
  9.4898060e-02
 -2.1907013e-02
  7.0510483e-03
  9.1511711e-02
  2.0395113e-02
 -1.2471186e-01
  4.9778841e-02
  5.5448323e-02
  1.9000050e-01
 -1.8236035e-01
  4.5782026e-02
  2.9812399e-02
  5.6474909e-02
  5.1037591e-02
 -3.4861802e-03
  7.6461785e-02
  5.1873296e-02
 -5.3263484e-03
  3.7910201e-02
  1.9514166e-01
 -1.7644010e-01
  1.0537390e-01
  1.1169684e-01
  5.2904934e-02
 -1.1017554e-01
  2.6669379e-02
  1.3517511e-01
  1.4248262e-01
 -4.6525124e-02
 -2.6081908e-02
  1.1127780e-02
  1.0455128e-01
 -3.3295989e-02
 -3.1255129e-01
 -3.5684512e-03
  1.3962078e-01
  4.7686892e-03
 -5.7415321e-02
  6.2356498e-02
 -5.4055765e-02
 -6.7560147e-03
 -2.3248285e-02
  1.7630084e-01
  3.1251315e-02
  1.1783019e-01
 -9.1463782e-02
 -3.1171632e-01
  5.1564127e-03
  3.9347637e-02
 -4.1911937e-02
  3.9267525e-02
 -2.7440861e-02
  1.1348531e-01
  8.9794092e-02
 -6.8783304e-03
  2.5574068e-02
  3.7292160e-02
 -2.3875615e-01
  1.6220002e-02
 -3.5097155e-01
 -1.8484481e-01
  1.3322200e-01
 -8.3162934e-03
  2.0659563e-01
 -2.3755500e-02
 -1.1709428e-02
 -5.6156661e-02
  1.8492112e-01
  4.0140569e-02
  9.0789283e-03
 -1.2725379e-01
 -6.8363450e-02
  6.4883165e-02
  1.4980079e-01
  6.5719550e-03
 -2.2507198e-03
 -1.3357617e-01
  1.2157532e-01
  5.5180863e-03
 -1.9572131e-02
  1.1876170e-01
 -1.4032179e-01
  4.9001165e-02
  8.2787442e-01
  1.1717502e-01
 -1.7366646e-01
 -5.5518072e-02
  1.2902796e-01
  4.8324741e-02
  1.0693091e-01
 -7.9899758e-02
 -1.1321252e-01
  4.9280901e-02
  1.8923623e-02
  6.6660285e-02
 -8.0902353e-02
 -4.4472978e-02
  2.1383910e-01
  4.9407378e-02
 -2.7638743e-02
  6.5241508e-02
 -1.6142675e-01
  2.3657255e-01
  3.8781829e-02
  2.7439561e-02
  3.1056246e-03
 -4.4639960e-02
 -4.0357791e-02
  1.1430780e-01
 -3.6839861e-02
  2.7724657e-02
  1.0100175e-02
  8.6730728e-03
  4.0683381e-02
 -2.5127804e-02
  1.5690784e-01
 -1.9924772e-01
 -8.6938441e-03
 -1.5902892e-02
 -3.9063819e-02
 -6.0890678e-02
  9.2596449e-02
  1.1451066e-01
  1.1314134e-01
  9.0883583e-02
  6.0244170e-03
 -2.1824002e-02
  2.6128985e-02
 -3.2663730e-03
  2.0722490e-02
  7.5310855e-03
 -2.7367117e-02
 -5.2149788e-02
  4.3523449e-02
 -1.2208582e-01
 -2.9959169e-03
  8.0065327e-03
 -2.0381778e-01
  5.3398222e-02
 -3.9576259e-01
  1.7984318e-02
  6.4016521e-02
 -3.4115408e-02
 -2.8126180e-02
 -5.3080935e-02
 -6.4452261e-02
  3.4284961e-01
 -1.6772400e-01
 -1.9196896e-01
 -2.7328720e-02
 -7.4876472e-02
  3.8532332e-02
  7.9857975e-02
  3.8804587e-02
 -3.0719039e-01
 -1.1932310e-01
 -3.3728719e-01
 -5.3684447e-02
 -1.5095776e-01
  1.8506742e-01
  8.0833565e-03
 -5.2381031e-02
  3.2750685e-02
  1.3027051e-01
 -9.1949955e-02
 -1.0966612e-01
  1.2328221e-03
  1.7575963e-01
  1.8981589e-01
 -4.3657623e-02
 -1.2415017e-01
 -3.9727803e-02
 -1.0450213e-01
 -3.9253708e-02
 -1.0968614e-01
  2.3291148e-01
 -5.0382242e-02
 -8.7819397e-03
  1.0546005e-02
 -2.3062890e-02
  1.2525378e-01
  8.0517597e-02
 -2.1919948e-01
  1.1641274e-01
  7.4354544e-02
 -2.5048601e-02
 -1.5715983e-02
  3.7362456e-01
  1.8179994e-02
 -1.0894780e-01
  2.8833535e-03
 -8.7270103e-02
 -5.2808635e-02
  7.7768832e-02
  2.6512840e-01
  3.6190167e-02
  4.1332804e-02
 -1.5784107e-01
  1.1843911e-01
 -7.3257558e-02
  8.7267138e-02
  1.1546419e-02
  1.9859299e-02
 -2.3214656e-01
 -3.2676601e-01
 -2.8242938e-02
 -1.9779484e+00
  5.3097446e-02
  1.9125364e-04
  3.7428621e-02
 -2.1171409e-01
  6.8798132e-02
 -1.6703795e-01
 -5.2704312e-02
  1.4683899e-02
 -7.4038766e-02
 -2.0997958e-01
 -1.9419599e-01
 -2.1664402e+00
  1.7767021e-01
 -4.4551987e-02
 -1.1211751e-02
  1.5273668e-01
 -3.2252353e-02
 -5.8006484e-02
 -1.0723909e-02
 -5.5923633e-02
  8.2820188e-03
  1.5785668e-02
  1.8762715e-02
 -9.0453498e-02
  6.1516076e-02
  9.6130170e-02
  2.6131477e-02
  7.2158821e-02
 -7.4994534e-02
  8.1539907e-02
 -6.2226418e-02
  1.8280033e-02
 -2.3124459e-01
  3.6394227e-02
  2.0938903e-01
 -1.3179762e+00
 -9.8702079e-01
  1.3873824e-01
 -2.3134117e+00
  6.5562558e-01
  5.3541273e-01
  1.1083701e+00
 -2.4626181e+00
  1.3511957e+00
 -5.5430245e-01
  9.7975716e-02
  4.7948848e-02
  3.4090023e-02
  1.2065647e-01
  2.3358341e-01
  5.5342746e-01
 -5.6260598e-01
  2.0474373e-01
 -6.9483928e-02
 -1.1041544e-01
 -1.4767927e-01
  4.2002034e-01
 -1.1890479e+00
 -4.8039687e-01
 -5.8427072e-01
 -4.8966837e-01
  3.1276301e-02
 -1.6558509e-01
 -2.4721032e-01
 -8.1229135e-02
 -6.9172114e-02
 -7.5053334e-01
 -3.8511434e-01
 -1.4471773e-03
 -1.7932551e-01
 -6.2735140e-02
 -1.2547930e-01
  1.4344071e+00
 -1.5522996e-02
  1.1923521e+00
 -1.9468956e+00
 -1.8836065e-01
  9.5717579e-01
 -1.8408510e-01
  6.0302578e-03
 -2.5349785e-02
 -6.0193878e-02
  5.0182108e-02
  3.1233110e-02
 -3.8969215e-02
 -1.7572708e-01
 -9.7350425e-01
  1.8690018e-01
 -1.3563080e-02
 -4.8592367e+00
  1.3883858e+00
 -1.0382822e+00
 -4.0826625e-01
  2.1704280e+00
  1.3794655e+00
  1.1990509e+00
  1.4917939e+00
  1.9601101e+00
  4.9810085e-02
  3.2240973e+00
 -2.9232185e+00
  6.5844350e-02
  9.0029383e-01
  3.2496968e-01
  1.8420516e-01
 -7.2201110e-02
  7.9275981e-02
 -3.0732158e-01
  4.2124642e-03
  1.5567317e-02
  2.1601555e-01
 -7.5413728e-01
 -2.1666445e-01
 -1.1614889e-01
 -1.2400713e-01
  9.8508991e-02
 -3.7505490e-01
  8.2110447e-01
 -1.8284859e-01
 -1.1025673e+00
 -8.1215906e-01
  8.3266310e-02
  1.3032929e+00
 -1.9872807e-01
 -3.5876915e-02
  1.2021270e-02
  2.6777616e-01
 -1.5250485e+00
 -3.7240282e-02
  1.6345272e+00
  9.4063744e-02
  1.9860607e+00
  3.9652780e-02
  5.1131334e-02
  9.4877765e-02
  1.7930441e-01
 -4.2122078e-01
 -2.5661606e-01
  8.4920913e-02
  1.2467515e-01
  2.6817465e-01
 -6.0344562e-02
 -4.8484959e-02
 -6.6389509e-02
 -6.9750257e-02
 -1.0276112e-01
  2.5662508e-02
  2.4493288e-03
 -2.0614311e-02
 -3.9422560e-02
  1.1585749e-01
 -1.2940288e-02
  1.8246792e-01
  2.6531233e-02
 -7.5968623e-02
  1.9380125e-01
 -2.1195440e-03
  2.1674266e-02
  1.3315446e-02
 -4.3255225e-02
  5.8993544e-02
  3.7248353e-03
 -2.3512182e-01
  3.2037545e-02
  8.9587651e-02
  2.7573458e-04
 -5.1286340e-02
  2.7258913e-03
  1.6921592e-01
 -9.9670663e-02
 -1.3583985e-01
 -2.2354698e-02
  6.7471497e-02
  1.8383504e-01
  5.9374768e-01
  6.1097156e-02
  6.7811951e-02
  2.3228968e-03
 -8.4498189e-02
 -6.3610628e-02
 -9.9684246e-02
 -1.4053676e-01
  8.2319431e-02
  2.6564601e-01
 -3.2235041e-02
 -2.3513182e-01
 -1.1329567e-01
 -5.6856353e-02
 -1.8540388e-03
 -1.0252570e-01
  1.9660299e-01
 -9.9305168e-02
  2.9837446e-02
  3.7179044e-03
 -9.5836125e-02
 -1.5224110e-02
  6.7376746e-03
 -1.8221880e+00
  8.1432976e-02
  3.3988485e-01
 -4.7423780e-01
  3.1574290e-02
  4.4716507e-02
  6.9317512e-02
 -1.1625586e+00
  8.5721016e-02
 -4.9306720e-02
 -3.2145325e-02
  9.1195866e-02
  2.8456008e-01
 -1.6185379e-02
 -9.4959773e-02
  7.6727740e-02
 -3.4113072e-02
 -1.9827302e-01
 -1.9976219e-02
 -4.8650395e-02
  2.4912918e-02
  1.4230838e-01
  7.2843526e-03
 -3.4505982e-02
  4.7441551e-01
  1.0587065e-02
  2.2680321e-01
  1.7074270e-02
  7.8516312e-02
  6.9226481e-02
 -1.3534229e-01
  1.3505313e-02
 -9.1424510e-02
 -2.2924035e-03
 -6.9035396e-02
  2.5909517e-02
 -1.2452915e-01
  1.1469287e-01
 -1.0589855e-01
 -8.7195359e-02
 -2.6846871e-02
 -6.4817451e-02
  4.3350217e-01
 -6.6091414e-03
  2.5970280e-02
 -5.4533664e-02
  5.1578391e-02
 -1.1005134e-02
  6.1076310e-02
  3.8551392e-03
 -3.2629725e-01
 -7.9854563e-02
  6.8402499e-02
 -1.6181861e-01
 -3.8527224e-02
 -3.0891288e-02
  7.6528542e-02
  1.8294369e-01
 -1.3256162e-01
 -1.0069887e-01
 -8.1785671e-02
 -2.6895838e-02
 -3.0562181e-02
 -2.1015885e-01
 -3.7009858e-02
 -2.9665707e-02
 -2.0365329e-02
 -7.9992019e-02
 -1.0474954e-01
 -3.4857541e-01
 -6.2760906e-03
 -1.0799048e-02
  3.1855402e-03
  5.2821130e-02
 -1.8045446e-02
  1.6200246e-03
  1.0309654e-01
 -6.4292154e-04
 -1.2834764e-01
  1.8996176e-01
  5.6801766e-02
 -5.8359676e-04
 -2.2251791e-01
 -1.3401088e-01
  3.8961817e-02
 -1.2048177e-02
  1.1087898e-01
 -3.7183460e-02
 -1.8080114e-01
  1.1804830e-01
 -9.7096011e-02
  1.9850885e-03
 -3.1381524e-01
 -1.3376029e-01
 -3.8147599e-02
  1.4642493e-01
 -9.6648619e-02
  9.6951395e-02
 -5.2595351e-02
 -1.3076091e-01
  8.1485342e-03
  5.7572901e-02
  5.4188170e-02
 -9.6272446e-02
  6.0845684e-02
 -2.9226232e-02
 -6.2425844e-02
  2.5015222e-02
 -1.2223769e-01
 -4.7526732e-02
  1.7771151e-02
 -1.4686130e-01
  7.4632009e-03
 -8.9689568e-02
  1.9572033e-01
 -9.3959890e-02
  5.7518475e-02
 -1.7671894e-01
 -3.8416598e-03
  1.2255830e-01
  1.1264274e-01
  4.7534853e-02
 -5.6200888e-02
  2.5040867e-02
  7.0520020e-03
 -9.6969739e-02
  1.5199970e-02
  3.3466633e-02
 -2.5783774e-01
  7.2664499e-02
  1.9710761e-01
 -1.1998271e-02
 -2.3598367e-02
  2.3239905e-03
 -1.4478614e-02
  6.2135760e-02
 -1.7667092e-02
  2.6026288e-01
 -2.0172052e-01
 -4.5425282e-04
 -2.2512676e-01
 -3.5136487e-02
  8.1240661e-02
  4.9182575e-02
 -1.2246325e-01
  5.9876923e-02
 -1.3117631e-01
 -3.8000569e-02
 -2.0314117e-01
 -5.7610730e-03
 -2.1267273e-01
  1.1508131e-02
  1.1815782e-01
 -5.2810315e-02
  5.7287950e-02
 -8.1466407e-02
 -2.5126031e-02
 -1.1257985e-01
 -6.0511168e-02
 -3.2638628e-02
  4.9250565e-02
  4.6359412e-02
  9.9866606e-02
 -3.1666391e-02
  1.7519832e-01
  8.8607110e-02
 -2.3684029e-02
  1.7110819e-01
  2.6973933e-01
 -4.7854353e-02
 -1.4008658e-03
  6.1796494e-02
 -3.5067249e-02
  1.7065991e-01
 -1.4212111e-01
  2.0858189e-01
 -8.3755301e-03
 -2.4548987e-02
 -1.5981284e-01
  3.3088822e-02
 -1.5700632e-04
 -1.9298071e-01
 -5.4415513e-02
 -2.6441133e-01
 -1.8300466e-01
 -8.6785913e-02
  2.1814035e-02
 -9.2484504e-02
  8.7548368e-02
 -5.5380017e-02
  7.7083498e-02
 -2.1967936e-02
 -3.5460097e-01
  1.0994048e-01
 -1.8285516e-01
  5.3312067e-02
 -1.5812850e-02
 -1.9607092e-01
  2.9295675e-02
 -8.0481730e-02
 -2.8294649e-02
  9.9900223e-02
 -1.8463928e-01
  1.3021499e-01
  1.1017843e-01
 -1.6162825e-01
  7.6465927e-02
  2.2170447e-02
  1.4563649e-02
 -2.1939935e-01
  9.8700039e-03
 -2.4958876e-01
 -6.0228750e-02
  1.6960300e+00
 -2.2574894e-02
  1.1837379e-02
  2.5135332e-01
 -6.0374469e-01
  9.7144343e-02
  8.3143038e-01
 -2.7172619e-01
 -2.8340453e-01
  1.5379201e-01
  8.2172319e-02
 -2.5728798e+00
  1.7953677e-01
 -6.6937882e-01
 -6.0162193e-01
  5.3149980e-01
 -8.4959340e-01
 -7.3177323e-02
  9.7731680e-02
 -1.9879397e-02
  6.0616583e-03
  7.4115610e-03
  1.7997505e-01
 -4.9615145e-02
 -1.1592051e-02
  2.6818407e-01
  3.3341303e-02
  3.7423781e-01
  6.5105379e-02
  4.8831906e-02
 -4.7544993e-02
 -4.9153000e-02
  7.5230819e-01
 -8.1368439e-02
 -1.1111774e-01
  5.1304291e-04
  4.2796697e-02
 -1.9536363e-01
  3.4114751e-01
  1.1703745e-04
  1.0277368e-01
  2.1045449e-01
  2.0863391e-02
 -1.1534370e-01
 -1.2326895e-01
 -8.4715694e-02
  5.3301208e-02
  3.7384313e-02
 -4.5935597e-02
 -4.5346353e-02
  1.7979003e-01
  5.3624276e-02
  3.5165615e-02
 -1.8915786e-01
 -2.7641872e-02
 -4.1272208e-02
  3.0978678e-02
 -2.9649348e+00
  1.1371685e+00
  9.5072436e-01
 -5.3912082e+00
 -4.1311812e-01
  5.8521158e-01
 -9.1652878e-02
  3.6536441e+00
 -3.0015230e+00
  1.2977710e-01
 -2.1082458e-01
  2.7554432e-01
  1.4697740e-02
 -5.9488568e-02
  6.0235526e-02
  2.0795277e-01
  1.4721616e-02
 -6.9891465e-01
  1.1430943e-01
 -3.1186324e-01
 -4.7117680e-02
  8.4844567e-03
 -8.5231411e-01
 -1.1618983e-01
 -8.1093222e-02
 -4.7601111e-02
  1.8123002e-03
  1.5173843e-02
  4.1457570e-01
 -7.5731836e-03
 -9.7259633e-02
  6.9178574e-02
 -1.4182143e-02
 -2.6184282e-01
  7.9011522e-02
  4.0141460e-02
  2.9458631e-02
  1.0360682e+00
 -1.5035038e-01
  1.9735768e-01
  2.9635045e-01
 -1.7425755e-01
  6.1768810e-03
  3.6665060e-02
  1.7154999e-01
  1.4467677e-01
  1.9158804e-01
 -9.4656028e-02
 -2.4686898e-03
 -6.6538863e-02
  1.4899376e-01
 -4.9244704e+00
  1.0157048e-01
 -1.8898243e-01
  8.0813840e-03
  2.7371523e-01
 -1.5452659e-01
 -4.2630225e-02
  2.5315624e-01
  2.9969311e-01
 -2.3182483e-02
  1.9713379e-01
 -2.5597256e-01
  8.1966519e-03
 -9.7081065e-02
  1.4328188e-02
 -2.4932529e-01
 -6.0569752e-02
  9.3505904e-02
 -3.9765596e-02
 -6.6633061e-02
 -7.4063800e-02
  1.3550419e-01
  2.9751658e-01
  2.3510259e-01
 -9.2300592e-04
  9.3838495e-01
 -1.2744318e-01
  1.5092270e-01
 -8.9638941e-02
  1.4990344e-02
  2.9495850e-01
  1.9140226e-01
  5.3408009e-01
 -1.9821815e-01
  4.6048749e-02
 -1.6018840e-02
  2.1524845e-02
 -1.5197398e-01
 -7.4244633e-02
 -6.0148552e-02
 -9.7457562e-03
 -8.7491474e+00
  1.0437972e-01
 -4.4358291e-02
  1.0078645e-01
  7.7664286e-02
  1.3913203e-02
  5.1977783e-02
  6.7842238e-02
 -1.5907197e-01
 -1.2879071e-01
 -3.5353182e-03
  1.1255943e-01
  3.2962520e-02
  7.1252674e-02
 -1.4549690e-01
 -5.9521957e-03
 -1.5179120e+00
  1.0670356e+00
  1.4161617e-01
 -2.7895460e+00
  5.0132737e+00
  8.0605969e-02
  2.7059266e-01
 -1.1608470e-02
  8.8815433e-01
 -2.2213986e-02
  1.2002078e+00
  6.7507422e-01
 -9.7266532e-02
  6.0180348e-01
 -6.5837265e-03
 -2.1730954e-02
  1.0836076e-01
  9.6735850e-02
  2.0535497e-01
 -1.9067494e-02
  1.7593472e-01
 -5.3027343e-02
 -1.7685008e-01
 -1.5397905e-01
  3.4805214e-01
 -1.0674728e-01
  1.8823437e-02
  3.4783745e-01
  3.6426774e-01
  6.4723492e-02
  3.6626250e-02
  1.8727569e-01
 -6.8892211e-02
 -9.7782560e-02
 -5.2350092e-01
  8.1208505e-02
  8.6187638e-02
  5.5359241e-02
 -4.4372693e-01
 -4.1925125e-02
  4.3970403e-01
 -1.8537295e-01
  5.1580828e-01
 -5.2524813e-02
 -4.4856913e-02
 -1.6072532e-02
  1.6177998e-01
  3.7909253e-03
  2.9959563e-02
 -3.7702525e-01
 -4.1716099e-02
  2.9422255e-02
  1.4752065e-01
 -1.9812037e-01
  3.8611691e-02
  2.9669059e-02
  1.0020438e-01
 -7.8932032e-02
  8.9717925e-02
  8.2040373e-03
  8.2306154e-02
  5.8771763e-02
  1.5632160e-01
  9.9670611e-02
 -1.2101370e-01
  5.3444017e-02
 -6.2196996e-02
 -1.6438888e-01
  2.8290740e-01
 -8.6160608e-02
  2.8050028e-02
  7.6662034e-02
 -5.7960004e-02
  1.2010491e-02
  3.2573469e-02
 -1.8240370e+00
  9.6360825e-02
 -3.7219711e-02
 -1.2068021e-02
  2.9635020e-03
  4.8505463e-02
  2.0419728e-02
 -2.3570577e-02
 -1.1119177e-02
  4.5735152e-03
  1.0821151e-02
 -2.2106964e-02
 -5.2283529e-02
  1.4809258e-01
 -6.9072098e-02
 -3.7958074e-02
  1.8024696e-01
 -5.0990652e-02
  5.2514434e-02
 -3.8500797e-02
 -7.8335419e-02
 -2.4410686e-02
 -5.7815481e-02
  1.3603702e-03
 -8.1501588e-02
 -7.6765902e-02
  2.8359610e-01
  3.2777041e-02
  4.0589999e-02
  9.5876083e-02
 -1.7391126e-01
 -5.3027189e-01
 -1.4046974e-01
  1.9609457e-02
 -9.5299013e-02
  6.8417698e-01
 -7.2566915e-01
  2.6589870e-01
 -7.1335576e-02
  1.4392515e-01
  1.2781668e-03
  6.9414389e-01
  1.9550680e-03
 -2.3457436e-01
 -1.2070605e-01
 -1.3671920e-01
  7.1028778e-03
  2.7891365e-01
  7.4341238e-01
 -7.6424323e-02
 -1.1067069e-01
 -8.1529850e-01
  1.0716198e-02
 -1.7264191e-02
  1.1874062e-01
 -1.5808480e-02
 -1.7851790e-02
  2.3532519e-02
 -2.3878215e-02
 -1.5248571e-01
 -8.2713272e-03
 -9.2529319e-02
  9.8920856e-03
 -9.3875229e-01
 -6.2144857e-02
 -2.3998022e-01
 -9.6209161e-02
 -4.8274063e-02
  1.5243419e-02
 -1.0424694e-01
  5.6274171e-04
  2.2948034e-02
 -3.2995090e-01
  2.0267369e-02
  1.2823264e-01
  8.3863750e-02
  1.7177334e-01
  2.0289743e-02
  4.7779679e-01
 -6.4252481e-02
 -3.1712271e-02
  7.1229622e-02
  4.0141521e-03
 -8.2092360e-02
  7.1656287e-02
 -2.0654824e-01
 -1.2269896e-02
  3.2317448e-01
 -2.2405553e+00
 -2.6636055e+00
 -1.7102386e+00
 -1.6304669e+00
 -1.3375913e+00
  4.6890739e-01
 -2.0367217e+00
  1.2747109e+00
  7.9176384e-01
  5.8816071e-03
 -5.1458135e-02
  2.2016981e-01
  2.7716796e+00
 -1.3801093e+00
 -4.5406508e+00
 -1.0254707e+00
 -1.6398230e+00
  3.5832159e-02
 -2.4907348e+00
  1.4185673e-01
 -3.3626309e-01
  1.7409704e+00
 -7.0285207e-01
 -1.0525419e+00
 -3.8418242e-01
 -1.3319874e-01
  1.2437118e-01
  5.0228769e-01
 -4.7865340e-01
 -3.7329182e-02
 -1.1565698e+00
  7.3047847e-02
 -5.7042730e-01
 -3.4625345e-01
  1.0760809e-01
 -5.7489556e-01
 -2.3745267e+00
 -1.5734618e+00
 -2.7631328e+00
 -1.0111099e-01
  2.9621089e-01
 -1.8488219e-01
 -2.0064358e-01
 -9.5845169e-01
  2.2440958e-01
  3.4036291e-01
 -2.3828976e-01
 -2.7823232e-03
 -7.7358866e-01
 -5.6178745e-02
  1.0229778e+00
  9.9302009e-02
 -1.1650832e-01
  2.5045941e+00
  1.2843813e+00
 -1.1104175e+00
  3.8941281e+00
 -1.2356544e+00
  8.1566548e-01
 -1.3563489e+00
  1.2532339e+00
  1.3188124e+00
 -1.1932312e-01
  2.6202407e-02
  2.6739219e-01
 -3.0507222e-01
 -2.5555968e-02
  6.9079787e-02
 -3.1856041e+00
  8.7379189e-03
 -6.5722294e-02
  4.1083941e-01
 -4.6727362e-01
 -1.1036257e-01
  2.3032790e-01
 -2.1806614e-01
  9.4904050e-02
 -1.9414460e-02
 -2.8929170e-02
 -2.4746546e-01
 -2.4959703e-01
  2.2927134e-01
  2.5001743e-01
  1.1693791e-02
  1.0054671e-01
  2.6518533e-01
 -6.5383263e-02
  6.8582380e-01
  5.5657065e-01
 -1.3482367e-01
  1.6591467e-02
 -1.8606370e-02
 -3.1560667e-02
  2.9650658e-01
  6.9341898e-02
  2.4646279e-01
  3.1787974e-01
  4.0501639e-02
 -4.7685350e-03
 -1.7342429e-01
 -1.1919823e-01
 -4.3452509e-02
 -1.8202884e-02
 -1.9398656e-01
  2.8710354e-02
 -5.5007454e-02
  3.0155081e-01
  3.8553664e-01
  1.8516883e-01
  2.0294594e-02
 -2.2059217e-02
  5.8061432e-02
 -1.0637219e-01
 -1.4130233e-01
 -1.9074403e-02
  2.2427027e-01
  1.6158566e-01
 -8.0055119e-03
  8.1731237e-02
  1.6883756e-01
  6.4455077e-02
  2.0024398e-01
 -1.4425610e-01
 -7.5210214e-02
 -9.1857918e-02
 -1.6484339e-02
 -9.2937805e-02
  1.5243110e-02
 -4.4109039e-03
 -1.1794503e-01
 -1.0293528e-01
  1.5732817e-02
  2.1856339e+00
  2.0829327e-02
 -7.8074582e-02
 -9.6270153e-03
  8.4148988e-02
 -1.3777883e-01
 -3.7629168e-02
  1.2668356e-02
  1.3394503e-01
  4.7228369e-03
  8.5762642e-02
 -2.1227938e-01
 -6.3383186e-01
  1.0669194e-01
 -6.1501030e-02
 -6.3946605e-02
  2.7549941e-02
  1.5320892e-02
 -7.4310325e-02
 -1.5471099e-01
  1.0664420e-01
  5.7613319e-03
  1.1409086e-01
 -7.1841301e-03
 -2.9691253e-02
  9.6206255e-02
 -1.5354958e-02
  1.2011395e-01
  3.8111061e-02
  2.3817391e+00
  4.0876679e+00
 -3.4288282e+00
 -1.5757486e+00
  5.0767571e-01
  1.2962837e+00
 -1.3540126e+00
  2.4962864e+00
  3.4856288e+00
 -7.9420185e-01
  3.5812911e-01
 -4.2536948e-03
 -2.9733452e-01
 -5.0236598e-02
  6.3487679e-01
 -8.1523949e-01
 -2.0095414e-02
  4.6241586e-03
  1.5225491e-02
 -8.0209702e-01
  1.4210980e-02
  8.7199710e-02
 -2.2937055e-01
  1.3600949e-02
  9.7429478e-01
  2.9284465e-01
  4.5893577e-01
  3.2332686e-01
  3.2329717e-01
  9.6831992e-02
 -3.2788226e-01
  3.4380150e-01
  9.6331233e-01
  3.9617068e-01
 -3.3625349e-02
  1.0722829e-01
  2.3110570e-02
 -5.7703727e-01
 -2.3047984e-01
 -5.0106770e-01
 -2.3023480e-01
 -1.6800357e-01
  2.6502532e-01
 -2.5906760e-02
 -5.4714028e-02
  7.8379534e-02
 -1.0425821e-03
 -2.1628384e-02
  4.9210500e-02
  2.1318859e-01
 -1.5015155e-02
  6.3492231e-02
  4.4282265e-03
 -2.3676977e-03
 -2.4335651e-01
  5.1943604e-02
  2.2134079e-02
 -2.2408301e-01
  2.9358160e-04
  1.3477232e-01
  4.9017891e-03
  5.4675646e-02
  4.8197471e-02
 -3.1867731e-02
 -1.6178608e-01
  2.5789815e-01
 -2.6675078e-01
 -7.9281121e-02
  1.2383265e-01
  2.9281873e-01
  3.6039585e-01
 -2.2233908e-01
 -1.2328649e-01
 -3.3957191e-02
 -1.3164674e-02
  3.1661406e-02
 -5.7498205e-02
  6.2573306e-02
  2.2173733e-02
 -2.9408764e-03
  9.7730204e-02
 -7.5276777e-02
 -5.7765350e-02
  1.7307591e-02
 -1.1912364e-01
  1.6057735e-02
 -1.0480788e-01
 -4.6748571e-02
 -2.9441833e-02
 -3.4899637e-04
  2.8709590e-01
  7.1077354e-02
 -4.1147556e-02
 -4.2059064e-02
  1.3381397e-02
  8.5170723e-02
 -2.5760654e-02
  4.0282283e-02
 -4.2917307e-02
 -8.5625760e-02
  1.2165761e-02
  1.7811373e-02
  3.7804555e-02
  1.9038452e-02
 -3.9146319e-02
  1.2854144e-02
 -1.3808203e-01
 -9.8325767e-02
 -3.8268488e-02
 -8.2227036e-02
 -8.6900100e-02
 -6.2626642e-01
  6.4859197e-02
 -6.9901073e-01
  7.0126778e-01
 -7.5416971e-04
  9.5657095e-02
 -6.3927751e-03
 -2.7475797e-02
 -6.9756389e-02
  6.8029948e-02
 -9.7213052e-02
 -5.1488930e-01
  6.2584656e-01
 -1.7478172e-02
 -4.0717930e-02
 -2.3410421e-02
 -1.0433367e-01
  5.4046884e-02
  1.6869927e-02
 -7.6622307e-02
 -3.1705749e-01
  5.1669966e-02
  1.5953960e-02
 -3.3585438e-01
  2.8386898e-02
 -8.2039185e-02
 -1.6818616e-01
  1.2119992e-03
  2.3224520e-02
 -1.2390310e-01
  4.0151507e-01
  4.1825790e-02
 -2.9634497e-01
 -3.5447653e-02
  1.0420266e-01
  1.9569529e-02
 -1.1300930e-05
 -1.6566585e-01
  1.4504252e-01
 -1.2517521e-01
 -1.9045904e-03
 -1.6783322e-01
 -1.3429005e-01
 -7.8082114e-02
 -8.0467369e-03
 -8.5385673e-02
 -4.6445113e-02
  1.6718671e-01
  7.7240475e-02
 -7.3728864e-03
 -3.1244222e-02
 -1.0128458e-01
 -2.8516868e-02
 -1.3024981e-01
  1.2611223e-03
 -1.5689667e-02
  8.6801849e-02
 -1.1129638e-01
  1.7530637e-02
  5.9090916e-02
 -8.0512837e-03
  1.4202771e-02
 -3.6596175e-02
 -5.2595776e-02
 -9.4362192e-02
  5.6730244e-02
  3.7202530e-02
  2.8121585e-01
 -1.6919330e-02
  3.4093063e-02
 -6.4238568e-04
  1.5219310e-01
 -1.3392078e-02
 -8.5513042e-03
 -1.4510258e-01
  1.0582492e-02
 -8.8600941e-02
  9.3750898e-03
  6.2556237e-02
 -6.0964882e-02
  1.0915767e-01
  5.5831784e-01
 -2.9681451e-03
 -1.0313647e-01
 -3.2357998e-02
 -5.1440080e-03
 -1.0110643e-01
  4.5843873e-02
  8.6532950e-02
 -2.2638071e-02
  2.4795409e-02
  5.8096000e-03
  6.0172691e-03
 -1.0346937e-01
  9.4773464e-02
  5.6170158e-02
  2.5261477e-02
  1.0972401e-01
  1.5196812e-01
 -3.3208650e-02
  2.9405318e-02
  1.7753510e-01
 -3.1936017e-01
  2.1028804e-02
 -1.0562667e-01
  3.3660981e-01
  1.0267876e+00
 -4.4647461e-01
  3.5650432e+00
 -1.8700980e+00
  8.9590776e-01
  6.8197173e-01
  1.0236377e-01
 -9.1895097e-01
 -5.6628183e-02
  2.4247749e-01
  6.2073636e-01
  5.5184299e-01
  9.8278098e-02
  1.0264427e-01
  4.4927263e-01
  1.9543117e-01
  2.4681546e-01
 -2.1578597e-02
 -3.4300115e-02
 -1.0393193e-01
 -9.4572008e-02
 -2.6591057e-01
 -1.8290931e+00
  2.3392273e-01
  4.8137955e-02
  2.3569660e-02
 -1.2672076e-02
  7.8225982e-01
 -1.3435395e-02
 -7.0581311e-01
 -3.5523086e+00
 -1.9272186e-02
 -1.3098756e+00
  2.1655391e-01
  3.5693105e-02
  7.4776612e-02
  2.1447696e-02
  3.6327709e-02
 -1.1560506e-02
 -2.6816815e-01
  1.3169906e-01
  5.9399139e-02
 -8.9105360e-02
  1.1975564e-01
 -3.1276238e-03
 -2.7869374e-01
 -1.3001996e-01
 -1.6051044e-01
  5.6714315e-02
 -6.2278807e-02
  1.1350799e-01
 -2.4338253e-02
  1.4513347e-01
  3.4017709e-01
 -5.0192341e-02
  9.2423953e-02
 -5.9591392e-03
 -6.3531846e-02
  1.4641906e-01
 -2.8287032e-01
  4.3236371e-02
 -3.6050624e-01
 -6.8045460e-02
 -4.1106667e-02
  3.8273191e-01
 -3.1916626e-02
 -4.1720003e-02
 -1.2889050e-01
 -1.4387830e+00
  6.3802535e-03
 -6.4590177e-03
  2.2335549e-01
  3.4734309e-02
 -7.0218548e-02
  6.2500849e-02
  3.8339701e-01
  4.0984619e-01
  3.4361684e-01
 -2.2500321e-02
 -1.4175783e-01
  8.9835033e-02
  1.7482437e-02
  2.9436478e-01
  2.6099747e-01
 -1.7876751e+00
  1.1361638e-01
  2.5140956e-01
  2.5089949e-01
  2.4318933e-01
 -2.8821878e-02
 -5.1485956e-02
 -1.3491709e-03
 -1.6275954e-02
  2.4640426e-02
  1.5908121e-01
  1.6336545e-02
  3.0215841e-02
 -3.4687676e-02
 -6.9338679e-02
  5.0737910e-02
 -9.1812294e-03
  2.5707666e-02
  5.0666071e-02
 -1.3485804e-01
 -2.3457880e-01
 -3.4349382e-02
  1.8594096e-03
 -4.0826853e-02
  2.8227257e-02
  1.7962587e-01
  2.7617702e-01
  5.7060856e-02
 -2.0504057e-01
 -1.1181207e-01
  2.2973262e-01
 -7.2530679e-02
  8.9304417e-02
  2.4812147e-03
 -3.6456469e-02
  7.4701984e-03
  1.1375366e-02
  1.5190645e-01
 -8.7765604e-02
  1.3985341e-02
  1.0912935e-01
 -5.9128944e-03
 -8.3162151e-02
 -8.8751405e-02
  6.0773296e-03
 -1.6079061e-02
 -2.7773479e-02
  4.1545518e-02
 -2.4779323e-02
  9.5256567e-02
  1.5856177e-02
 -3.9892294e-03
  1.1214676e-02
 -3.8125593e-02
  1.3414131e-01
 -1.1516616e-02
  1.5949886e-02
  5.4067653e-01
 -1.0901643e-02
 -1.5488613e-01
 -2.1560206e-03
  4.0700108e-02
 -5.9677266e-02
 -5.5393737e-02
  1.6921433e-02
  6.5744802e-02
  1.3596040e-01
  6.8501286e-02
  2.2886834e-01
  2.4609305e-01
 -1.1724171e-02
 -1.7528276e-01
 -7.8396067e-02
 -9.3789659e-03
 -2.2145554e-01
 -1.1375323e-01
  9.1553137e-02
 -8.2933939e-01
 -4.2639785e+00
  3.0809927e-01
 -1.8329455e+00
  8.6221886e-01
  2.0808270e+00
  4.2580695e+00
 -1.2379857e+00
 -9.3863988e-01
 -5.9820808e-02
 -3.8608172e+00
  2.8009402e-02
 -2.1267737e-01
  3.2541575e+00
 -5.8552283e-01
  4.6399957e-01
 -2.6910138e-01
 -4.9043155e-01
  6.2362707e-01
 -1.6243397e+00
 -5.2142644e-01
 -7.8462064e-02
  1.5197631e+00
 -6.0536098e-01
  1.0552064e+00
  3.1968992e-02
 -4.1702338e-02
 -6.5621054e-01
 -2.4592602e+00
  9.7931641e-01
 -1.4171189e-01
  1.7950417e+00
  5.9315932e-01
 -7.5948514e-02
 -6.6249508e-01
 -2.2881790e-01
 -3.3672899e-02
  7.2297215e-01
 -1.5716094e-01
  5.1858437e-01
  2.1127086e+00
 -1.6766964e+00
 -1.4113030e+00
  3.2488097e-02
 -9.1395594e-02
  9.3809046e-02
  5.2760482e-01
 -1.9825813e-01
 -3.7759546e-02
 -1.8297832e-01
 -9.0025224e-02
  1.3738419e-01
  6.6038355e-02
 -1.9776799e-01
  1.0233174e-01
 -7.9509988e-02
 -1.8815869e-02
  3.7027981e-02
  1.0453697e-01
  2.5448717e-02
 -2.9078415e-01
  1.0931065e-01
  1.8142806e-01
 -1.5725045e-01
  2.3941089e-01
 -2.4472922e-03
 -1.6799802e-01
 -3.7061129e-02
 -1.9362420e-03
 -1.6631735e-02
  4.5872384e-01
  3.3190805e-02
 -9.6372291e-02
  6.8138227e-02
  1.2389088e-01
 -5.5424105e-02
 -5.8966126e-02
 -5.9303943e-02
 -3.0632410e-04
  1.2227537e-02
 -9.0188511e-02
 -5.8729634e-02
  1.0489795e-01
  3.3138948e-03
  1.9622315e-02
 -2.4286734e-01
 -3.7702881e-02
  2.2681687e-02
  3.6401311e-01
  7.0052070e-04
  1.4922081e-01
 -2.2856416e-02
  1.1096916e-01
 -2.4972501e-01
  5.6541905e-02
  1.9993979e-01
  1.1595543e-02
  4.5304574e-02
  1.0991013e-01
 -4.9118795e-02
 -6.6040479e-02
  3.0280238e-02
  2.2613864e-02
 -1.5910068e-01
 -6.6590086e-02
 -4.0935341e-02
 -5.1161632e-02
 -1.0693044e-01
  1.4728544e+00
 -8.9169309e-02
  8.8508356e-01
  1.1077476e+00
 -5.3320041e+00
  2.0027749e-02
  7.8659719e-01
  1.5842103e+00
 -7.5014746e-01
 -8.1072666e-02
 -9.6876454e-01
 -6.1224911e-02
  6.4110702e-01
 -7.0575990e-02
  7.1904939e-01
  1.5571654e-01
  2.1064896e-02
  1.4835595e-01
 -2.9330179e-01
  1.5706639e+00
 -1.6110420e-01
  8.6081468e-02
  2.5160983e-01
  7.9960066e-01
 -8.3370274e-01
 -6.0249764e-02
  1.9680175e-01
 -1.2879267e-01
 -1.4206009e-01
 -2.3588559e-01
 -7.8954202e-01
 -2.5989145e-01
 -7.1345223e-03
  7.4796027e-01
  5.9409612e-01
  7.7711148e-03
  6.9433063e-01
 -1.3371679e-01
  1.4914728e+00
  3.9143711e-02
  1.2279189e+00
  3.2910284e-01
 -1.3707367e+00
  4.6320498e-02
  2.8166506e-02
 -1.4157866e-01
 -9.4319358e-02
  9.6866824e-02
  2.6502696e-01
 -2.3160623e-01
  5.0469148e-01
  4.4820357e-02
 -2.8105599e-01
 -2.1255755e-01
 -1.1987861e+00
 -8.7168282e-03
 -5.7162426e-02
 -3.1066701e-01
  9.2665499e-01
 -1.8988597e+00
 -4.3992014e-03
  7.9777944e-01
  4.1847008e-01
  7.3344022e-01
 -8.4085310e-01
  2.0883137e-02
  4.2996705e-01
  1.3147900e-01
 -5.9929663e-01
  2.6751006e-01
 -5.4023158e-02
 -1.1723505e-01
 -1.0817511e-01
  7.4244523e-01
  1.7180221e-01
 -3.4543070e-01
  1.0373985e+00
  4.5765620e-01
  9.4850582e-01
 -1.6654271e-01
  5.9063073e-02
 -3.6969548e-01
  7.0308484e-02
  1.5827063e-01
  1.8944927e-02
 -9.4583549e-02
 -6.2828463e-01
  5.5139631e-02
 -4.0685287e-01
 -2.1515389e-01
  1.6378641e-01
  6.1709195e-02
  1.9427789e-02
 -2.4605654e-02
  3.9813575e-01
  3.0381489e-01
 -1.0924225e-01
  9.0046950e-02
  1.1381369e-01
 -7.7241920e-02
  9.3388092e-04
  5.2974904e-01
 -1.3699963e-03
 -2.4881143e-02
 -2.0539545e-02
  1.1473634e-01
 -1.7760931e-02
  1.5129028e-03
 -1.4655931e-01
  1.6578223e-01
 -9.4828054e-02
 -1.5329276e-01
 -4.5238633e-02
  6.3362601e-03
  4.1059151e-02
  2.3078710e-02
  4.6858311e-02
  3.3073300e-01
 -5.4862909e-03
  2.2565739e-02
  4.1455511e-02
  1.7798694e-02
 -1.0053137e-02
  3.2005038e-02
 -6.3750312e-02
 -1.1411205e-02
 -1.2057283e-01
 -1.2217292e-01
 -1.1248811e-01
 -1.4905965e-01
  4.6277612e-02
 -9.9592589e-02
 -5.8119137e-02
 -3.3676393e-02
  5.2742671e-02
 -2.0894484e-01
  1.7707899e-01
  4.3571461e-02
  5.1030234e-02
  6.9148233e-03
  2.0407550e-01
  7.5638205e-02
  2.1845174e-01
 -8.9567294e-04
 -6.5563902e-02
 -3.6195757e+00
 -2.9580954e-02
  6.1201859e-01
  1.7485173e-01
 -3.1850901e-02
 -2.7433604e-01
  2.7324364e-02
 -2.0929238e-02
 -1.9079761e-01
  2.6150322e-01
  4.8183147e-02
 -8.4455565e-02
 -1.0872133e-01
 -1.0053238e-02
  7.8495570e-02
 -4.9001575e-02
  6.1089575e-02
 -5.0777888e-01
 -4.2228892e-01
 -2.7372947e-01
 -5.1711875e-01
 -6.4182885e-02
  2.2446018e-02
  7.1159911e-01
 -1.0651079e+00
  3.4181976e-01
  1.9430502e-01
 -9.2848517e-02
 -3.7649639e-02
  3.4247983e-02
  1.2148862e-01
  1.0676429e-01
 -1.0204946e-01
  1.7013963e-03
  3.5505433e-02
  1.6923906e-01
  3.5269219e-02
  9.9247217e-02
 -8.7917611e-02
 -5.5504616e-02
 -1.1354269e-01
 -6.5247275e-02
  8.2180955e-02
 -1.8980302e+00
 -8.3025627e-02
  4.1274586e-01
 -1.3387040e-03
 -1.9300139e-01
 -3.2327410e-02
 -3.6644589e-02
  7.7767566e-02
 -1.7550288e-02
  3.3493921e-02
  2.2956219e-02
  1.5054584e-01
  2.1820074e-01
  9.8091774e-03
  1.2660162e-01
 -1.3162702e-02
 -5.8881871e-02
  3.5899427e-02
  1.4047498e-02
  1.0492407e-02
  3.5301480e-02
  5.9271914e-01
  2.1207221e-01
 -6.4086817e-02
  5.8543008e-02
  1.6245805e-01
 -4.0384708e-03
 -1.7164277e-02
  3.2508810e+00
  7.8462195e-01
  7.0071764e-02
  1.4286104e+00
 -4.7854223e+00
 -2.6761901e-01
 -3.4495711e-01
  1.7538050e+00
 -2.7833273e+00
 -9.5151544e-02
  1.4345549e+00
  1.6258357e-02
  9.8856151e-02
  8.9786291e-01
  1.8378313e-01
  1.0302189e-01
  2.2482422e-01
  7.9230955e-03
 -1.9076525e-01
 -2.5501220e+00
 -6.3548833e-02
  1.1720294e+00
 -9.3237668e-01
  1.0488125e+00
 -9.7082460e-01
  2.1153200e-01
  1.1750665e-01
  5.0717041e-02
 -3.1686765e-01
 -2.5222141e-01
 -4.3396419e-01
 -1.8758020e+00
  4.1300520e-02
 -2.0082719e+00
  2.2783853e-01
 -5.3943601e-02
 -1.0658633e-01
 -9.7811973e-01
 -6.3017356e-01
 -9.7473308e-02
 -7.4022442e-02
  1.3172662e-01
  1.8968028e-01
  1.2862308e-01
 -2.4325155e-01
  5.9383325e-02
  1.2424976e-02
 -7.3348470e-02
  1.1706539e-01
  1.0730525e-01
 -6.4103514e-02
 -1.2396304e-01
  8.0744796e-02
  6.3260421e-03
  3.3641111e-03
 -2.7790776e-01
  8.2438104e-02
 -8.7187923e-02
  3.8840290e-02
  2.2468653e-03
  4.4662599e-02
 -5.0046444e-01
 -5.4813637e-03
 -1.2179536e-01
 -1.9152021e-01
  2.5161222e-01
  5.3205378e-02
  2.9189104e-02
  2.6902106e-02
  5.8688853e-02
 -1.7292612e+00
  4.3673556e-02
 -1.6256254e-02
  2.0077282e-01
  6.8990789e-02
 -1.0803105e-02
 -1.3107009e-01
 -1.2331944e-01
  1.6243886e-02
  1.6201995e-02
  1.4652292e-02
  1.3313827e-01
  1.4754152e-01
  8.6156853e-02
  6.6021450e-02
  7.5938717e-02
 -1.3646354e-02
 -1.5578076e-01
 -1.6037148e-01
 -6.4798355e-02
 -1.5234935e-01
  3.1814776e-02
 -1.3080534e-01
 -3.3655379e-02
  1.8913610e-02
 -7.2951458e-02
  2.2529101e-02
  2.4253440e-01
 -1.0386904e-01
 -1.0838385e-01
 -3.7735913e-02
  1.6859019e-01
 -4.6551652e-02
 -1.5451618e-01
  3.5403419e-02
  1.9172801e-02
 -6.4803483e-03
 -2.3509651e-02
 -2.6687441e+00
 -4.2235260e+00
  4.0505630e-01
 -1.0893027e-01
 -3.6729935e-01
  2.0554776e+00
  1.5171930e+00
  6.5394276e-01
  3.0578896e-01
 -2.1837084e-01
 -2.8168671e-02
 -2.6141260e+00
  1.8102476e-01
  4.2688094e-02
 -1.9253708e-01
  1.0070597e+00
 -1.1805715e-01
 -1.9417752e-02
  6.4635080e-01
 -3.8963544e-01
 -5.1444173e-02
 -1.0880255e-01
  5.0566383e-02
 -1.6744851e-01
  6.4233738e-01
 -8.4147054e-01
 -2.9056398e-02
  8.8112935e-02
  6.7017287e-02
  2.6143935e-01
  6.3258517e-01
  9.8772788e-01
 -2.1106040e-01
 -2.0594522e-01
 -6.7738938e-01
 -1.5316520e-02
 -7.0684820e-01
  9.8125590e-03
  1.4982547e-01
 -6.1799091e-01
 -4.6439428e-02
 -4.9850103e-01
  7.9774439e-01
 -3.6090186e-01
  2.5447639e-02
  5.4772478e-02
 -1.6334835e-01
 -1.0848930e-02
  1.8886080e-02
  2.5012111e-03
  9.0940893e-02
 -4.7896063e-01
 -3.3668507e-02
  2.4886027e-02
  2.6403551e+00
 -6.2549102e-01
  7.9969175e-02
  3.1951656e+00
 -4.5361227e-01
 -7.8991872e-01
  1.3388839e+00
  2.1545795e-01
 -3.8199673e+00
  1.3542907e-01
 -1.0298184e+00
  1.5660176e-02
 -9.3587255e-03
 -1.9247736e+00
 -2.8704348e-01
 -3.0322280e+00
 -1.8560119e-01
  2.1661369e-02
 -1.9959934e-01
  3.6021376e-01
 -1.3603975e-01
 -1.2058759e-01
  4.3193996e-02
  3.6771208e-02
  4.1768652e-01
  1.4775114e-02
  1.7512177e-01
 -3.6612043e-01
  3.6274402e-03
  2.5637022e-01
 -2.0926453e-02
  8.9325942e-02
 -3.7712088e-01
 -3.4138009e-01
  1.8539065e-01
  6.3384764e-02
 -1.6034158e-01
 -4.6354230e-02
  1.1546792e-01
 -1.0602035e-01
 -3.6418869e-04
 -1.0234598e-01
 -7.2108030e-01
 -4.6506312e-02
  3.1745064e-01
  1.8434629e-03
  1.7155932e-03
 -2.0990316e-02
 -2.7032845e-02
  8.1281461e-02
  1.3485285e-02
 -3.4899452e-01
  1.7870441e-01
  1.4563926e-01
  2.3343656e+00
 -7.7239715e-02
 -1.7336920e+00
  1.9110086e+00
  1.5834877e-01
 -5.0433683e-01
 -3.6448625e-01
 -1.4718165e+00
  1.2179744e+00
 -2.7648106e-01
 -2.5736594e-01
  2.7971352e-02
 -1.0581439e+00
 -9.7422853e-02
 -3.8188908e-01
 -2.5932803e+00
 -2.5941291e-01
 -5.1619142e-01
  3.1855372e-01
 -1.6277327e-01
 -1.4518964e-02
  7.3688912e-01
  3.6369521e-02
  1.1958779e-01
  9.9332440e-01
  2.4021573e-01
 -5.1691707e-02
  4.9753931e-01
 -1.5776201e-01
 -1.0853969e-01
  2.5299516e-01
  8.6634851e-01
 -2.4584423e-01
  7.9045868e-01
 -4.6545231e-01
  2.9700512e-01
 -1.3087517e-01
  1.9443600e+00
 -2.2409531e-01
  3.4526292e-02
  6.5879595e-01
  4.0391408e-02
  1.5576299e-01
  1.3426155e-01
  3.9218713e-02
  8.1929475e-02
  3.1385288e-01
 -1.5316850e-01
  5.7539966e-02
 -2.4811885e-01
 -8.7773288e-03
  8.6396921e-01
 -8.4963925e-02
  9.9824853e-02
  1.3574897e+00
 -2.7818525e-01
 -1.1698858e-01
  7.1515220e-01
 -1.0520890e+00
  1.0502144e-01
  1.6158499e-02
 -3.8431370e-01
 -9.9349862e-01
 -2.2126254e-02
 -9.6510397e-03
  2.1797362e-01
  1.1313829e-01
 -9.7088009e-02
  7.1193904e-02
 -5.8669381e-02
 -1.5574522e-01
  7.6472707e-02
  1.5663393e-01
  5.3010169e-02
 -2.3383942e-01
 -5.2968014e-02
  9.6169962e-03
 -4.5782444e-03
  1.0339186e-01
 -2.2899632e-01
 -1.6470479e-02
  5.1995683e-01
 -9.3427701e-03
 -6.2422410e-02
  5.2410059e-02
 -3.4061413e-02
 -1.1892415e-02
  4.7767892e-02
  2.1399735e-01
 -1.3015397e-01
 -3.0553646e-02
 -2.7692707e-02
 -8.9791223e-02
 -1.8468933e-01
 -2.4311565e-02
  6.3041084e-02
 -4.7215053e-01
 -7.9496466e-02
  7.0602432e-02
  9.4212294e-02
  2.9138165e-02
  4.6865214e-02
 -6.0422104e-02
  1.0624097e-02
  1.8514210e-01
  2.1226180e-01
 -6.6629492e-02
 -5.5117093e-02
 -3.7351693e-03
 -8.8048175e-02
  1.2971864e-03
  2.0654235e-02
  6.1785195e-02
  1.0456907e-01
  1.0333216e-01
  5.2657675e-02
  3.1994417e-01
  7.1295286e-03
 -7.7132538e-02
  5.1573856e-04
  2.8883800e-02
 -8.8907696e-02
 -3.7060376e-02
  4.2886678e-02
  7.1100302e-02
 -1.2340669e-01
  3.0482976e-02
  1.0593746e-01
 -2.3015015e-01
  4.8235331e-02
 -7.6359719e-02
  1.1385956e-01
 -7.8884229e-02
  1.5058321e-01
  4.3164961e-02
 -7.3511809e-02
  1.4300953e-01
 -7.5634316e-02
 -2.3883188e-02
  7.5573809e-02
  2.8943688e-02
  2.0674502e-02
  6.5567389e-02
 -6.9010921e-02
 -5.4026456e-03
 -2.9956315e-02
 -8.8193215e-02
 -8.9596003e-02
  2.7127346e-01
  7.8701682e-02
 -1.3456487e-02
  4.1276544e-02
  1.0133731e-01
 -3.4182590e-02
 -1.7428808e-04
  3.2740232e-02
  5.2335344e-02
  2.9653650e-02
 -8.4994212e-02
  2.0108005e-01
  9.2015631e-02
 -4.3806721e-02
 -6.0210451e-02
 -1.4566270e+00
 -9.8031062e-01
 -2.9674482e+00
  5.7355034e-01
  1.4063780e-01
 -6.8052822e-01
  1.7896739e+00
 -3.9367971e+00
 -9.1765961e-03
 -1.2235565e-01
 -1.4513351e-02
 -1.0888953e-02
  4.7475854e-01
  9.0921991e-02
  4.7188394e-02
 -4.8889361e-02
  6.5167904e-02
 -4.6206951e-01
 -2.2981642e-02
 -2.6905361e-01
  5.9950612e-02
 -3.2536653e-01
 -3.9235348e-01
 -1.6071370e-02
 -2.7077675e-02
 -1.4588831e-01
 -5.3699980e-03
 -8.7191053e-03
  7.9320185e-02
  9.5511422e-02
  1.4553359e-01
 -1.0397911e-01
 -2.6059290e-02
  7.2135709e-02
  1.2728263e-01
  9.2792965e-02
 -1.6885262e-02
  3.4289584e-02
 -2.3809457e-01
 -2.5088322e-01
  3.4246814e-01
 -4.3789360e-01
 -1.6700298e-01
 -6.8610787e-02
  8.8637710e-02
 -5.6261364e-02
  8.0241986e-02
  5.1904324e-02
 -2.5947537e-02
  5.5221349e-02
 -1.2862296e-01
  4.9432933e-02
  9.5974535e-02
 -1.5447004e-01
  7.0398734e-03
  1.1589242e-01
 -1.8965619e+00
 -8.9180872e-02
 -3.4834653e-02
  7.0617445e-02
  2.1451469e-01
  8.9283377e-01
 -1.4607693e-01
  3.4599472e-02
 -2.0225922e-02
  1.3462001e-01
  4.4240747e-03
 -1.1129260e-02
 -8.7919205e-02
  1.1905104e-01
  1.2444340e-01
  1.1536571e-01
  4.2845309e-02
 -4.8685268e-02
  3.4484029e-02
  1.8503722e-02
  1.3201298e-02
 -1.1316109e-01
  9.7758107e-02
  2.6788222e-02
  3.6569953e-02
 -6.1438853e-01
  3.0584482e-02
 -1.3609709e-01
  1.2666768e-01
  3.7241548e-02
  7.4086994e-02
  1.3164523e-01
 -9.9277860e-03
 -1.1239289e-01
 -9.0487329e-03
  1.2979890e-01
  7.0838951e-02
  7.5457238e-02
 -7.9117745e-02
 -1.2337090e-04
  1.3896077e-02
 -2.1390183e-01
  3.1955346e-02
  6.5265127e-02
  9.3761981e-02
  8.8620186e-02
  3.1493163e-01
  2.3882663e+00
 -2.9424846e-01
 -4.4646744e-02
 -1.2960146e-02
 -3.6461305e-02
  1.1752514e-02
  1.9389211e-01
  5.3000975e-02
  4.8577186e-02
 -1.1436296e-01
 -1.1335383e-01
  1.0131672e-01
  4.6907265e-02
 -1.0901350e-01
 -8.6273775e-02
 -1.1269967e-02
 -2.1534607e-01
  5.6194186e-02
 -4.1719005e-01
 -5.8966894e-02
  2.3814516e-02
 -4.5006879e-02
 -8.0751419e-02
  1.6402954e-01
 -8.0854103e-02
 -1.0427017e-01
 -9.1908220e-04
  1.5408170e-01
 -1.2626527e-01
 -3.8676832e-02
 -2.5296986e-02
 -1.0062771e-01
 -5.2057668e-03
 -3.9193708e-02
 -2.0057653e-01
 -3.7863366e-02
 -7.6227471e-02
  2.5845373e-02
 -4.2882353e-02
 -6.3198116e-03
  1.0284900e-01
  7.2964191e-02
  1.4856990e-01
  2.3933700e-03
 -7.8484423e-02
 -2.8944377e-02
 -5.7958469e-02
  1.5569680e-02
  1.1239132e-01
 -1.4431727e-01
 -2.8363788e-01
 -7.6250650e-02
  2.2071052e-01
 -2.1866643e-01
 -2.9673740e-02
 -1.1762325e-01
  1.0361145e-01
  2.3014171e-02
 -1.3004615e+00
  5.8694369e-01
  2.8683476e+00
 -5.2882218e-01
 -1.3981827e-01
  1.2219712e-01
  1.0457567e-02
  1.9447957e-01
 -1.6002628e+00
 -1.3244992e-01
 -9.6051849e-02
  7.9066330e-01
  5.6689486e-02
  1.3766369e-01
  2.9205146e-01
 -9.5263787e-02
  4.1751523e-02
  1.5712734e-01
  7.5495262e-03
  5.1274979e-03
  1.9262996e-01
 -3.2799687e-02
  2.2062303e-02
  2.3715053e-01
  3.3895171e-01
  5.7590101e-02
 -4.2272687e-02
  3.7163571e-01
 -5.6766135e-01
  9.7005540e-01
  1.5506275e-02
 -1.4823209e-01
  4.9691954e-01
  8.0058150e-02
  1.7412439e-01
  4.3754552e-02
 -1.5659392e-02
 -1.1962060e-01
  8.8938572e-02
  7.0177592e-02
  1.0307337e-01
 -5.0063655e-02
  8.2865328e-04
  5.9217110e-02
  2.3426951e-01
  6.9657035e-02
 -1.1297510e-02
 -7.2839513e-02
 -4.2441610e-02
 -4.1391283e-02
  2.1462830e-02
  1.7170963e-01
 -2.9576710e-01
  6.7379661e-02
  8.9344859e-02
 -3.9365325e-02
 -3.8292632e-02
  9.4887123e-02
 -7.5541824e-02
  3.7370380e-02
  1.4663392e-01
  1.7560901e-01
  2.9409971e-02
 -4.2942278e-02
  6.5441482e-02
  4.7031529e-02
  5.0494768e-02
  4.6886604e-02
 -2.1530282e-02
 -1.0147556e-01
  2.5695344e-02
 -6.9267005e-02
  4.2494688e-02
  3.4735661e-02
 -4.1491896e-02
 -3.4737598e-02
 -6.2069803e-02
 -3.2502168e-01
  8.5731238e-02
 -1.1415594e-02
  9.9810399e-02
  3.1825893e-02
  2.8270975e-02
  5.0276957e-02
 -1.7226893e-01
  1.4389828e-01
  2.3629855e-01
 -7.1154297e-03
 -2.5907123e-01
  4.0116977e-02
 -5.7056183e-03
 -9.0823248e-03
  7.4198224e-02
  4.1405531e-04
 -2.1875650e-04
  7.8580655e-02
 -1.6874270e-01
 -5.3578425e-02
  1.6449712e-01
  1.1342845e-01
  2.7703229e-02
 -2.8480503e-01
 -1.1011106e-01
  7.2007567e-02
  2.1135378e-01
  1.7445441e-02
 -2.8973421e-02
  1.2280769e-01
  1.2174437e-02
 -3.2755233e-02
 -8.7458231e-02
  1.2162236e-01
  1.3790411e-01
  1.3722871e-01
  2.8625473e-02
 -8.5780337e-02
 -4.6924107e-02
  2.2554738e-02
 -7.6020285e-02
  9.4214953e-02
  6.5715089e-03
 -2.9364184e-01
 -5.7042088e-02
  1.0288223e-01
 -2.3289025e-02
  2.8268386e-02
 -5.4578662e-02
 -1.2797897e-01
  1.4057548e-01
  1.0302935e-02
 -3.8790038e-01
 -4.8433445e-02
 -2.2340867e-01
 -1.1985403e-01
  5.3831846e-03
 -4.0884752e-02
 -4.7994673e-02
 -7.1914122e-03
  9.4758652e-02
  1.5111908e-02
 -6.9932714e-02
 -1.9470137e-01
 -8.0442756e-02
 -6.7396842e-02
 -1.5724914e-01
  5.3452175e-02
  9.3490683e-02
 -8.9247778e-02
 -5.5492304e-02
 -6.7171112e-02
 -4.7466431e-02
  6.8887785e-02
  3.4972928e-02
 -1.2743728e-01
 -3.3160955e-02
  5.7751883e-02
 -3.2020548e-01
 -4.8717842e-03
  3.5461046e-02
  4.6437111e-02
  2.2432470e-01
 -5.0711866e-02
 -3.1046441e-01
 -6.1637557e-01
 -1.0434126e+00
  2.6352062e+00
  1.3866163e+00
 -5.7957816e-01
  3.1902177e+00
  1.5271448e+00
  1.4607706e+00
 -9.7793885e-02
 -8.6271539e-02
  1.2613052e-01
  3.9177808e-01
  7.1034797e-02
 -2.9964405e-03
  4.9410677e-01
 -1.0827661e-01
  1.7790313e-01
 -1.4365107e-02
 -1.2989579e+00
 -1.0866759e-01
  4.3208797e-02
 -7.2783631e-01
 -7.9831952e-01
 -1.4128126e-01
 -3.0055324e-02
 -2.0623155e-01
 -2.9248324e-01
 -1.1113299e-01
 -3.0250409e-01
  5.8001198e-02
 -4.1800354e-02
 -6.5056926e-01
 -5.1907748e-01
 -3.6629063e-01
 -6.8040162e-01
  1.3405096e-02
 -1.3158309e-01
 -1.6677773e-01
 -2.6365551e-03
 -4.8035067e-01
 -1.3240947e-01
  8.2732278e-01
 -1.3739112e-01
 -9.7663909e-02
  2.3520631e-01
 -4.2512894e-02
 -1.7293186e-01
  2.0538753e-02
 -4.6508878e-02
  8.0396552e-03
  1.2570305e-01
 -4.0026579e+00
 -1.4350715e-01
 -3.5048790e-02
 -2.0340975e-02
 -4.4880632e-02
 -1.1303858e-01
  1.2425214e-02
  1.3083366e-01
 -1.7631385e-01
 -1.7819087e-01
 -2.7795251e-02
  5.2589979e-02
  8.2126915e-02
  1.0016262e-01
 -4.5947354e-02
  2.2177041e-02
 -6.2977299e-02
 -9.1186255e-02
  1.4495866e-02
  1.2517015e-02
 -4.3990999e-02
 -1.8648569e-01
 -6.7736991e-02
  2.7621543e-02
  5.6232609e-02
  5.5743571e-02
  3.6690440e-02
 -5.5951644e-02
 -7.3297650e-02
  1.8618967e-01
  1.0179087e-01
 -3.1893905e-02
  6.7003608e-02
  1.3470583e-01
  1.8851730e-01
  6.0951747e-03
  5.7848424e-02
  1.8191025e-01
 -1.9000825e-01
 -1.9856803e-02
 -4.4793155e-02
  9.0243787e-02
  1.4594471e-01
 -2.5959067e-02
 -1.3966183e-01
  1.7265573e-02
 -7.2576590e-02
  6.2018473e-02
  4.9324404e-03
  2.8805542e-01
  5.5359412e-02
  1.6511664e-02
 -1.0789449e-01
  3.9751519e-02
  2.7889097e-01
  3.5993610e-02
 -3.3752222e-02
 -5.1079005e-02
  2.0481768e-01
 -4.4850513e-02
  1.0546243e+00
 -3.8480192e-02
 -1.8377557e-01
  1.2803970e-02
 -3.2519290e+00
 -6.0422369e-03
 -3.4695582e-03
  7.8208126e-02
 -3.0558270e-01
  3.4961265e-02
  7.3554456e-02
  4.8819281e-02
 -2.1716218e-02
 -1.9254813e-02
 -9.3839243e-02
  2.5871325e+00
 -1.9695309e-01
 -2.1070468e-01
 -2.8310412e-01
 -7.1021393e-02
 -1.6684002e-01
  1.5494877e-02
 -6.9716662e-02
 -6.2504746e-02
  8.7189205e-02
  5.0569153e-01
  3.9573353e-02
  1.4683527e-02
  9.2941746e-02
  2.6255932e-02
 -1.5633103e-01
 -2.2311844e-03
  2.3551673e-01
 -6.8436489e-02
  4.4646406e-01
  2.8371119e-01
 -1.0845248e-01
  9.1466002e-02
  4.3000724e-02
  9.0327568e-02
 -2.4238069e-01
  3.3377497e-03
  2.9183473e-02
 -1.3969826e-02
  1.1733658e-02
  7.3138982e-02
 -1.4873020e-01
 -2.9196614e-01
  6.0699746e-02
  9.4436437e-02
 -3.6325030e-02
 -5.0577230e+00
 -9.6750593e-01
 -1.4584255e+00
 -2.0502272e+00
 -2.9175153e+00
  2.9623201e+00
 -7.7121443e-01
 -7.0504999e-01
 -1.5983060e-02
  1.4337417e+00
  1.0359486e+00
 -3.9206111e-01
  6.9744813e-01
  2.3980339e-01
  6.4282939e-02
  1.0570086e-02
  4.5335386e-02
 -3.0916575e-03
  5.1938470e-02
 -1.9254035e-01
  5.7614166e-01
 -6.5819174e-01
 -1.8213506e-01
  7.2976492e-02
  8.7089592e-01
  1.3391039e-01
  6.1230075e-02
  1.3057351e+00
 -1.8875268e-01
  6.1950196e-02
  1.8178937e-01
 -6.8316501e-01
  2.0558740e-01
  7.9034179e-02
  2.0365952e-01
  1.1808934e-02
  7.9399526e-02
  1.9221907e-02
 -7.7556153e-03
  4.9857375e-01
  1.4493418e-01
  2.1720682e-01
 -3.9158133e-01
 -5.6522526e-02
  4.3389775e-02
 -1.5543450e-01
  3.3828411e-02
  9.6748710e-02
  3.2886665e-02
 -8.2529150e-03
 -9.5839255e-02
  9.0903804e-02
  7.7683199e-03
  1.5482838e-02
  1.7889703e-02
 -4.5235120e-02
 -1.5216161e-01
 -1.5853928e-02
  8.2850270e-03
  8.4959030e-02
  1.9611551e-01
  7.1225077e-02
 -1.5787555e-02
  8.2905911e-02
  1.2956266e-02
 -2.0317401e-01
 -3.6129081e-03
 -1.1300742e-02
 -3.5565410e-02
 -4.7925346e-02
 -5.5571208e-03
 -1.6307352e-02
 -2.0026970e-01
 -1.9175807e-02
 -2.0710250e-02
 -9.1533996e-03
 -4.0697660e-02
  3.4767676e-02
 -1.8968029e-02
 -2.7411561e-02
 -3.8131762e-02
 -6.7160055e-02
 -4.4391636e-02
 -1.5342788e-01
 -1.1449726e-01
  1.5474986e-01
 -8.1589036e-02
 -6.8323702e-02
 -2.4652286e-02
 -7.4430384e-02
 -3.1618401e-02
 -1.9376245e-01
  1.6324097e-01
 -1.9764021e-01
 -3.5652928e-02
 -5.6462612e-02
 -6.0325954e-02
 -9.1046996e-02
  7.4716382e-02
 -1.2661600e-01
 -1.5685292e-01
 -6.5613920e-03
 -8.2797647e-02
 -1.8274513e-01
 -2.4475167e-02
 -7.1469136e-02
  7.6850407e-02
 -3.9712675e-02
 -1.4347440e-02
  5.5997282e-02
  4.3766017e+00
 -3.1284177e-01
  1.9584037e+00
 -4.3266603e-01
 -4.4285968e-02
  1.1848124e+00
  4.8122693e-02
  3.1084657e-01
  3.7188816e-01
 -1.3004293e-01
 -3.3544552e-02
 -8.2315400e-02
 -1.4271449e-01
  2.9173258e-01
 -2.2159445e+00
 -1.8040366e-02
  9.1555744e-02
 -2.2027276e-01
 -1.1798805e-01
 -1.3222729e-01
 -2.7187863e-01
 -2.4564770e-01
  4.6023396e-03
  3.3673607e-02
  1.6159396e-01
 -4.9642120e-02
  5.7149683e-03
  8.1523582e-02
  2.3622030e-02
 -3.6049807e-03
 -6.3890660e-01
  4.6073668e-02
  8.5256927e-02
  8.0720372e-02
  2.7096778e-01
 -5.9104968e-02
  2.3010573e-03
  1.2902007e-01
 -3.0778991e-02
  1.0958351e-01
  1.1200867e-02
  1.4090324e-03
  1.2850972e-01
 -4.2131893e-02
 -9.1878325e-03
 -6.8746745e-03
  3.5936502e-01
 -9.1287978e-02
 -4.8769467e-02
  3.8758092e-02
  1.5685498e-03
  2.7204704e+00
  5.3117318e+00
  1.5859332e+00
  3.1560481e-01
  7.0238316e-01
 -1.6457657e+00
 -4.9928527e+00
  1.2536943e+00
  1.9121011e+00
 -3.0861940e-02
  1.3649235e+00
  7.9235159e-02
 -8.3942436e-02
  8.2014054e-01
  3.8409773e-02
  8.8207215e-01
 -5.9982395e-01
 -5.1652517e-02
  7.0661414e-01
  2.1268448e-01
 -1.3089825e+00
  8.1578571e-01
  9.7434777e-01
 -2.2308953e-01
  1.1800103e+00
 -1.5520599e-01
  1.5660617e-01
  6.4581513e-02
 -6.9050634e-01
  2.7764085e-01
  7.4753255e-01
  3.6595382e-03
  7.5589794e-01
  5.9602922e-01
 -6.1138356e-01
 -2.3057953e-01
 -2.2926219e-01
  5.0589782e-01
  1.0627645e-01
 -2.2624204e-01
  4.0039784e-01
 -9.5037735e-01
  7.9268342e-01
  4.8426487e-03
 -7.4701935e-02
  4.7688536e-02
  1.2810531e-01
 -1.8459383e-01
 -3.0691396e-02
  3.6803380e-02
 -3.3792663e-02
  2.5657002e-02
  7.7369653e-02
  2.4764368e-01
 -2.6423541e-01
  1.1958773e-01
 -1.1090249e-02
 -3.2413931e+00
  7.2257036e-01
  5.5021659e-02
  9.6067980e-02
 -5.7432944e-01
  5.5361204e-03
  3.0487729e-02
 -6.9217101e-02
  6.0647365e-02
  1.8002164e-02
 -2.3039426e-01
 -5.9277457e-01
  4.4397473e-02
 -2.5211352e-01
  3.2973394e-02
  1.4145781e-01
  1.0220990e-01
  1.3655390e-02
 -1.7054728e-01
 -2.7258134e-01
 -6.1833864e-01
 -1.0211964e-01
 -1.3860293e-01
 -3.8226756e-01
  1.7578168e-01
 -3.8585141e-01
  2.6939467e-01
 -1.1370917e-01
 -2.4672592e-01
 -9.5812574e-02
 -5.7516271e-01
 -1.3102901e-01
  6.2642530e-02
 -5.7198651e-02
  4.4198424e-02
 -3.6264863e-02
  1.5440280e-02
  2.8979357e-02
 -1.5505697e-03
  3.3173558e-01
 -3.7089055e-03
  1.2961084e-01
 -3.1410180e-02
 -2.2085894e-02
  2.4118105e-02
 -1.5288864e-01
  1.4351026e-02
 -1.3110313e-01
 -6.3847847e-02
  2.7596401e-02
  1.6467337e-01
  5.0361495e-02
  1.0567986e-01
 -1.0902504e-02
  4.2262244e-01
 -8.5958727e-02
 -2.4072535e-01
  6.7604251e-02
 -2.0451711e-01
 -2.5156656e-01
 -1.8353839e-01
  5.8588505e-02
  3.4120658e-01
 -4.8762351e-02
  8.6832643e-03
 -2.3730066e-02
  2.0330008e-02
  2.2027804e-02
 -2.9264573e-02
 -2.8020835e-01
 -3.2459369e-01
  3.6886893e-02
 -3.1541598e-01
 -7.8682359e-03
  2.3131223e-02
  1.3510118e-01
  2.9955590e-02
  3.4695476e-02
 -1.2602209e-02
 -2.7632448e-01
 -1.0617010e-01
 -1.5657419e-02
  7.2949268e-02
 -2.6886630e-01
 -8.3997458e-02
  7.4646257e-02
 -2.5266660e-03
 -3.6883131e-01
  1.9273529e-02
 -1.4420012e-01
  1.4992040e-02
  3.3703495e-03
 -1.5480639e-02
 -6.5118456e-03
 -8.9546263e-02
  1.5651526e-02
 -5.4361627e-02
 -4.8038308e-02
 -4.4130906e-03
  2.8290419e-02
 -1.2168251e-01
 -7.1487911e-02
  2.4339482e-02
 -3.0646628e-02
 -1.1097117e-02
 -3.6882753e+00
 -6.9350929e+00
 -5.6944120e-01
  1.7540264e+00
  6.1559802e-01
  1.2422631e-03
  2.2259328e+00
 -2.9404080e+00
 -2.2369482e-01
  5.8035934e-01
 -8.2150501e-01
 -8.4720515e-03
 -6.3173823e-02
  3.7594447e-01
 -1.3189420e-01
 -4.5024478e-01
 -3.7297606e-01
 -5.7548797e-01
  3.9645016e-02
  4.5557499e-02
 -8.2657403e-01
 -8.5807979e-02
  7.0632321e-01
 -6.8466492e-02
 -2.8169045e-01
 -5.1947665e-01
  3.9214570e-02
  5.3422654e-01
 -3.9793886e-02
 -7.4607664e-01
 -4.2956099e-01
  6.3790628e-03
 -3.5205016e-01
 -3.1368381e-01
  6.7646748e-01
 -6.0030442e-01
  3.8395405e-01
  1.5413941e-01
  2.6005334e-01
  7.8105259e-01
 -6.7783818e-02
 -3.1917885e-01
  2.2142267e-01
 -1.0272499e-01
 -2.6045054e-01
 -5.4576183e-03
 -1.0859159e-01
  1.2481457e-03
  3.2434097e-01
  1.4102654e-01
  2.3698276e-02
 -1.8139161e-01
 -7.0380054e-02
  1.2210563e-02
 -4.9312162e-01
 -3.1008178e-01
 -1.4735135e-02
 -1.3883910e-01
  1.2768685e+00
 -7.3147959e-01
 -1.6512723e-01
  3.7034565e-01
  2.0209940e-02
 -4.6931181e-02
 -2.2189334e-02
  4.9546605e-04
  1.5898907e-01
  1.4362617e-01
 -2.6844384e-02
  2.4575835e-01
 -1.3860497e-01
 -1.2888129e-01
  6.1951470e-02
 -8.9064993e-02
  1.3790534e-01
 -2.7858710e-02
 -6.5225800e-03
  3.6481783e-02
  1.8344221e-01
  1.8755701e-01
 -5.0966110e-02
 -1.9844381e-02
 -1.3025598e-01
 -1.5452523e-03
 -4.3088213e-02
 -6.8357877e-02
 -1.6967572e-01
  5.6114841e-02
  3.0348005e-03
  6.7427963e-02
  1.7175354e-02
  2.5235799e-03
 -3.2255299e-02
 -2.8001068e-02
  5.9210118e-02
 -1.1885706e-01
  2.1298659e-01
 -1.7135049e-01
 -1.8994505e-02
  8.2319990e-02
 -1.7048102e-02
 -5.6382809e-02
  1.3167486e-01
 -6.2762564e-01
 -5.6150794e-02
 -1.0581149e-02
  9.1908947e-02
 -4.2920172e-02
 -6.3540913e-02
 -3.3279049e-01
  8.3374828e-02
 -4.6916209e-02
 -7.1480386e-02
  2.7287392e-02
 -5.1792394e-02
 -1.3564697e-02
  3.8469487e-01
 -6.8731576e-02
  9.8510407e-02
  1.6862426e-02
 -1.1607771e-01
 -1.2691084e-01
  1.3115202e-01
 -7.8044501e-03
  1.1989831e-01
 -4.0399071e-02
  2.1865056e-01
 -2.2678070e-01
  6.8529636e-02
  4.4389330e-02
 -8.5874908e-02
  3.5106344e-03
  4.2718812e-03
 -1.2148166e-01
 -1.4709529e-01
  1.3235013e-01
  6.3694261e-02
  1.1820250e-01
 -2.8907558e-01
 -8.8220768e-02
  2.7020357e-03
 -6.5750502e-02
 -9.2848651e-03
 -1.7517621e-02
  1.4360958e-02
 -1.1201410e-01
  3.1336564e-01
 -1.2995228e-01
 -8.8628307e-02
  9.4528928e-02
 -8.1274129e-02
  5.9137714e-01
 -3.2916147e-02
 -2.1817358e-02
  1.8394256e-02
 -3.9234606e-04
  4.6022002e-02
 -1.0495827e-01
 -8.9693233e-02
  2.5192276e-01
 -6.1796311e-02
 -8.8722870e-02
 -5.9702549e-02
 -2.8499085e-01
  2.9090445e-02
  6.8224080e-02
  6.4002976e-02
 -2.2496592e-01
 -2.5825909e-01
  6.5881066e-02
 -6.4424887e-02
 -1.0934291e-01
  2.4250512e-01
 -7.8795021e-03
  5.5515014e-02
 -7.6430738e-02
 -7.3944159e-02
  3.1568527e-02
  2.4395812e-02
 -1.3384369e-01
  3.8832492e-01
  6.3352995e-02
 -3.4482531e-02
  1.7163072e-02
  7.1141466e-02
  9.8866411e-02
  6.2666070e-03
  3.0683532e-01
 -1.3561369e-01
  3.6586337e-02
  5.6197140e-02
  1.0001257e-01
  6.6694491e-02
  2.1546606e-02
  2.5620756e-01
 -1.8205011e-01
  4.8216088e-03
  1.2677072e-01
  7.1123369e-02
  2.6220147e-02
 -2.2398364e-02
 -2.6457047e-02
 -6.4473517e-02
 -1.4520717e-01
  9.2968307e-03
 -2.5240594e-04
 -1.3030332e-01
 -1.3793418e-01
  7.5165145e-02
 -1.0127985e-01
  1.8111810e-02
  1.8146324e-01
  2.8547630e-02
  2.1059917e-01
  9.5297098e-02
  3.3618506e-02
 -1.7283103e-01
 -2.6361459e-01
  3.5779295e+00
  5.6556258e-03
 -1.1737220e+00
 -1.3969785e-01
  1.1749186e-01
 -3.7745088e-01
 -1.1281634e-01
  8.3806060e-02
  1.4576936e-01
  1.2403919e-01
  6.5044075e-02
  4.4231802e-01
 -1.8857341e-02
 -6.8752062e-01
 -5.7612516e-02
  1.1835355e-01
  3.0727693e-01
  8.2732707e-02
  7.1855080e-01
  1.4162134e+00
  3.1258523e-01
  3.1973351e-02
  2.1349714e+00
  1.6168603e-03
  4.6984069e-02
  3.1552777e-01
  4.2060252e-02
  1.0202233e-01
 -5.6856118e-02
  3.5326306e-02
 -1.1302152e-01
  1.5593165e-02
 -3.3399308e-01
 -1.1339039e-01
 -3.0911889e-02
 -1.3192955e-01
 -1.8471390e-01
 -1.3500122e-02
  2.7766006e-02
  2.1428521e-01
  1.1578931e+00
 -4.0893603e-02
 -1.4077643e-01
  9.5356084e-02
  1.2244763e-01
 -2.7359980e-01
 -1.1972278e-01
  1.4209054e-01
  1.3406757e-01
  6.8940932e-01
  5.8620834e-01
  1.5893141e-02
 -3.2975891e+00
 -6.3641562e+00
 -2.4465642e+00
 -5.4008031e-01
  1.1564049e-01
 -3.1395507e-01
  9.7460216e-01
 -2.9977951e+00
 -5.1226783e-01
 -5.4528403e-01
 -1.0571462e+00
 -3.8538936e-01
 -3.0012004e-02
 -1.1191563e-01
 -1.3142661e+00
  9.4410074e-01
 -6.6370618e-01
 -1.0902353e-01
  3.1645223e-02
  8.3204612e-02
 -2.4130887e-01
  1.0414533e-01
  9.5250702e-01
 -2.9482689e-01
  5.1617112e-02
 -2.5235373e-01
 -1.7864729e-01
  7.6881242e-03
 -2.3829372e-01
 -7.3114902e-01
  2.3297705e-02
 -7.0151240e-01
 -9.2871346e-02
  1.0446038e+00
 -5.2225864e-01
 -7.2101519e-02
 -4.3263629e-01
 -1.9592904e+00
  8.0505870e-03
  1.2048306e-02
  2.3597263e-01
 -2.7733761e-01
  3.5295704e-01
 -2.2147724e-01
 -1.3728644e-01
  1.2700614e-01
 -9.8726854e-02
 -1.7260334e-01
 -5.9923655e-03
  7.7606045e-02
 -2.9858978e-02
 -5.7758637e-02
 -5.0279025e-02
 -2.1647105e-02
 -8.6010391e-01
  8.7112039e-01
  1.2862010e-01
  8.4501576e-01
  1.1310325e-02
  6.8824500e-02
 -4.0033516e-01
 -1.6588175e-01
 -5.1371623e-02
  8.5192256e-02
  3.6619246e-02
  1.5089706e-01
 -1.2792763e-01
  3.9427288e-02
  2.3708194e-02
 -1.7803696e-01
  9.1259807e-02
 -7.8896172e-03
 -4.6394482e-02
  4.9025640e-02
 -1.6590625e-02
 -7.9568617e-02
 -6.6814578e-01
  4.8616119e-02
 -9.7950667e-02
 -5.3703371e-02
  2.0464338e-02
 -1.2948261e-01
  4.4076469e-02
 -9.7392788e-03
  2.6562402e-03
  1.7785577e-03
  2.3738830e-01
  7.3347427e-02
  1.0149880e-01
 -2.6182933e-02
  1.3666914e-01
  2.7491730e-03
 -7.2949012e-03
 -1.4171185e-01
 -1.3193900e-02
  9.3701132e-02
 -1.0051806e-01
 -4.5129928e-01
  2.2132602e-02
  1.6256641e-01
  1.9514209e-02
  2.8566411e-02
  1.0250813e-01
 -4.0092878e-03
 -2.2047110e-02
  7.5070232e-02
 -5.0696872e-02
 -4.9931528e-03
  4.5203153e-02
 -2.2427037e-03
 -1.1122073e-02
 -6.6355988e-02
 -2.6638435e-02
 -2.0436810e-01
 -7.8856133e-02
  1.3725322e-01
 -3.0097585e-02
 -1.5725778e-02
  1.7259574e-02
 -9.2051648e-02
  1.7994769e-02
 -1.6505192e-03
 -6.3878479e-03
 -2.1181585e-01
  8.6719245e-02
  4.2692482e-01
 -5.4728247e-02
 -1.0011214e-01
 -6.6458933e-02
  1.0005449e-01
  1.5701983e-02
  1.1396869e-01
 -9.3158573e-02
  1.4649190e-01
  9.6374936e-03
 -4.5651573e-01
  1.3298449e-01
  3.8321096e-02
 -6.0007248e-02
  1.1354307e-01
 -1.5829969e-02
 -8.6586855e-02
 -6.1612841e-02
 -6.0061365e-02
 -6.1386131e-02
  4.1318331e-02
  6.0800444e-02
 -1.2723693e-01
  4.3233749e-02
  1.1690768e-01
 -3.5274740e-02
 -3.9301661e-01
 -1.2572496e-01
 -2.1814420e-03
  6.8682455e-02
 -2.9600695e-02
  7.1128167e-02
 -1.0199880e-01
  4.5577787e-02
  4.3962803e-02
 -9.1867290e-02
 -9.8046705e-02
 -2.5228873e-01
  2.2717530e-01
  5.8308291e-01
  2.7261885e-02
 -5.2223969e-02
 -3.2609785e-03
  1.3877381e-01
 -7.8820782e-03
 -4.2687549e-04
 -1.3724959e-01
  2.3441236e-03
  3.2617763e-02
  5.5199051e-03
  9.2390679e-02
  9.3017563e-02
  1.0808001e-02
  1.3532194e-01
  2.2669818e-02
 -1.2076890e-01
  2.2957811e-02
  1.7175583e-02
 -9.8411165e-02
 -1.9320874e-01
 -2.2846753e-02
 -3.3100359e-02
 -2.7462548e-02
 -4.0578283e-02
 -1.8142009e-02
 -2.5397423e-01
  2.4732454e-02
 -6.0914936e-03
 -2.4251197e-02
  3.3585664e-02
  1.3609850e-01
  6.2130196e-03
 -2.0915090e-01
  9.8570846e-02
 -2.7571730e-03
  1.6792420e-02
  4.8683122e-02
 -2.1958472e-01
  3.8989991e-02
  1.1130026e-01
 -2.6364056e-02
 -9.5367849e-02
 -1.3412029e-01
  5.5864096e-02
 -9.8947853e-02
 -1.4218116e-01
  3.9299704e-02
  4.8515403e-01
 -5.1277187e-02
 -1.1129762e-01
 -2.2650534e-01
  1.1855795e+00
  1.9869759e+00
 -2.9610467e-01
  1.3199638e+00
 -4.7669969e+00
 -2.6057143e+00
  5.0448936e-01
 -2.9511016e-03
 -1.2923795e+00
  1.8795055e+00
 -1.6405591e+00
  3.0505753e+00
 -5.0505364e-01
  1.1435618e+00
  1.6935173e+00
 -8.6312795e-01
  4.5923674e-01
  2.0241063e+00
 -8.0113292e-01
 -5.8261681e-01
  2.1780987e+00
  3.8994987e-02
 -1.9363637e+00
 -1.1795827e+00
 -8.4923401e-02
  8.9167511e-01
 -2.8256755e+00
  1.2740399e+00
  3.3614719e-01
  1.8359046e+00
  3.9778078e-01
  1.6058965e+00
  7.7903825e-01
 -4.8452702e-01
 -1.0708735e+00
  1.3160484e+00
  1.9168665e+00
  3.3079128e+00
  1.6465118e+00
  2.0551124e+00
 -2.0914433e+00
 -1.1750554e+00
  7.1417272e-01
 -8.3306950e-01
 -7.2080411e-02
  1.0815779e+00
  1.1568466e+00
  1.9432024e+00
 -8.8173509e-01
 -1.6430154e+00
 -2.0643837e+00
  1.3224480e+00
  5.8012593e-01
  3.4487993e-01
 -2.4299846e+00
  5.6492962e-02
 -2.1765175e+00
  2.1949632e+00
 -7.2245944e-01
  1.2377473e+00
 -1.9637774e-01
 -2.0368917e+00
  2.9848473e-02
  4.5212924e-02
 -5.6677431e-01
 -2.0831556e+00
 -8.8087082e-02
 -9.4983780e-01
  2.4474206e+00
 -4.7677800e-02
 -2.1245697e+00
 -1.8415837e+00
  1.6512727e+00
 -5.5006194e-01
 -1.7194867e+00
 -1.0469931e+00
 -7.8369540e-01
  8.7273175e-01
  2.0439236e+00
  1.4438548e+00
  2.4284425e-01
 -1.2074770e+00
  5.5802695e-02
 -4.3453112e-01
 -2.4617579e+00
  1.4134543e+00
 -6.1671805e-02
 -3.0419502e-01
 -3.5234770e-01
  5.4638475e-01
  1.3067148e+00
  7.5860754e-02
 -1.3192491e-01
 -2.1573612e-01
  4.2869186e-01
 -2.7912799e-01
 -7.9582728e-02
  2.0481274e+00
 -7.4718237e-02
 -1.1682558e-01
 -1.2819953e+00
 -9.4402331e-01
 -9.3284249e-01
 -1.0633097e+00
  1.6969832e-03
 -2.2299185e-01
 -9.3538833e-01
  1.4028618e+00
 -2.6405942e-01
  1.1229353e+00
 -2.6941985e-01
  1.0458112e+00
 -1.6852178e-01
 -8.5160506e-01
  3.2566181e-01
  3.4785759e-01
  3.6549878e-01
  5.6282520e-01
 -1.1445854e+00
  1.7760274e+00
  3.9370704e-01
  2.1065709e-01
  1.3866381e-01
 -1.5987957e+00
  4.3102197e-02
  2.1020861e+00
 -4.7832158e-01
 -1.4897790e+00
 -5.5393559e-01
  3.5110754e-01
 -1.9592612e+00
 -9.2996329e-01
  1.0769595e+00
 -4.3953311e-01
  6.0894775e-01
 -1.0660701e-02
 -7.7057725e-01
 -4.4197008e-01
  3.1707071e-02
  7.9615200e-01
 -3.1075183e-02
 -1.9521810e+00
 -3.7825119e-01
  5.8052056e-02
  1.0554451e-01
 -8.3477050e-01
  6.7336075e-02
  1.3742037e-01
  1.0362321e+00
 -2.6028448e-01
  1.7845259e+00
 -2.3896520e+00
 -9.7611976e-01
 -1.1890841e-01
 -5.6970435e-01
 -8.3742952e-01
 -6.0127097e-01
  4.1894650e-01
  1.1843193e+00
  5.0497842e-01
 -1.0685172e-01
 -1.1800170e+00
 -2.3014011e+00
  9.1831547e-01
  1.6273011e+00
  1.4951742e+00
  8.4943045e-03
 -2.6284964e+00
  2.0977328e+00
  6.8557680e-01
 -3.8355827e-01
 -4.7243974e-01
 -5.9425771e-02
 -2.7177405e-02
 -3.5671820e-03
  2.8684115e-02
  7.7504814e-02
  5.2429897e-01
 -1.2003732e+00
 -2.0883121e-01
 -5.4337777e-02
  1.0436752e+00
 -3.2926299e-02
 -8.1194021e-02
 -1.0472111e-01
  5.9174463e-02
 -3.4820344e-02
 -6.4756525e-01
  4.8074409e-02
 -1.4403975e-01
 -3.7391835e-01
  7.2343969e-01
 -3.3258915e-02
  3.8141508e-03
 -5.7305459e-02
 -1.8338728e-01
 -8.4540749e-01
 -2.0127967e-02
  3.0942303e-01
  2.3390907e-01
  1.2625754e-01
 -3.2077103e-03
 -1.0289858e-01
 -8.0462232e-02
 -1.1958301e+00
 -1.6102651e-01
  6.2698293e-03
  6.0595050e-02
  2.9421689e-02
  1.5452892e-01
 -2.5793761e-01
  2.3391863e-02
 -9.6648343e-02
  1.2026546e-02
  1.7743757e+00
 -2.0840049e+00
  6.4787552e-02
  1.0252160e-02
  1.7447369e-01
  8.7431893e-02
  2.8946182e-01
 -1.9983317e+00
  8.3567351e-01
  1.9543736e-01
 -2.0695813e-02
  1.1580708e-01
 -7.7562682e-02
  4.1511118e-01
 -2.5263625e-01
  6.2544629e-02
 -7.8494653e-02
 -1.1176009e-01
  9.0729779e-01
  1.3429318e-01
  4.7220178e-02
 -9.1484532e-02
  4.7289440e-04
  1.3443681e-03
 -1.9067241e-02
 -2.3680039e-01
  8.6164072e-02
  3.2440761e-01
 -2.2164765e-01
  1.8183032e-01
  1.6316103e-02
 -4.1853029e-01
  8.6315908e-03
  7.3546939e-02
  1.5356822e-01
  1.6251185e-03
  3.8492543e-01
 -5.4540262e-02
  1.0802895e+00
  4.7702685e-02
 -4.3846395e-02
  1.6768686e-01
  2.1761899e-01
 -1.3263158e-02
  2.4103971e-01
  9.2631236e-02
 -7.1155638e-02
  3.4569968e-02
 -1.7957646e-01
 -2.4217735e-01
  5.5501200e-02
 -2.6723249e-02
  3.0835513e-03
  7.3542707e-02
 -1.8324288e+00
 -3.4586120e-01
 -2.6840320e-01
  2.2207680e-01
  2.7637011e-01
  4.8511219e+00
 -3.1454439e+00
  8.7346926e-02
 -9.2078552e-02
  7.1216899e-01
  4.7084281e-01
 -8.9937542e-03
  7.2794817e-02
  3.5606891e-02
  1.5419215e-01
 -2.1273373e-02
  2.8520516e-01
  2.6417229e-01
 -1.0636166e+00
  5.0014653e+00
  4.0781957e-01
  5.7863563e-02
  7.8038722e-02
 -1.2945143e-02
  1.2528960e+00
  2.9558003e-01
  9.4602662e-01
 -6.2317964e-02
  7.8324628e-01
 -4.7256391e-02
  7.9406187e-02
 -4.8193904e-03
  9.4034985e-02
  1.0110098e-02
  2.3452330e-02
 -1.1579871e+00
 -2.0945311e-01
  1.1522608e+00
  2.2538967e-01
  3.4386121e-02
 -1.4442170e-02
  6.6968957e-03
  2.1295821e-02
 -1.1687536e-02
  1.4256837e+00
 -1.1177151e-01
  2.2360279e-01
 -9.0847753e-02
 -1.0394802e-03
 -7.1124285e-02
  1.2358095e-01
 -6.4698376e-02
 -8.3229229e-02
  4.4954199e-02
  2.2206533e+00
 -1.8356071e+00
  6.6376716e-02
  3.0689940e+00
  2.6332710e+00
  7.1078986e-01
 -1.5939596e-01
  4.3774420e-01
  1.3131319e-02
 -5.4414641e-02
 -4.1209754e-02
  9.0200910e-03
  2.3133857e-02
 -1.4712927e-01
  1.3109800e-01
  3.6364771e-02
  1.7077476e-01
  1.9341297e-02
  8.5673608e-02
  6.8696193e-02
 -6.5815389e-02
  2.0546569e-02
 -6.8660982e-02
  3.0917775e-02
  5.6216568e-02
 -1.1525530e-01
  6.2441967e-02
 -2.6822174e-01
  3.5373788e-02
 -3.4144957e-02
  1.6897686e-02
 -2.6068702e-02
 -5.5155739e-02
 -3.0663969e-02
 -3.7991068e-01
 -2.1647399e-02
 -1.7799858e-02
 -1.6405853e+00
 -3.9387140e-02
  6.3354723e-02
  6.4664725e-03
 -1.2592121e-02
  3.4942470e-02
 -1.6496679e-01
  5.1290709e-01
  1.4523585e-01
 -2.3857808e-02
  6.4413965e-02
  1.5949413e-01
  9.0622120e-02
 -7.6016024e-02
  7.4237861e-02
 -1.9370008e-01
  2.1837948e-02
  3.0841649e-01
 -3.7603917e+00
 -2.3826578e-01
 -4.3701296e+00
  1.0983630e+00
 -6.3355071e-03
 -2.2687401e-01
 -2.6456811e+00
 -4.4877200e+00
 -5.4693375e-02
  4.4679627e-02
  4.6569565e-03
  1.8488227e-01
  1.1713928e-01
 -6.4622216e-02
  2.8659016e-02
 -9.4752446e-02
  1.7995320e-02
  4.9106147e-02
  1.9364952e-01
  1.1257997e-01
  1.0783154e-01
  2.7659863e-02
  4.6572056e-01
 -2.1359621e-01
 -1.1937068e-01
 -6.7506716e-02
  1.5370557e-01
 -4.1518811e-02
  1.5970778e-01
  2.0260850e-01
  1.1396120e-01
  3.3626825e-01
  1.9524008e-01
 -2.7703470e-02
  2.7170065e-01
 -7.3336840e-02
 -3.3490387e-01
  1.4464934e-01
  3.5058132e-01
  2.2268169e-02
  3.0588391e-01
  8.5717984e-02
 -8.3677806e-02
 -4.5802407e-02
 -1.1366400e-01
 -1.8803152e-01
  4.2734820e-01
 -2.2779682e-01
 -1.3514767e-02
  5.7964608e-02
 -3.6774009e-02
 -1.4365087e-01
 -1.9459991e-01
  4.5157079e-02
  3.2943051e-02
  3.5840534e-02
  7.6638414e-03
  1.8758011e-01
 -6.3966759e-02
 -1.0928618e-03
  1.1911665e-01
  3.3367772e-02
  3.5316113e-02
 -1.1165959e-01
  4.4676444e-01
 -1.3378079e-02
  1.1428946e-01
 -1.5785214e-01
  3.2158038e-01
 -1.3738918e-01
  2.0155096e-03
  7.6326348e-02
  3.5892885e-02
 -4.7052493e-03
  9.0602264e-02
 -6.6297501e-02
 -1.3252829e-01
 -4.3920167e-02
  2.1066301e-02
 -4.4365749e-02
  4.5762077e-02
 -4.6361558e-02
 -3.3520594e-02
  1.4714999e-01
 -7.4157692e-02
 -7.9175085e-03
 -7.7600501e-02
 -1.5555432e-01
 -8.6424232e-02
 -1.2205272e-01
  5.7950020e-02
  7.5467646e-02
  1.4973603e-01
 -5.6475017e-02
 -4.0508531e-02
 -3.2401230e-02
  1.1995620e-01
 -5.8682621e-03
  8.5128963e-02
  2.7347052e-01
  3.1798903e-02
 -1.1933902e-01
  1.4327507e-01
 -1.5050884e-01
 -3.6288433e-02
  3.9458644e-02
  1.2223496e-01
  8.2018130e-02
 -2.0224201e-02
 -1.9133939e+00
  5.7318240e-01
  1.1135714e-01
 -7.4163318e-01
 -5.1262721e-02
  3.6516860e-02
  1.2059169e-01
  9.5177069e-02
 -2.6527179e-02
 -9.1815792e-02
  8.0873640e-03
  5.2019093e-02
  5.5373795e-02
  9.1509908e-02
 -2.1506317e-02
  1.0003557e-01
  6.6205136e-02
 -2.8684060e-03
 -5.8623008e-02
 -1.1219989e-01
 -1.9022917e-02
  2.6292926e-01
 -1.8622321e-01
  2.0825474e-02
 -1.2696870e-01
 -1.2162919e-01
 -6.5146554e-03
 -1.5524826e-02
 -6.7410752e-02
  5.7110071e-02
  1.7772533e-01
  2.1650134e-01
 -1.2966217e-01
 -4.7646977e-02
 -4.3864995e-01
 -3.9545941e-01
 -1.5103367e-01
 -5.9024524e-02
  1.0038403e-01
  1.6395209e+00
 -4.3736644e-02
 -6.6570498e-02
 -2.4673641e-02
 -8.4019326e-02
  9.8368175e-02
  8.5476875e-02
  3.9827097e-02
  2.0629590e-02
 -5.7030473e-02
  1.2700270e-01
 -2.4944341e-02
 -1.0348820e-01
 -3.4364365e-02
  1.9288896e-01
  7.9548314e-02
  8.3644882e-02
 -3.1474136e-02
  7.3180012e-02
  7.2942534e-03
  2.9139003e-02
 -4.7126621e-01
  1.9469611e-01
  6.3085742e-02
 -1.8892897e-02
 -1.1466313e-01
  1.4714547e-02
 -1.4810632e-01
 -1.2294985e-01
  3.6825303e-02
 -3.4811005e-02
 -2.6564430e-02
 -6.1740074e-02
 -2.7409170e-02
 -2.6912533e-02
  3.7737809e-02
  9.5349737e-02
 -1.2363831e-04
  2.3147933e-02
 -9.7363681e-02
  3.5416726e-02
  1.9314885e-01
  5.9100129e-02
 -1.3854086e-01
 -7.0060089e-02
 -9.3917891e-02
  3.8379990e-02
 -6.9537140e-02
  4.3044049e-02
 -3.5503577e-02
  6.3445098e-03
  5.9396464e-02
 -4.2149629e-02
 -1.1650309e-02
 -1.0282467e-01
  4.9317125e-02
 -1.4317188e-01
 -1.4645639e-02
 -9.2269212e-02
 -9.3070135e-02
 -4.6832543e-02
 -9.9236779e-02
  7.6476231e-02
 -3.3961344e-01
 -3.1596910e-02
  3.4219489e-02
  2.7671374e-02
 -8.3027110e-02
  3.1217963e-01
  5.6117093e-03
  1.6627364e-01
 -2.1890551e-01
  6.1202403e-03
 -2.3665196e-01
 -2.8315310e-03
  2.5110479e-02
 -3.6927532e-02
  1.8334694e-02
  5.4613125e-02
  1.4238088e-01
  3.0241914e-02
 -4.1287567e-02
 -9.5290191e-02
  4.4982405e-03
  2.6773436e-02
 -1.4728864e-01
  1.4369379e-01
 -7.3231839e-02
 -9.7773127e-02
  5.4581035e-02
  3.5157759e-02
 -1.0939418e-01
  8.1156895e-02
  6.7379124e-02
 -1.4017615e-02
  1.1543069e-01
  5.6738958e-02
  5.9071060e-02
  5.0279355e-01
 -1.0674446e-01
 -3.0235995e-02
 -1.1599083e-01
 -1.0841485e-03
 -1.2316041e-01
  1.2922564e-01
  1.2245917e-01
 -2.0187374e-02
 -1.1757016e-02
  1.0089034e-01
 -2.1420290e-01
  8.0190450e-02
 -3.0207628e-02
 -5.2704532e-02
 -9.0114456e-03
  2.9453605e-02
 -5.2676328e-02
 -2.2368280e-02
  6.2073484e-02
 -1.0409902e-01
  1.1515039e-01
 -2.9614624e-02
 -2.1268213e+00
  2.8701857e-01
 -5.9591353e-01
  6.2799245e-02
 -1.0440303e-01
  1.1090969e+00
  6.5475559e-01
 -9.2544240e-01
  1.2432903e+00
  3.7226606e-02
 -8.9873448e-03
 -4.6020485e-03
 -6.1346654e-02
  3.0406711e-01
  3.2142375e+00
 -3.5210496e-01
  5.3432471e-01
  4.4346237e-01
 -1.5087540e-01
 -6.5453738e-02
  4.2587343e-01
 -2.5623965e-03
  3.3666149e-01
  1.3418012e+00
  2.8313121e-01
  9.2767859e-01
 -9.7045168e-02
  1.6330434e-01
  9.4158351e-02
  5.4596442e-01
 -2.1455617e-01
  4.0431437e-01
  2.3021270e-01
  3.1998798e-01
  1.1803937e+00
  1.0989897e-01
  2.0161472e-02
 -2.4706773e-01
  4.3191129e-01
  3.6430895e-01
  7.9834396e-01
  7.8171808e-01
 -1.9598442e-01
  2.6482001e-01
  9.4362754e-01
  5.1706702e-02
  1.0125096e-01
  9.8744348e-02
  3.7063748e-02
 -1.4885163e-01
 -4.3285051e-03
  7.1100861e-02
  5.2592468e-02
  3.0905357e-01
  3.3250062e-03
  2.5802073e-01
 -1.7899452e-02
  1.3668151e-01
  1.1174849e-01
 -2.4056448e-01
  1.2243311e-01
 -3.4020531e+00
 -4.8519727e-02
  4.1937716e-02
 -2.5740620e-01
  5.8203235e-02
 -2.7139204e-02
 -1.8296355e-01
 -1.6367909e-01
 -1.4435245e-01
 -1.1335676e-01
  6.6739172e-02
  4.2755708e-02
  1.5931731e-01
  1.0857426e-01
 -1.1379522e-01
  2.4237048e-02
 -7.5999394e-02
  5.2466635e-03
 -6.6205114e-04
 -1.2577069e-01
 -8.7074988e-02
  3.5753880e-02
  6.4848393e-02
  9.3360491e-02
 -3.1585753e-02
  1.5845646e-01
 -1.0364015e-02
  2.5107979e-03
  3.3136509e-02
 -7.5154141e-02
  4.8843209e-02
 -1.9780723e-02
 -7.8193016e-02
  6.4520063e-03
 -5.2453026e-02
  9.1609217e-02
  4.5283660e-02
 -1.7896079e-01
 -4.0177535e-02
 -3.3802498e-02
 -2.1820793e-01
  2.8551754e-01
  1.1244240e-01
  2.2115017e-01
 -6.3380830e-02
  6.7698181e-02
  2.8136982e-02
 -1.3927561e+00
  3.3627727e+00
  5.6495422e-01
 -7.7325203e-02
 -1.0802822e+00
 -1.1497895e+00
 -1.4126436e+00
 -1.3330564e+00
 -7.9293579e-01
  2.9609749e-01
 -8.7072514e-03
 -1.4569741e-01
 -1.5049708e-01
  3.8909618e-02
  5.4400939e-02
 -2.3363610e-01
  1.2729429e-02
 -1.1649097e+00
 -3.0423736e-02
  1.8152519e-01
 -3.7133664e-02
 -7.2741009e-02
  1.5275079e-01
  4.1309476e-01
  1.9885334e-01
 -2.3503485e-01
  2.3938689e-01
 -1.0573751e-01
  2.4201188e-02
 -2.6456606e-01
 -4.4047886e-01
 -9.6973658e-02
  8.4009610e-02
  6.8499051e-02
 -2.1084240e-01
  3.2740888e-01
 -1.7052735e-01
 -1.4720103e-02
  2.2684050e-01
  6.8608485e-02
  1.3589248e-02
  2.9453945e-01
 -2.3327324e-01
 -3.4640902e-01
 -2.9331419e-01
  2.0517223e-03
  2.1901481e-02
  7.9565989e-03
  8.6743288e-02
  1.9912547e-02
 -1.6402149e-01
  1.4228337e-03
  1.7333850e-01
  1.1711763e-01
  2.0686176e+00
 -4.1449457e-01
  4.9014756e-04
 -3.8623014e-01
  9.2070013e-02
 -7.2385907e-01
  1.8391709e+00
 -3.3953864e-02
 -1.1258097e+00
 -2.2864064e-02
 -1.9906679e+00
 -7.3577993e-02
 -1.4795788e-01
  4.8536438e-02
  1.2363437e-01
 -3.3433381e-01
  1.5481465e-02
 -3.1059015e-01
 -9.2135966e-02
  5.7550427e-02
  6.7835845e-02
  8.5201431e-03
 -1.1829157e-01
 -1.1060806e-01
  5.9093060e-03
  2.1205762e-01
  2.0216163e-03
  5.0760519e-02
 -3.0866775e-01
 -6.8570048e-02
  4.2983551e-02
 -2.2555099e-01
  4.0034313e-02
 -4.9484976e-02
  1.8005097e-01
 -3.8641609e-02
  1.9198640e-01
 -1.9780897e-01
  1.2078921e-01
  6.8617091e-02
  1.5091202e-01
 -2.2643800e-01
  8.9152887e-02
 -1.0851409e-02
  4.3893668e-01
  3.2140691e-02
 -5.3245388e-02
 -4.7599986e-02
  6.7990638e-02
  2.7049575e-03
  8.1277397e-03
 -2.9772106e-01
 -6.1870564e-02
  2.9121466e-02
  6.7587487e-02
 -1.1133655e+00
 -2.5585720e-01
  1.4376780e-01
  6.7561162e-01
 -6.7101546e-02
  3.6910770e+00
  3.5090858e-01
  7.9166628e-02
 -6.6026859e-02
 -4.5256998e-02
 -2.5617462e-01
 -5.0425535e-01
 -1.3126872e-01
  6.5374516e-02
  1.5678509e-01
  1.0857920e-01
 -2.6827359e-01
 -2.5538176e-01
  1.1018562e-01
 -1.3778266e-01
  7.3611580e-02
  6.8581626e-02
  1.8327622e-03
  2.1114011e-04
  1.8252634e-02
  9.9317513e-02
  1.2302497e-01
  3.8868688e-02
  1.2036922e-01
 -1.7703664e-01
 -5.0164398e-02
 -5.1889971e-02
 -6.8653814e-02
  9.1078311e-02
  1.6387351e-02
 -1.4156300e-01
 -2.7146017e-02
 -7.2051764e-02
  1.8608783e-01
  5.2051965e-02
  7.0865095e-02
  4.0545991e-01
 -2.9143754e-02
 -1.8790567e-01
 -1.6775556e-02
 -8.6151108e-02
 -2.9176150e-02
  1.0405289e-01
 -4.1947030e-02
  1.0762146e-01
 -1.2207048e-02
  1.9849750e-01
  1.1099383e-01
 -1.2772142e-02
 -1.5530060e-01
 -1.2730901e-02
  6.8314232e-02
 -1.0035227e-01
  1.6255857e-02
 -5.5417949e-01
  2.7052930e-02
 -1.6946362e-03
  4.1176721e-02
  1.5046417e-02
 -3.5598144e-02
 -5.7943277e-02
  3.3453349e-02
 -8.7276012e-02
  2.7135720e-02
  2.6924312e-02
  2.1778176e-02
  2.1064420e-01
 -8.3834231e-03
 -6.4532906e-02
 -7.3918782e-02
 -6.3421331e-02
  1.3885227e-01
  1.9300045e-02
 -5.0334316e-03
 -2.6741669e-02
 -4.9759660e-02
 -2.6162161e-02
 -6.8859532e-02
  1.1143065e-03
  2.6885763e-02
 -1.7546010e-01
  2.0860026e-02
  3.3640552e-02
  2.2571171e-02
 -1.1361479e-01
 -4.3983110e-03
 -3.6667187e-02
 -3.1376518e-02
 -2.0802869e-02
 -5.0858416e-02
  1.0334594e-01
 -4.0192258e-02
 -8.9062853e-03
 -6.4919382e-02
  2.5556656e-02
  2.1197772e-02
 -5.4481590e-01
  3.5140935e-02
 -1.6073041e-01
 -3.4781870e-01
  1.1146393e-01
 -1.6034262e-01
  2.1623962e-01
  4.9778298e-02
 -2.0632310e-02
  1.3232812e-01
  6.6922419e-02
  4.6699192e-02
 -9.4873279e-02
  4.4285581e-03
 -4.7139380e-02
 -1.7395692e-01
 -5.8012117e-02
 -5.6283277e-02
 -1.3451651e-01
 -4.2787320e-03
 -4.1911662e-02
  5.2774284e-02
  9.6638173e-02
  3.4546977e-01
  2.0450781e-01
  4.7806054e-02
  1.4960642e-01
  3.9973915e-02
 -1.7086831e-01
 -3.5885549e+00
 -1.1674080e-01
 -5.2724950e-02
  4.7779150e-02
 -1.9643307e-04
 -6.0152316e-01
 -1.1641376e-01
  2.3836152e-01
 -1.7985584e-02
  1.7391755e-01
 -1.0259877e-01
 -1.5194859e-01
  2.2200572e-01
  8.1848271e-02
  2.0040842e-02
  8.0890834e-02
  4.8379272e-02
  8.3637767e-02
 -3.1281438e-02
  5.0213229e-02
 -4.8801139e-02
  2.4311166e-01
  7.4486092e-02
  7.4113369e-02
 -1.5894558e-02
  1.1768463e-02
 -2.8264073e-01
 -4.7237076e-02
  1.9047972e-02
  3.4792077e-02
 -2.5660282e-03
  1.5331780e+00
  8.7831473e-01
 -3.5887007e-02
 -3.0607718e-01
  2.4683930e-01
 -4.4078850e-03
  2.1841623e-01
 -4.0740043e-01
 -1.5176345e-01
  2.5688365e-01
 -1.9939975e-01
  5.0793443e-02
  6.6099733e-02
  4.9158424e-02
  6.1598405e-02
 -3.9892424e-02
 -1.5172477e-01
 -2.8053406e-01
 -4.4943012e-02
 -4.2597886e-02
 -3.3639606e-02
 -9.5107451e-02
 -1.9612147e-02
  3.2970868e-02
  2.8266015e+00
  1.1160389e-01
 -1.7843090e-01
 -1.1541421e-02
 -2.4639870e-01
 -3.3764668e-02
  2.8952453e-01
 -2.7255351e-02
 -1.2849435e-03
 -4.4773020e-02
  7.7950805e-03
 -8.0462389e-02
  4.8735226e-03
 -2.6549026e-01
 -2.5109198e-02
 -4.7734822e-03
 -8.1980070e-03
 -7.0997506e-02
  6.3716099e-03
  1.5382056e-01
  9.4192393e-02
 -4.5210294e-02
  1.9952739e-02
 -4.0579244e-02
  1.7082973e-01
 -8.4792264e-02
  1.0807337e-01
  5.9228837e-02
  1.5615302e-01
 -6.7723110e-02
  2.6967894e-02
 -3.4413740e-02
  2.9578665e-03
  5.1474161e-02
 -1.9588750e-02
  1.3788659e-03
  6.9244877e-02
  1.0452097e-01
 -3.0179240e-03
 -2.8863093e-02
 -1.7862594e-02
  1.9460106e-01
 -7.7181272e-02
 -3.9455060e-02
  8.1007779e-03
  5.1701542e-02
 -2.9928269e-02
 -3.7704274e-02
 -2.6733145e-02
  1.5352197e-01
 -4.0782173e-03
 -1.8090516e-01
 -1.2051925e-01
 -2.0125405e-01
 -5.1812299e-02
  5.7471801e-02
  6.2835023e-02
  4.1270632e-02
  6.8839282e-02
 -1.4128742e-01
  7.1511470e-02
  8.4906034e-02
 -2.3147237e-01
 -8.8130226e-05
 -9.6240722e-02
 -7.9736039e-02
  2.0356999e-01
 -5.8732748e-02
 -2.7536737e-02
 -3.7421148e-02
  8.3391301e-02
 -1.4229861e-01
 -7.9091631e-02
  8.1989011e-03
 -7.3118791e-02
  3.2289159e-02
  2.3606622e-01
 -6.4691789e-02
  1.6800223e-02
  8.3440080e-02
 -6.4094782e-02
 -1.3655145e-01
 -8.8235557e-02
 -9.1791943e-02
  6.6976319e-03
 -4.7199607e-02
  3.7770486e-01
  3.0198222e-02
  6.2840998e-02
  1.2587811e-01
  1.7362921e-03
  2.5098321e-01
 -6.8703942e-02
  6.4576879e-02
 -3.1387031e-02
 -1.9750085e-02
  9.9251978e-03
 -2.0243872e-02
  2.7585100e-02
  9.3112685e-02
  3.0355487e-02
 -1.2865368e-01
 -2.0920512e-01
 -6.7776069e-02
 -8.3458692e-02
  5.4967012e-02
 -3.6662899e-02
 -1.4787015e-01
 -8.1244595e-03
  5.1099081e-02
 -3.6334429e-02
  1.6718031e-01
  1.6113777e+00
  6.5834530e-02
  9.3410708e-02
 -3.8119841e-02
  1.4453919e-01
 -1.3860996e-01
  4.6939939e-02
 -1.2454399e-01
 -2.1979101e-02
  4.8533190e-02
  1.0985699e-02
 -9.1679491e-02
  2.0474359e-01
 -3.7827786e-02
  2.3158495e-01
  7.6244343e-03
  1.6274184e-01
 -2.0530812e-01
 -5.2843511e-02
  2.8515204e-03
 -2.4601785e-02
  1.0035605e-01
  9.2940375e-02
  8.0334924e-02
 -6.1250363e-02
  6.5865424e-03
  6.4828701e-02
 -8.3553521e-03
  2.2802068e-01
  1.4948088e-01
 -2.4985442e-01
 -9.0407403e-03
  5.2267365e-02
 -4.8721444e-02
  4.2513426e-02
 -1.0047354e-01
 -9.8455697e-02
  1.6684133e-01
 -1.1977001e-01
  1.8820101e-03
  1.3977376e-01
  4.6571728e-02
 -2.0527316e-02
  1.1944208e-01
 -3.6781304e-02
  3.6512129e-02
 -1.3987197e-01
 -4.0916916e-02
 -2.2969011e-02
 -5.3356094e-03
 -2.0784341e-02
  1.3956806e-01
 -7.5031660e-02
  6.8112247e-02
 -5.2531034e-02
  7.7539958e-02
 -5.9614137e-02
  1.6562376e-02
  3.8576823e-02
 -8.2045887e-04
 -2.0320085e-01
  1.3708988e-01
  4.6942398e-02
 -3.2094311e-02
  2.0271260e-01
 -1.0589656e-01
 -4.3260530e-02
  1.1630334e-02
  1.5699469e-01
  1.9724345e-01
  5.1970784e-02
 -5.2708466e-02
 -8.7715462e-02
 -1.4200376e-01
  3.5473321e-02
 -1.3340563e-01
 -1.0988096e-01
  2.3080930e-01
  1.5966286e-01
 -4.0331978e-04
  2.0605650e+00
 -5.9346503e-01
  5.0626278e-01
 -9.7827297e-01
  4.0315349e-02
  2.9403004e-01
  1.8956636e-01
 -1.5794525e+00
  7.4022067e-01
  5.3194219e-01
  1.9211968e+00
  1.6787586e-01
  7.7408217e-02
  6.0479961e-02
  6.3267639e-03
  1.8285744e-01
  3.1546003e-01
  9.9490809e-01
 -1.4389767e-01
  1.6799943e-01
 -7.2869673e-02
 -3.9039382e-01
  8.0330446e-02
  2.2548793e-02
 -1.1667737e-01
  1.1019329e-01
 -1.4267284e-01
  2.7294420e-02
  2.9634932e-01
  3.3567544e-02
 -3.8409710e-01
 -2.9255325e-01
  6.0597107e-02
 -1.2012972e-02
  4.4301305e-02
 -5.0406313e-01
  7.0597485e-02
 -5.0209409e-01
  1.3309288e-01
 -3.5864303e-01
 -1.1626367e-01
  6.2803470e-02
  7.5270668e-02
 -4.8321828e-02
  1.3783170e-01
 -6.1555132e-02
  3.4240749e-01
 -8.5555017e-03
  3.2098165e-01
 -6.6406749e-02
 -1.7669882e-01
 -1.0341674e-01
  1.1447559e-01
 -8.9982450e-03
  4.3178126e-02
  2.4041140e-02
  1.8133273e-02
  1.8200326e+00
  1.3779958e-01
 -8.1308419e-03
  5.9120268e-02
  1.2031991e-02
 -2.8536099e-01
 -1.4486468e-01
 -3.2509145e-01
 -3.1288672e-02
  1.3255636e-02
  1.1904878e-01
  4.6294354e-02
 -1.0897447e-01
 -3.3440705e-02
  2.1390814e-01
  9.2439152e-02
  4.0065736e-02
  9.8052718e-02
 -2.0466760e-02
  1.4763254e-01
  7.9094931e-02
 -2.4564296e-01
 -1.4408830e-01
  2.6940173e-01
 -1.3913384e-01
 -1.0140337e-02
 -2.1536945e-01
  6.2555514e-02
  6.8777345e-02
 -5.8943596e-02
 -2.6066759e-01
 -8.4517337e-02
 -6.7217283e-02
  6.3566923e-02
 -2.8695347e-02
  6.7722477e-02
 -7.7311374e-02
 -2.6506236e-02
  9.6524253e-02
 -3.0958563e-02
  7.8361183e-03
  5.8177445e-02
  1.3272470e-01
 -5.4541528e-02
  5.2725907e-02
 -1.9796127e-02
 -2.2769065e-01
 -2.7130665e-02
 -8.0197006e-02
 -4.9751505e-02
  2.2271520e-02
  5.8792359e-01
  1.6130307e+00
  3.5465038e+00
 -1.1266931e+00
  2.6157999e+00
  3.4872217e+00
 -2.6663878e+00
  2.6823971e+00
 -4.5363307e-01
 -1.1737717e-02
 -8.5355498e-02
 -8.5315749e-02
 -3.7124005e-01
 -1.8752705e-01
 -8.1026122e-02
 -1.5279613e-02
  4.9429914e-01
  5.2122653e-02
 -9.4303288e-02
 -1.1747309e+00
 -3.1380009e-02
 -2.9076564e-03
  9.0354942e-02
 -2.6159480e-01
  1.3016872e-01
  2.0904593e-01
  5.8667028e-01
  2.4368092e-02
  2.6259364e-03
 -3.3618397e-01
  4.9148473e-01
 -1.1971961e-01
 -1.1966577e-01
 -2.8793935e-02
  1.2369750e-02
  5.4288853e-02
  7.0581883e-02
 -3.2653783e-02
  1.4976753e-01
 -1.1096490e-01
 -8.6008824e-02
  1.7208326e+00
  1.1672436e+00
  5.2236110e-01
 -5.3413218e-01
  6.6772521e-02
  9.2751108e-02
  1.4633822e-01
  2.7843229e-02
 -6.1323307e-02
 -3.2911390e-02
  6.4213574e-02
  6.5436564e-02
 -6.1233401e-02
 -1.8450043e+00
 -3.2019147e-01
 -1.7434278e-01
 -1.5089047e-01
  1.1192262e-02
 -2.0342295e+00
 -1.4533913e+00
 -9.7397399e-01
 -5.0990698e-03
  6.8668745e-02
 -2.6484647e-01
 -6.7563191e-02
 -1.8440865e-01
 -2.3680170e-01
  1.8001731e-01
 -1.4408773e-02
  1.4391053e-02
  1.5268114e-01
  9.9069722e-02
  3.6080651e-02
  1.6732024e-02
 -4.0504554e-01
 -1.2205574e-01
 -1.1442044e-01
  1.3010684e-01
  1.1465096e-01
  6.6860926e-01
  7.9006739e-03
 -1.4171201e-01
 -5.4400653e-02
  1.3801011e-01
 -6.5455376e-03
 -6.9503404e-02
 -6.1667718e-02
  1.1304109e-01
 -1.6562095e-02
  2.8941780e-02
  1.1462799e-03
  8.1803247e-02
  8.0182135e-02
 -7.1237251e-02
  6.8306345e-03
  1.8002589e-01
  3.9576501e-02
 -1.9573849e+00
  1.0951331e-01
  7.3544353e-02
  2.5805205e-02
 -4.9385183e-02
 -1.0208873e-01
 -6.5635636e-02
 -2.3493981e-02
 -6.5943733e-02
  2.1111239e-01
 -1.9610747e+00
  4.0350147e-02
  3.8801709e-01
  5.8166635e-01
  1.2208607e-01
 -9.1307867e-01
  5.2107479e-02
 -1.1578413e+00
 -2.1283476e+00
  2.5740007e-01
  6.2025177e-01
  2.1765360e-01
  8.0192614e-01
 -1.9963267e-01
 -5.3552534e-02
  9.0465289e-01
  1.0506622e-01
 -2.9805219e+00
  1.0222135e+00
 -2.1708439e-01
 -2.8054255e-01
 -1.6057058e-03
 -3.5078758e-01
  8.9162394e-02
 -1.1815400e-01
  4.6387374e-02
 -1.9251592e-01
 -1.0119524e-02
  3.3507153e-01
 -5.3427058e-01
  9.1757268e-01
 -1.4976557e+00
 -4.3382913e-01
  2.1458395e-02
 -1.0572381e-01
 -1.3105598e-01
 -3.5799146e-01
  1.9205140e-01
 -9.8526403e-02
 -1.9377705e-01
 -6.9270447e-02
 -1.5516780e-02
  3.0685285e-01
 -4.9472198e-02
  1.4388490e-02
  7.8389905e-03
  1.1903621e-01
 -4.6870723e-02
  5.1972792e-02
 -1.1713481e-01
  2.5325999e-01
 -1.6874496e-02
  3.1516626e-02
 -1.6807926e-01
 -2.4792583e+00
  2.4013033e+00
  1.1061121e+00
  5.2210989e+00
  2.0143149e+00
 -4.6436486e-01
  6.9883519e-01
  4.0678682e+00
  3.1611626e+00
 -9.7628692e-03
 -4.8587976e+00
  2.7292937e-01
  9.3087301e-02
  3.9706320e-01
  3.1921923e-01
 -9.7324157e-01
 -2.0600711e-01
  4.1708551e-02
  2.0783468e-01
  2.5583604e-01
 -1.6913883e-03
  4.5048413e-01
  2.0859964e-02
  4.2608440e-01
  1.9646154e-01
  5.7986230e-01
 -1.3272250e+00
  4.1718099e-01
 -1.5809717e+00
  5.3807461e-01
 -1.4356409e-01
 -5.1918596e-02
  5.8586454e-01
  1.0929853e-01
 -4.1847545e-01
 -1.9676395e-02
  7.3848945e-01
 -5.4500502e-01
 -9.0156712e-02
  1.5791003e-01
  1.7848331e-02
  1.3964583e-01
 -6.1815284e-02
 -2.2342527e+00
  6.8574077e-01
 -1.6179213e-01
  3.1291971e-01
 -8.8357739e-02
  4.3232426e-02
 -1.9321445e-02
 -2.7307052e-02
  1.4568993e-01
 -3.0892503e-01
  6.0575992e-02
  2.0580831e+00
  2.3118177e-01
 -1.4500727e-01
 -1.6968389e-01
 -1.0936046e-01
  2.6381670e-02
  1.1183354e-01
 -1.1739991e-02
 -2.8637171e-01
 -2.8732628e-01
 -8.0443841e-01
 -3.0242443e-01
 -1.8116261e-01
 -1.2401484e-03
  3.8958449e-02
 -6.0402930e-01
  8.8969477e-02
 -9.3477555e-02
  5.4383343e-01
  5.0117874e-01
  1.1890844e-01
  4.4869232e-01
  1.5099685e-01
 -2.3637864e-01
 -4.5975830e-02
  9.8337471e-02
 -1.4359333e-01
  3.4888801e-01
 -1.6704775e-01
  1.6948819e-01
 -1.5537133e-02
 -4.4511918e-02
 -6.7345649e-02
 -1.1956277e-02
  8.2441412e-02
 -1.5046374e-02
  5.0057016e-02
 -1.1539558e-01
  3.5064027e-02
 -1.8605832e-02
 -7.6852344e-02
 -2.8846297e-02
  1.3107803e-02
  6.4666353e-02
  7.5041986e-01
  3.5821814e-02
  6.1757423e-02
  2.0687845e-02
  1.7656325e-01
  3.0283781e-03
  8.4991753e-02
 -8.5013220e-03
  1.7795070e-01
 -3.3923630e-02
 -5.5543572e-01
  8.8696223e-01
 -1.7720392e-01
  5.0269619e-02
 -1.4221174e-01
  2.9103890e-01
  2.0469992e-01
 -4.1683331e+00
 -3.4706123e-02
 -1.1375909e-01
 -6.9277756e-02
  1.8901548e-01
 -3.3163190e-02
 -2.0196529e-01
 -7.2533950e-02
  1.5830866e-03
 -3.3948964e-01
 -2.9284638e-01
 -5.7568904e-02
  5.7066372e-03
  3.5144884e-02
  5.4429756e-03
 -1.0878083e-03
  2.4940591e-02
  7.2530168e-03
 -1.4632865e-02
 -5.5618674e-01
 -1.6288024e-01
  2.3036072e-02
  1.1595851e-01
 -1.1001710e-01
 -2.2372498e-01
 -1.3941510e-01
 -5.9446357e-03
  2.8299564e-02
 -9.7982176e-02
  3.3748779e-01
  4.4250646e-01
  8.4195204e-02
 -2.3333864e-02
 -2.3180777e-01
 -4.8766416e-01
  1.8197687e-01
  5.0368305e-02
  1.1088202e-01
 -2.0351889e-02
  1.7792264e-01
  2.1909721e-02
 -1.2676112e-01
  1.1585225e-01
  8.3441198e-02
  1.9878639e-01
  7.3253527e-02
  5.0797842e-02
 -3.9482999e-01
  3.6426425e-02
  1.6394530e-01
 -4.2305884e-01
 -1.9432731e-01
  2.0094209e+00
  1.8227862e+00
  6.8412232e-01
 -4.2360845e-01
 -1.0907680e-02
 -2.4303794e-01
 -9.1522209e-02
  2.8884223e-01
  3.0722998e-02
  4.7314824e-03
 -5.4510128e-02
 -7.5492844e-02
 -5.2326053e-02
  2.3915386e-01
 -4.5343313e-02
 -2.6886323e-02
 -9.6646503e-02
 -1.3799812e+00
 -4.6886668e-02
  1.7505212e-02
 -2.2599825e-01
  3.1053867e-02
  1.9816613e-01
 -8.8565357e-02
 -2.6044054e-02
 -1.2701425e-01
 -2.0546855e-01
 -1.0135943e-01
 -4.6768510e-01
  9.0505749e-02
 -1.4520396e-01
 -8.3083242e-02
 -7.3902041e-02
  4.9828123e-03
  4.3019429e-02
  6.1258948e-01
 -1.2719923e-01
  3.4157820e-02
 -1.3195339e-01
  4.9294564e-01
  7.6456740e-02
  3.6597908e-02
  5.4294512e-02
  1.3855588e-02
 -8.1795678e-02
  9.0865217e-02
 -1.6954173e-01
 -1.6719212e-01
 -1.1704671e-01
  5.4954171e-01
  6.1875731e-01
  1.6954688e+00
  2.7084157e+00
 -7.6252300e-01
  1.9760326e+00
  6.2796670e-01
  5.8390915e-01
  2.8393537e-01
 -1.3463986e-02
  3.5360712e-01
  1.9952429e-02
  2.0985457e-01
  6.8962061e-01
  2.9428666e-03
  1.3607772e-02
 -4.8284484e-03
 -4.0696010e-01
  1.0491507e+00
  1.0750344e-01
  2.1789995e-01
 -1.3445030e-01
  8.5692191e-01
  7.5387949e-01
  9.6362509e-02
  4.3434781e-01
  4.3924272e-02
  5.7370466e-01
  1.3215959e-01
  6.3484281e-02
  8.7473854e-02
 -4.1669823e-02
  2.3234463e-01
  2.1137558e-03
 -2.4075866e-01
 -3.9440241e-01
  2.4016133e-01
  4.6753015e-02
  1.4126761e-01
  1.9036692e-01
  1.3549531e-01
  2.0501877e-01
 -3.5212565e-02
  3.4539714e-02
 -1.1473059e-01
 -6.0797065e-02
  5.1860269e-03
  7.8613780e-02
 -3.4297895e-02
  9.9129684e-02
 -8.0705486e-02
  2.5402611e-01
  2.9938070e-02
 -5.5003606e-02
 -1.1225554e-01
 -7.7434264e-02
  1.3361493e-01
  1.2091433e-01
 -1.2261366e-02
 -1.3738248e-01
  3.6363490e-04
  8.9498069e-03
 -1.5927011e-01
 -1.3823064e-04
 -2.9685441e-03
  3.1131130e-02
 -2.4608687e-02
  2.4584267e-02
 -2.6798306e-02
 -6.8293996e-02
 -3.6957499e-02
 -7.0095904e-02
  9.0282410e-02
  1.9532632e-02
  1.4302695e-01
  5.5451334e-02
  3.6808386e-02
  2.6082918e-01
 -1.6128866e-02
 -5.7047267e-02
 -5.7162654e-02
  6.6385090e-02
 -1.5778157e-01
 -1.0212000e-01
  1.4447093e-01
 -2.4404000e-01
  1.5964169e-02
  2.2033546e-03
  1.0067987e-01
  5.6393698e-02
  7.8043930e-02
 -1.4025691e-01
  3.7428413e-02
 -1.2291582e-02
 -2.6212323e-01
  5.5162408e-03
  7.1581736e-02
 -2.9203899e-02
 -4.3839850e-03
 -1.4168586e-02
 -1.5127993e-02
 -1.2289058e-01
 -2.6548588e-01
  1.0694790e-01
 -1.1769851e-01
  9.6564673e-02
 -2.0825265e-01
  1.1669269e-01
 -2.9437080e-01
 -1.7587369e-02
 -1.5479964e-01
 -1.4048669e-01
 -3.6747105e-02
 -2.2361004e-01
 -5.1216237e-02
 -3.6488137e-01
 -6.9148213e-01
 -2.2425778e-01
  1.9379539e-03
 -5.1646326e-02
  8.1306927e-02
 -7.5790912e-02
 -1.0365043e-01
  2.2985449e-01
 -4.5595965e-03
 -1.6017795e-02
  1.0279869e-01
 -1.7485149e-01
  4.6284784e-02
 -2.4331087e-01
  6.2949881e-02
 -1.0546323e-01
  8.9330837e-02
  3.0051107e-02
 -1.5066028e-01
  3.3260815e-02
 -2.3481470e-02
 -3.0780379e-02
 -7.3901057e-02
 -1.7383864e-02
  8.7389871e-02
 -8.8026142e-03
 -8.9851841e-03
  8.6385924e-03
  4.4612173e-02
  4.2035863e-02
  3.3544719e-02
 -9.0116546e-02
 -3.3385821e-02
 -5.3767443e-02
  1.8642817e-02
 -1.8354076e-01
  7.9933874e-02
  4.1244723e-02
  6.4584881e-02
 -4.7141740e-01
  1.3298799e-01
 -3.9988435e-03
 -4.1972786e-02
  1.8616481e-01
 -5.8003359e-02
 -3.0293847e-02
 -4.4737250e-02
  1.9296266e-01
 -9.6594907e-02
  1.2195823e-01
  7.2009660e-02
  1.6859941e-02
 -1.7976640e-02
 -6.1409071e-02
  2.1729352e-02
 -9.7381333e-03
 -8.6271293e-02
 -7.0685990e-02
 -9.7081035e-02
 -2.0919306e-02
 -1.1046176e-01
 -7.5385295e-02
  6.6416338e-02
 -1.7279075e-01
  9.3472414e-02
  2.5473462e-02
  6.4606905e-02
  1.8532372e-01
 -4.8714742e-02
  9.2062734e-02
  2.5137571e-01
  1.9155793e-01
 -6.6933095e-02
  1.6608493e-01
  1.1231495e-01
  2.4338163e-02
 -1.2420931e-02
 -4.9440123e-02
  2.8772065e-02
  1.3073906e-01
  2.6305173e-02
  6.9949128e-02
 -8.8701025e-02
