nep4 2 Cu Ag 
cutoff 6 4 105 35
n_max 8 8
basis_size 12 12
l_max 4 2 0
ANN 80 0
  9.7229296e-01
 -5.4119104e-01
  3.3806887e+00
  3.4429392e-01
 -3.2829444e+00
  8.6913049e-01
  1.0224074e+00
 -2.4018528e+00
  5.6496868e+00
  3.8300596e-02
  6.5572023e-01
 -4.9595612e-01
 -2.7782204e-02
  5.6726497e-01
  3.0363822e-01
 -8.0272838e-02
  1.8668573e-01
  1.8690202e-02
 -4.0351745e-02
  2.5006273e-01
  7.6238096e-02
  1.6470365e-01
  1.1100779e+00
  2.2259228e-01
  5.0993755e-02
  1.1620003e-01
 -1.4630572e-01
  3.4655952e-01
  6.3190898e-03
  1.8897665e-01
 -9.7994797e-04
  2.7307590e-02
  4.8870984e-02
  2.8897310e-02
  1.6232524e-02
  5.0210450e-02
 -2.0314069e-02
  1.2646876e-01
  1.4042030e-01
  2.4607630e-02
  8.6338782e-01
  2.7852926e-02
  5.0179693e-03
  1.6228046e-02
  1.2934849e+00
  1.4131341e-02
  5.3930014e-02
  5.9097886e-02
 -1.5917828e-02
  1.0197480e-01
  1.7393395e-02
  5.0913502e-02
 -6.5173246e-02
 -2.2459695e-02
 -5.5796099e-01
 -2.2480409e+00
  1.7919624e+00
 -3.6338902e+00
 -1.3599647e-02
  2.8580719e-01
 -1.8208792e+00
  3.6753654e-02
  3.9766490e-01
 -2.2965455e-01
 -1.7194290e+00
 -1.0949515e-02
 -7.4875474e-02
  5.1507759e-01
  2.0376846e-02
  8.1480540e-02
  3.9032898e-03
  5.2647006e-02
  4.3874823e-02
  1.6494785e-01
  2.2017619e-02
 -5.7009878e-03
  1.7116761e-01
 -4.7592431e-01
 -6.7289658e-02
 -3.4646392e-02
 -8.5328817e-01
 -1.0395046e-01
 -8.6721607e-02
  9.9132039e-02
  1.8656891e-02
  8.7604756e-03
 -3.3990970e-01
  3.2327775e-02
  1.1327855e-01
 -2.7321914e-01
  8.9713573e-02
 -7.1898930e-02
 -9.7458661e-02
 -5.0343610e-02
  2.0666693e-01
 -5.3603941e-01
 -5.8402501e-02
  7.1452321e-03
 -1.0272390e-01
  8.7958813e-02
  2.7268180e-01
  1.8810105e-02
 -1.2561177e-01
 -1.1212560e-03
 -1.3792776e-02
  9.7722404e-02
 -1.8636951e-02
  1.0881342e-02
  1.8082708e-03
  1.5692627e-02
 -3.0109609e-02
  2.0140654e-01
 -4.9885463e-02
  9.8008022e-02
  3.3662755e-02
  9.0294383e-02
  1.3118063e-01
  5.2364789e-02
  1.4567872e-02
  1.9196208e-01
 -2.5969449e-02
  3.5805941e-02
  1.3349595e-02
  1.1375518e-01
 -6.9884412e-02
 -3.6996450e-02
 -9.5507987e-03
  1.0980092e-01
  4.0345876e-03
 -4.1993111e-02
  4.2111892e-02
  8.3514653e-02
  2.7609982e-02
  1.4856192e-01
  3.7286539e-02
 -1.1024663e-01
 -8.1108414e-02
 -6.8826647e-03
 -1.4900559e-02
  1.3490446e-02
 -5.6730714e-03
  5.7453625e-02
 -1.2370182e-01
  7.9745531e-02
  8.5260153e-02
 -8.0089398e-02
  1.3525169e-01
 -1.7907420e-01
  7.4240401e-02
  4.8107719e-03
  2.4803435e-02
  5.1858775e-02
 -9.2519767e-04
 -3.0185295e-02
  7.2744489e-03
  2.2176020e-02
 -8.6043300e-03
 -3.5840664e-03
 -2.3022858e-02
  1.2918438e-01
 -2.8914411e-02
  1.1131931e-02
  8.3189911e-01
  4.2423785e-02
  1.4259220e-02
 -6.2687166e-02
 -3.1014090e-02
 -5.0372168e-02
 -1.1154347e-02
 -1.8936660e-02
 -3.6123674e-04
 -1.1214202e-01
 -1.5304400e-02
  3.8702609e-03
  4.8061488e-03
 -7.1454056e-02
  4.8426010e-02
  1.1778154e-01
 -4.3576065e-02
 -7.2417613e-03
 -7.0270090e-03
  3.7695587e-02
 -1.0674540e-01
  1.0075533e-01
 -6.6790573e-02
  5.0817739e-02
  1.4880329e-02
 -6.1478119e-02
  3.2311648e-02
 -5.0379958e-02
 -1.5068913e-01
  4.2297162e-02
  4.7059819e-02
  2.3419185e-02
 -1.5036413e-01
  3.6935903e-02
 -7.0107318e-02
  1.3034917e-01
 -5.4572249e-04
  9.6198112e-02
 -7.1413051e-03
  9.5316273e-04
  6.8847239e-02
 -1.1510587e-02
 -2.6396026e-03
  4.5327330e-03
 -1.1254767e-01
 -1.4251629e-01
 -6.8637937e-02
  1.7457651e-02
 -1.5156901e-02
 -6.3156538e-02
  2.0717792e-02
  1.5707427e-01
 -7.4142441e-02
  2.4704752e-02
 -1.9442160e-02
 -1.9684792e-01
  5.9469637e-02
  3.9643754e-05
 -1.9965624e-03
  1.2184287e-01
 -4.8674438e-02
 -2.1715185e-02
 -3.5621535e-02
 -1.2560782e-02
  2.7033550e-01
 -1.2300733e-02
  1.6640921e-01
 -1.7064137e-03
  2.5735239e-02
  5.5816762e-02
  3.8539503e-02
  4.2974792e-02
  2.4075916e-02
  9.4573926e-03
  4.2762589e-02
 -3.4846488e-02
 -7.5161415e-03
  3.8044564e-03
  7.5791776e-02
 -9.8186992e-02
  6.9657095e-02
 -7.7770270e-02
 -1.1733699e-02
 -1.3602809e-02
 -3.1332467e-02
 -3.0678890e-03
 -1.0125051e-02
 -4.2331882e-02
  2.3296136e-02
 -2.1214070e-02
  5.3357974e-02
  3.2044899e-02
 -8.6577386e-02
  1.0198586e-01
 -1.4443911e-02
  6.6242315e-02
 -2.6099738e-02
  3.0280584e-03
  1.0319831e-02
 -1.5551934e-02
 -1.4945385e-01
  5.5387348e-02
 -3.2471961e-04
 -8.7516634e-03
 -1.4214193e-03
  1.5317528e-01
 -1.5305595e-02
  1.1627223e-02
  1.0508998e-01
 -2.2990245e-01
  2.7904712e-02
  2.3665126e-01
 -3.8217537e-02
  1.7873348e-01
  6.9742147e-03
  5.6365240e-02
 -2.3641931e-01
 -8.1384080e-03
 -2.6114808e-02
  5.1154818e-02
  8.4984200e-03
 -9.4605789e-02
 -7.2043417e-03
  4.6684068e-02
  9.9789217e-02
  1.5258404e-02
 -7.0355651e-03
  2.0472822e-03
 -2.2812791e-02
 -1.3243310e-01
 -1.9904476e-02
 -5.1779982e-02
  2.4592910e-02
  1.9266356e-02
 -8.2454272e-02
  3.0577339e-02
  1.1915935e-02
  1.3228983e-02
  8.9218309e-03
 -1.2969643e-01
  1.0952501e-02
  7.6714023e-03
 -4.4429354e-02
  2.4460409e-02
 -1.5962869e-02
  3.7545368e-02
 -1.9062595e-02
 -1.8795881e-02
  4.1898817e-02
 -2.0434957e-03
  3.3140011e-02
 -6.0962806e-03
  1.2705080e-01
 -1.4617922e-02
 -1.0306331e-01
 -1.3045729e-02
 -7.5726099e-02
 -2.3416879e-02
  3.5676843e-01
 -1.3029996e-02
  6.9494545e-02
 -1.6909359e-01
 -2.7884150e-02
  3.9084715e-01
  4.6531418e-03
  2.5073264e-02
  7.3286928e-02
  4.5680340e-02
 -5.2825876e-02
 -5.9629516e-03
 -5.1118517e-03
  2.2309206e-01
  1.2063947e-01
 -8.7819092e-02
  2.7384558e-03
 -9.2180986e-03
 -3.6894858e-02
 -2.6563283e-02
  2.7827849e-03
 -3.3344515e-02
  4.8919152e-02
  9.7718425e-02
  3.7677675e-02
  1.8178953e-01
  4.0955518e-04
 -2.2368314e-02
 -3.1772943e-03
 -1.4751473e-01
  1.8351465e-02
  4.3087311e-02
  6.6076651e-02
 -3.8125463e-02
  1.4987146e-02
 -8.2249857e-02
  2.5404630e-02
  1.4466122e-02
  1.1803045e-01
 -5.2763198e-02
  2.8342770e-02
 -1.7911870e-02
 -3.3521738e-02
 -1.5852715e-01
 -1.4595260e-01
 -9.4373273e-03
  3.0689415e-02
 -1.4427836e-01
  2.2424450e-02
 -7.1554231e-03
 -2.0877968e-03
  5.5664830e-04
  2.4451660e-02
  1.3885653e-01
 -2.7381077e-01
 -9.9452592e-02
 -3.7359394e-02
 -6.3802667e-02
  2.3014559e-01
  1.7736114e+00
 -7.7379626e-01
 -7.2250062e-01
  2.5091100e+00
 -7.5406635e-01
 -2.6221538e-01
  1.8487403e-01
 -2.2243438e+00
 -3.1902689e-02
 -1.3945179e-01
 -6.0756523e-02
  8.1111155e-02
 -1.3316983e-02
 -3.5224164e-01
  1.1417563e-01
 -7.1476363e-03
 -1.1513783e+00
 -5.4692193e-03
  1.0661633e-02
 -3.4191955e-02
 -3.6856511e-03
  5.8187217e-02
  1.3058960e-01
  1.2087036e-01
 -1.0234036e-01
  1.4531806e-01
  5.8958199e-02
  2.6515607e-02
  1.7607260e-01
  1.1859494e-01
 -4.2869184e-02
  8.3389051e-02
  5.4622722e-01
 -7.6469153e-02
  1.6983961e-01
  6.0383756e-02
 -4.0440992e-01
 -1.2678057e-02
  2.4644420e-02
 -3.5658465e-03
  9.7794995e-02
 -1.3625742e-01
 -2.9270986e-02
  1.3978715e-01
 -2.1930516e-02
  9.7676978e-02
  2.1578001e-02
  2.4728343e-02
 -1.4441197e-01
 -9.9801878e-03
 -3.3306155e-02
 -1.5934678e-02
 -7.2278925e-03
 -4.3145556e-02
 -1.5323385e+00
 -8.6915188e-02
 -3.5006326e-02
  2.4854761e-01
  6.6890813e-02
  3.3545513e-02
 -1.8905338e+00
  8.8258326e-02
 -4.0997248e-02
  1.3345473e-02
 -4.0083759e-02
  2.3647804e-02
 -1.0299925e-03
  1.9443205e-03
  1.3751198e-02
 -2.8731959e-02
 -5.3581502e-03
  2.2519762e-03
  5.5362534e-02
 -1.2652915e-03
  2.9449720e-02
  3.2588698e-02
  1.9040702e-02
 -4.9641542e-02
  1.1251704e-02
  8.6798020e-02
 -8.4996335e-03
  9.4764836e-02
  8.5241646e-02
 -1.2335744e-01
 -4.8008773e-02
 -4.8182014e-02
 -6.9407746e-02
  5.0785858e-02
 -1.5714452e-02
  8.2197944e-03
  6.8315051e-02
  2.6579136e-02
  1.1599986e-01
  3.7937001e-03
 -2.5713410e-02
 -4.3548260e-02
 -5.9252471e-02
  1.4507936e-01
 -1.8013449e-02
  1.4192049e-02
 -3.3960506e-02
  7.8607276e-02
  6.6788465e-02
 -2.6260022e-02
  4.9997766e-02
 -3.1943079e-02
  6.2722936e-03
 -1.7310759e-02
  1.0876474e-01
 -9.9827930e-02
 -3.6784481e-02
  1.1994088e-02
  8.6099818e-02
  2.3372914e-01
 -5.3858926e-04
 -2.2870099e-02
  6.9555296e-03
  3.5977471e-03
 -6.8526692e-03
  3.2483410e-02
  1.7235782e-02
  2.6808729e-02
  8.3607070e-02
  1.6141759e-01
  6.0814481e-02
 -2.5003308e-01
  1.1505893e-02
 -1.1805749e-01
  3.1586472e-02
  1.2869953e-01
 -9.8065943e-02
  6.4983703e-02
 -6.3416869e-03
 -1.1678835e-02
  1.2097177e-01
  1.0607465e-03
  7.6507013e-03
  2.0901171e-02
  2.4378154e-04
 -6.9494182e-03
  1.6141687e-02
  8.9028887e-02
 -4.7954984e-02
 -1.2390227e-01
 -3.3280909e-02
  5.1921498e-02
 -7.1866289e-02
  4.5850500e-01
  3.3360001e-02
 -2.3917088e-02
 -5.3774484e-02
  7.9821832e-02
  4.0713519e-02
 -2.2369552e-02
 -1.1509120e-02
 -5.0589506e-02
  6.9183528e-02
 -1.2392709e-02
 -2.3402186e-01
  6.2098727e-02
 -1.2862882e-02
  6.7345999e-02
 -1.4763570e-01
 -2.1788148e-02
  1.7250124e-01
 -2.0028248e-02
  1.2761733e-02
 -1.2574792e-01
 -6.8432465e-02
  1.8576278e-01
  3.2996256e-03
  3.3776549e-01
  9.7627245e-02
  4.5880206e-02
 -5.3907223e-02
  6.4413927e-02
  9.4539218e-02
  9.5838383e-03
 -1.4044607e-01
  2.6013102e-02
 -4.6116557e-02
 -1.9116692e-02
  3.0321483e-02
  1.8958478e-01
 -4.7545329e-02
  1.8330306e-02
  4.9031821e-01
 -8.6188734e-02
 -1.2793344e-02
  1.4572312e-02
 -1.2410330e-01
 -1.0663219e-01
 -7.0008606e-02
 -1.4311182e-01
 -3.1435564e-02
 -1.0123224e-01
  2.4115087e-02
 -1.0148107e-02
  8.5338123e-02
 -5.0546754e-02
  2.3964170e-02
 -4.0843859e-03
  6.9967523e-02
  6.4178042e-02
  5.0060220e-02
  1.4117974e-01
  3.5495400e-02
 -6.1851166e-02
  1.3347214e-01
  1.6000535e-02
 -6.8383269e-02
 -3.8413584e-02
  3.0053551e-03
  2.5101468e-02
  2.8388418e-02
  5.1471744e-02
 -1.4202961e-02
 -2.3425524e-03
  1.1344423e-01
 -5.9696730e-02
  2.8414844e-02
  7.4791722e-03
 -6.1221860e-02
  4.5224834e-02
  6.5693624e-02
 -2.2117401e-02
  8.9719966e-02
 -8.7380605e-03
 -1.4337990e-01
 -2.2570603e-02
 -1.4903737e-02
 -2.5146894e-02
 -6.6224694e-02
 -1.5478283e-04
 -4.9952991e-02
 -1.1488920e-01
  3.9205477e-02
  5.1600742e-03
 -4.7354881e-02
 -3.4879804e-02
  7.9191430e-03
  5.8062900e-02
 -8.8408805e-02
 -5.6343570e-02
 -4.3871704e-02
 -1.0426306e-02
  1.3815190e-02
  2.3722600e-02
  6.5179747e-03
 -8.0723383e-02
  2.1158390e-02
 -4.4862326e-02
  2.6319949e-02
  3.7998237e-02
 -1.1496708e-02
  7.4052483e-02
 -1.4750531e-01
  3.9686937e-02
 -3.4297395e-03
  3.6190692e-02
  8.9377508e-02
  9.2870742e-03
  2.8759504e-02
  7.8225881e-02
  6.4055533e-03
  2.4846110e-02
  4.8272911e-02
  4.2951182e-02
  1.1643555e-02
 -6.5744914e-02
  4.9948584e-02
 -8.0202654e-02
  5.3270616e-02
 -7.8543901e-02
  2.1072489e-03
  2.0605328e-02
 -6.9449400e-03
 -6.6891775e-02
 -1.6590869e-02
  1.0838728e-01
 -2.7219558e-01
 -1.3906710e-01
  7.7795740e-03
 -2.5268251e-01
  6.3167781e-02
 -8.3196387e-02
  3.7006665e-02
  5.5667222e-03
  6.3352242e-02
  6.6662848e-02
 -5.0472766e-03
 -9.4413564e-02
 -3.2157358e-02
 -6.4530328e-02
  2.0277485e-02
  2.5499145e-02
 -2.8148860e-02
 -1.1746573e-01
  1.2747662e-01
 -1.0698491e-01
 -6.5682627e-02
  8.2225986e-02
  3.8826510e-02
 -5.6674227e-02
  5.1006608e-02
  1.8688429e-02
 -3.3583198e-02
 -7.4985087e-02
 -1.6450123e-01
  3.6652096e-02
  4.5201804e-02
 -2.9928654e-03
  9.5829129e-02
 -1.1421799e-01
  1.2827998e-01
  4.5944094e-03
 -3.3537811e-03
  1.4650556e-01
  9.6260130e-02
  1.1274645e-02
  9.1593012e-02
  1.2058824e-01
  2.0095906e-01
  3.4927458e-01
  2.9585687e-03
 -2.5444731e-01
 -1.7267585e+00
  4.2588625e-02
  3.2959506e-01
 -2.5646958e-01
 -5.5744215e-03
 -4.5720851e-01
 -3.9802060e-01
 -1.0300572e+00
  1.9311577e-01
  2.0088375e-01
 -3.7608240e-03
  1.9789501e-01
 -1.9127120e-01
 -4.8502114e-02
 -9.4389729e-02
 -2.2087564e-01
 -5.6840932e-01
 -5.9912197e-02
  1.2445615e-02
 -1.7044812e-02
 -3.6289126e-01
  1.2033311e-01
 -8.0293697e-01
 -1.3221277e-01
 -2.3465818e-02
 -6.5044987e-01
 -2.0826179e-01
  1.7669210e-01
 -7.1793817e-02
  1.5814878e-02
 -2.0801675e-01
 -8.5577434e-01
 -3.7574628e-01
  9.9668637e-02
 -8.0726069e-01
 -7.1654193e-02
  5.0772510e-02
 -6.8899184e-01
 -1.9343394e-01
 -4.6032935e-01
 -1.5399852e-01
 -4.5873504e-02
  8.8566929e-02
 -6.2711351e-03
  7.9773806e-02
  4.6732626e-03
  1.2724127e-01
  1.5035471e-02
  6.7273118e-02
 -1.5304863e-02
  2.1097514e-01
  3.9494298e-02
  3.7752578e-01
 -4.2121273e-02
  9.5188962e-03
  3.2962521e-03
  2.3786025e-01
 -1.4815731e-01
 -1.0596523e-02
  1.8194702e-02
  4.9740110e-02
 -3.4030937e-02
  9.9177063e-03
  6.0121071e-02
  8.8081241e-02
  8.3140954e-02
  3.1418733e-02
 -1.5017787e-02
 -1.1614759e-02
  1.0117716e-01
 -2.1122755e-02
  9.7815886e-02
  9.3619972e-03
 -4.6819855e-02
  1.9099583e-01
  9.5417172e-02
 -7.7710927e-02
  1.6568202e-01
 -6.9643214e-02
  1.1591842e-02
 -6.1138086e-02
  7.1640447e-02
  5.3997077e-02
 -2.2289129e-01
 -1.3419043e-02
  2.5618306e-01
 -3.4256052e-02
 -1.0028617e-02
  2.6385158e-02
 -7.3639840e-02
 -2.0273772e-01
 -2.2246113e-02
  1.2664668e-01
  3.0432172e-02
 -5.7677142e-02
 -1.6818590e-01
 -2.3069759e-01
 -5.2761614e-02
  1.7396482e-02
  2.7355241e-02
 -3.9153267e-02
 -5.5649644e-03
  5.9996087e-02
  7.0913143e-02
  3.3944175e-02
 -5.2134395e-01
 -5.4098135e-01
 -3.1984097e-01
 -1.5701946e-02
 -1.7649938e+00
  6.4412676e-02
  8.9576006e-01
 -5.0941014e-01
  6.9342631e-01
  9.4925901e-03
  6.9497496e-01
 -3.0317982e-03
 -9.9520795e-02
  1.0218799e+00
  8.2226463e-02
 -1.7398889e-01
  1.6076834e-01
  1.6917290e-01
  2.2065798e-02
  8.1044936e-01
 -4.5347121e-02
  2.3889934e-01
  1.3666103e+00
  2.4914511e-01
  5.9430268e-02
  4.5290297e-01
  8.1514060e-02
 -2.1631256e-02
  1.2894852e-01
 -7.3835835e-02
 -2.1910386e-02
  9.5400780e-01
  7.6617616e-01
 -2.3278035e-01
 -1.2081047e-01
  1.1977383e-01
  3.6466730e-01
  3.1227407e-01
  5.5082604e-02
  2.0172922e-01
  4.6545592e-01
  7.3420340e-01
 -5.5579286e-02
 -1.5038684e-01
 -1.7425438e+00
  9.0275012e-02
  3.6046892e-02
  4.2736098e-02
  2.2015316e-02
  1.1874044e-02
  1.5930507e-02
  5.6315336e-02
  1.9139593e-02
 -1.0531121e-01
  3.4846064e-02
  1.2484989e-02
 -1.0446022e-02
 -1.6592005e-03
  8.4768963e-04
 -1.0653751e-02
  1.2041824e-01
 -3.6057506e-02
 -3.1272016e-02
  2.2973135e-02
 -9.4213426e-02
  2.7203938e-02
  5.4482728e-02
 -1.0004637e-01
  3.3582531e-02
  1.3801771e-01
  2.0732243e-02
  2.4776990e-03
  1.6656915e-02
 -3.9253622e-02
  9.0488028e-03
  3.7562538e-02
  7.4425615e-02
  1.2787306e-03
  3.3031277e-02
  1.7567296e-01
  9.1941394e-03
  3.3577077e-02
 -8.5820496e-02
 -6.8373056e-03
  3.9842548e-03
 -3.0240687e-02
  5.4977354e-02
 -7.5551569e-02
  7.6758605e-03
  1.4216739e-02
  5.1585268e-02
 -7.1602777e-02
 -2.7150836e-02
 -1.6947741e-02
  1.0197783e-01
  2.3903970e-02
  4.2539854e-03
 -1.4997200e-03
 -1.5262143e-01
 -4.1647581e-07
  1.2083582e-02
  3.5427599e-03
  2.9635737e-03
  4.9438450e-02
  2.5934933e-02
 -9.7791843e-02
  3.3436324e-02
 -1.0562509e-01
  3.5848342e-02
  4.2147525e-02
  3.2298204e-01
 -7.4457191e-02
  2.9808221e-02
  2.4328443e-01
  6.0772285e-02
  2.3574248e-01
 -3.0550858e-01
  2.9640632e-02
 -1.6832992e-01
  2.9000403e-02
  1.3267603e-02
 -1.9053236e-01
  4.4253960e-01
 -1.3433277e-02
 -2.9388798e-02
  1.5035382e-01
 -3.3727963e-02
 -4.2297387e-01
  2.3609711e-02
  9.1723025e-02
 -1.2761512e-01
 -9.4401598e-01
 -5.2628256e-02
  1.4219467e-02
 -7.7046238e-02
 -3.1719318e-01
 -5.3248997e-04
 -5.0057232e-02
 -1.1034690e-02
 -4.5180708e-02
 -1.3325753e+00
  4.7802314e-02
 -7.5799704e-02
 -5.0210750e-01
  4.1677888e-02
 -2.4739984e-01
  5.0628949e-02
  1.1470974e-01
  1.6577028e-01
 -5.2770138e-01
  2.2926914e-02
 -3.6135983e-01
 -1.2362388e+00
 -1.6413729e-03
 -1.5326203e-01
  4.2594054e-01
  1.4878397e-01
  1.2625845e-02
 -1.0790288e-01
  4.5731775e-03
 -4.0551491e-02
  3.0326821e-02
 -1.1955445e-01
  2.3410287e+00
 -1.0989161e+00
 -1.5339155e-01
 -3.2967936e-02
  8.9909220e-03
 -1.2897785e-01
 -1.1497676e-01
 -8.6525321e-02
  7.8188375e-02
  9.5050231e-02
  3.1693045e-02
 -1.2879893e-02
 -3.8667373e-02
  6.7049664e-01
  1.0922833e-02
  1.4337370e-01
  6.5082684e-03
 -2.5579747e-02
 -7.2349296e-03
  1.1765723e-01
 -5.7651699e-02
 -1.3224585e-01
  7.2405217e-03
 -9.1956124e-02
 -3.4440767e-02
  3.5467915e-02
  4.6347082e-02
  3.8770195e-02
  2.1355930e-01
 -8.7836429e-02
  3.0464609e-03
 -2.3096357e-03
  8.6213805e-02
  2.9344419e-02
 -9.2281671e-03
  2.8806495e-02
  4.6760254e-02
  4.0454842e-02
  2.8932041e-02
 -5.8708865e-02
 -2.1156560e-01
 -4.0665586e-02
 -3.7472680e-02
  5.2841345e-04
  2.3595057e-01
  2.8196377e-01
  3.6638837e-02
  3.7055705e-02
 -1.2803225e-01
  2.2791898e-02
 -4.7490839e-03
  2.1159155e-02
  2.1686582e-02
  2.3543933e-02
  1.0127205e-01
 -1.2993241e-03
 -8.8108862e-03
  6.7986950e-02
 -7.6515703e-03
  8.8936143e-02
  3.0332588e-02
 -8.1142724e-02
 -1.8169953e-01
 -7.2119556e-02
  2.5395586e+00
  6.8771832e-02
 -2.7133815e-02
 -1.5923321e-02
 -1.8786560e-01
 -1.2740400e-01
 -2.5527008e-02
 -6.7861319e-02
 -6.4035967e-02
 -5.1276725e-02
  2.4046535e-02
 -2.3020755e-01
  1.0164541e-01
 -3.8082942e-02
 -3.0181669e-02
 -1.0863720e-02
  6.0867976e-02
 -6.9461823e-03
 -5.2170739e-02
  3.2034356e-03
 -9.4888084e-02
  2.3646015e-03
 -1.2009492e-03
 -3.4665138e-02
 -3.1597599e-02
  1.2191268e-01
 -7.2510019e-02
  1.6831273e-02
 -8.5676694e-03
 -3.6595959e-02
  1.6498737e-01
 -2.6580287e-02
 -1.8796060e-02
 -3.7391330e-03
  1.0509893e-01
  1.5968190e-01
  2.2056390e-02
  1.3434476e-01
  8.1079170e-02
  2.0522922e-02
 -1.9780025e-02
 -6.7487195e-02
 -6.4295188e-02
 -4.8094794e-02
  2.4628308e-01
  2.8528804e-02
  5.0731827e-02
 -2.9759723e-01
 -1.0422450e-02
  2.0323046e-02
  1.0857951e-02
  1.5375723e-01
 -1.0701627e-02
 -7.6719448e-02
 -2.8025413e-02
  1.5570013e-02
  1.1300729e-03
 -3.5698440e-02
 -2.2320570e-02
 -1.6287718e-02
 -9.4157934e-02
 -3.0697435e-01
  2.6257738e-01
  1.6965339e-02
 -2.4798732e-02
  6.5468550e-02
  3.3597518e-02
 -3.1683788e-02
  1.2917366e-02
 -1.3364102e-01
  4.1015659e-02
 -1.9722421e-02
 -7.5491884e-04
 -1.7622480e-02
 -3.3136927e-02
  4.2711820e-02
  5.4256957e-02
 -1.2700140e-01
  2.7238838e-02
 -2.5127450e-04
 -8.1128970e-02
  4.7215628e-03
 -8.6682383e-03
  9.7906217e-02
 -5.0440993e-02
  1.5021025e-02
  3.6106227e-04
  3.2619860e-02
  1.8813083e-02
  3.4524854e-02
  1.4677539e-02
  4.1253660e-02
 -1.1342940e-01
  4.5219688e-03
 -1.1280002e-01
  5.0299168e-03
 -5.5392303e-02
 -1.0205628e-02
  3.9032742e-01
  5.2247297e-02
  1.1572520e-01
 -6.3185483e-02
  8.6664418e-03
 -8.4574349e-02
 -6.7376032e-02
 -3.5750497e-02
  6.4057499e-02
  1.9082713e-03
 -6.2574886e-02
 -1.6407740e-01
 -1.4483735e-02
  6.8002403e-02
 -4.2491995e-02
 -4.1834574e-02
  2.1270001e-02
  5.1767975e-02
  1.6734961e-02
 -1.0368580e-01
 -3.7565257e-02
 -1.6085424e-01
  5.0274320e-03
 -3.0063930e-01
 -2.7968274e-02
  7.4641574e-03
  1.6963407e-01
 -1.1253449e-01
  1.7510852e-01
  1.6387942e-01
 -3.0000186e-02
  3.9155506e-02
  5.3309504e-02
 -3.6617711e-02
 -1.7828850e-02
 -6.3177921e-02
  3.0215316e-02
 -1.1383544e-01
  4.4869315e-03
 -8.1179269e-02
  1.0122113e-01
  3.1270303e-02
 -1.0118672e-02
  5.5085048e-02
  3.5389692e-02
  2.4454795e-02
  1.4302025e-02
 -3.2520492e-02
 -3.3605129e-02
  1.2521231e-01
  6.1494201e-02
  1.0973620e-01
  6.8088830e-03
 -3.0726722e-01
 -3.2454910e+00
 -1.1063093e+00
 -1.4345812e+00
  2.7151373e-01
 -1.5505783e-01
  5.4527700e-01
  1.5147642e+00
  3.7324125e-01
 -6.3783112e-03
 -2.3393200e-03
 -5.6223519e-02
  5.8259183e-01
  5.1461712e-02
  1.4912345e-02
 -1.6706423e-01
 -4.8817139e-02
  3.1273739e+00
 -4.1043382e-02
 -1.6602914e-01
 -5.2960433e-02
  9.9908292e-02
  2.7652813e-02
 -2.5167394e-01
  1.9214202e-03
  4.2752814e-01
 -7.0975256e-01
  2.1141434e-01
  2.0252542e-01
  4.2149600e-01
  7.8542620e-02
  3.8475972e-02
  3.3471477e-01
 -5.3375703e-01
 -4.0592074e-01
 -8.7139076e-01
 -1.0833860e-01
 -2.9946572e-01
 -9.6031606e-01
  5.7280030e-02
  1.1477071e-02
 -5.5017680e-01
 -9.8874703e-02
  4.4069862e+00
  9.0584385e-01
 -3.2563835e-02
  1.2274700e-02
 -2.1167206e-02
  1.1704631e-01
 -4.1053087e-02
 -2.9623112e-01
  4.3792706e-02
 -6.6757090e-03
 -2.9945046e-01
 -3.0322695e-01
 -2.2480132e-01
 -1.1147627e+00
 -1.2118393e+00
 -1.8260030e+00
  3.5503620e-01
 -5.4260308e-01
  6.9792941e-02
 -1.0522801e+00
 -1.3586465e-01
 -8.2746878e-02
 -1.8848041e-01
 -6.8936072e-02
 -4.0051650e-02
 -6.2969424e-02
  7.2850874e-03
  6.3102894e-02
 -5.5533218e-01
  3.4143429e-02
 -2.9774517e-01
 -4.8336282e-02
  4.6069193e-01
 -3.0139330e-01
  3.4439437e-02
 -6.4124040e-02
 -3.4762686e-01
  1.0473774e-02
 -4.9167529e-02
  1.2539173e-02
  1.6304119e-01
 -3.1930059e-02
  1.3302206e-02
 -3.6848716e-02
 -9.7475533e-04
 -3.5173263e-02
 -2.8624585e-01
  8.8997841e-02
  4.8027854e-02
  2.3520088e-01
  7.8819193e-02
 -2.2280946e-01
 -4.3983124e-03
 -1.4979954e-01
  1.0816628e-01
  3.5815973e-02
  3.1335305e-02
 -1.0653049e-01
 -5.6536011e-03
 -1.2016800e-02
 -4.3229951e-04
 -1.2452105e-01
 -5.6759242e-02
  1.5361740e-02
  1.0308507e-01
 -3.2580663e-02
 -6.7405862e-01
 -4.6144776e-02
  4.2257313e-02
  2.7625836e-02
  3.5115100e-02
  1.8513508e-02
 -5.5340219e-02
 -3.8767431e-02
 -4.7741950e-02
  3.8193233e-02
  3.4420755e-02
 -4.5293313e-02
 -3.6630571e-02
  1.6191410e-01
  1.2719833e-03
 -3.0681487e-02
  8.5284989e-03
  1.5121764e-01
 -3.0133046e-02
 -1.4836050e-02
 -1.1292494e-02
  9.1548683e-03
 -6.4104863e-02
  4.2491786e-02
  1.1927377e-02
  5.1575743e-02
 -5.2521117e-02
  1.5462834e-02
 -2.1545909e-02
 -1.5907028e-01
  1.2858841e-02
  1.2241311e-01
  1.1479313e-02
 -1.0579383e-01
  3.9984178e-02
 -3.0525936e-02
  1.3232129e-03
  3.1023340e-02
  9.5886163e-02
 -1.3062817e-01
 -5.6987908e-02
  6.5725677e-02
 -1.4735480e-01
  1.3317844e-01
 -1.3808249e-01
 -5.7600804e-02
  1.8481821e-01
 -7.0247144e-02
  6.5507120e-03
 -1.2442411e-01
  3.2968271e-01
  2.5162805e-02
  1.2278430e-01
  8.3313594e-03
  1.0032563e+00
  1.4291596e-02
 -1.5730109e-02
 -2.4028176e-02
  9.2180140e-02
 -1.2792940e-02
 -1.8384276e-02
 -9.0891503e-02
 -1.3078980e-02
  4.9460854e-02
  5.6775346e-02
  6.6059962e-02
 -2.8442222e-01
  3.2933328e-02
  5.7484973e-02
  2.8661896e-02
 -8.8518582e-02
 -3.5669096e-02
 -3.6852902e-03
 -4.9759943e-02
  2.5332171e-02
  5.5518772e-02
 -8.3126249e-03
 -3.5475917e-02
 -1.8870273e-01
 -1.6449058e-02
 -8.8326946e-02
 -5.0246947e-02
 -3.1162143e-02
 -6.6415723e-03
 -1.9724095e-02
  2.5922719e-02
  9.2143128e-03
 -1.9750694e-02
  9.4789729e-02
 -1.0641143e-01
 -4.5847828e-03
  1.7674850e+00
  1.7297588e-02
 -4.6253506e-02
 -2.1663736e-01
 -4.1797668e-02
  3.4081831e-03
  1.0938939e-02
  3.5580020e-02
  4.2164661e-02
  8.4889650e-02
 -5.6575038e-03
  1.1560745e-01
  1.0991178e-02
  9.4328634e-02
 -1.0930102e-01
 -3.2918304e-02
 -4.3687487e+00
 -7.5238448e-01
  3.1514068e+00
 -1.1108501e+00
  3.5634342e-01
  1.3395920e-01
 -8.9111120e-01
 -3.1027687e+00
 -1.3704976e+00
 -4.2761835e-01
 -1.6522717e-01
  2.7557185e-01
 -1.9393219e+00
  5.2443027e-01
 -1.4096677e-01
  3.4586033e-01
  2.8978372e-01
 -7.8000474e-01
  6.3181303e-02
  1.7436847e-01
  2.8191982e-02
 -5.6693655e-01
  6.8929866e-02
  1.0339321e+00
 -4.4720218e-01
 -1.5571150e-03
 -2.1620612e-01
 -2.8897613e-01
 -5.1441962e-01
  2.3704691e-02
 -3.2815915e-01
  1.3342251e+00
  4.2393562e-01
 -2.1104528e-01
  4.6551540e-01
 -6.5673485e-02
  3.5156772e-01
 -6.1872252e-03
 -2.9320824e-03
 -5.4269516e-01
  7.0547634e-01
  4.9803251e-01
 -1.3022356e+00
 -8.3549172e-03
 -4.5126548e-01
  7.1439400e-02
 -3.0644271e-01
 -3.6996771e-02
 -7.5283828e-03
 -5.4207906e-02
 -6.0155813e-02
 -9.4610900e-03
  9.1515735e-02
 -1.0222867e-01
 -9.9409573e-02
  8.9274490e-01
  1.2298395e-01
 -2.4717513e-01
 -2.9522365e-02
  1.2846060e-01
  9.1725579e-03
 -2.2794858e-02
 -4.3607447e-02
 -1.0360552e-02
  2.4194068e-01
  2.2963250e-02
 -5.4991797e-02
 -1.6243707e-02
 -6.9965586e-02
  4.5097861e-01
  1.2145837e-02
 -1.0207637e-01
  1.8523988e-01
 -9.8126173e-02
 -9.7653300e-02
 -3.4311328e-02
  6.1396264e-02
 -9.4272815e-02
 -9.7409645e-03
 -1.7760374e-01
  6.7316718e-02
 -3.6684055e-02
  1.2579621e-03
  1.9667248e-01
 -3.3934433e-02
 -5.8838199e-03
 -1.1863487e-03
 -5.7128772e-02
 -1.4697090e-01
 -1.6354412e-01
 -2.0370610e-02
 -1.2875839e-02
 -1.5662028e-01
 -1.7662574e-02
 -3.3037692e-02
  2.1051204e-01
  3.8190808e-02
  4.9197894e-02
 -1.8128419e-01
  2.4144105e-03
  1.7867759e-03
  1.9250718e-03
 -5.8747750e-02
 -1.7200546e-01
  6.5970803e-03
 -2.7541215e-02
 -1.3560396e-01
 -7.9702782e-03
  2.1739390e+00
 -2.1449506e+00
  1.7767690e+00
 -2.2222557e+00
  7.8846693e-01
 -2.5717111e+00
  1.8528003e+00
  2.3123806e+00
 -7.6080763e-01
  5.3118329e-02
  5.1477488e-02
 -6.9515347e-01
  3.7836928e-02
  4.7554228e-02
 -1.9225951e+00
 -7.4627441e-01
 -6.7098773e-01
  3.8974271e+00
 -3.1161487e-01
  2.0532051e-01
 -1.6036241e-01
 -2.2110565e-02
  1.8979566e-01
 -1.3932177e-01
  5.5485600e-01
  3.5602763e-01
  1.6336897e-01
  1.2585387e-02
  3.2896038e-02
 -2.6928766e-02
 -2.0630507e-02
  2.5218615e-01
  2.1924396e-01
 -7.9078364e-01
 -3.6887670e-01
  1.4843112e-01
 -4.8383586e-02
  1.5127327e-02
 -1.0561679e-01
  1.0176168e-01
 -2.5995488e-03
 -6.2833488e-01
  1.7611491e-02
  1.8705808e-02
  8.9494693e-01
  2.2684872e-02
  8.8812970e-02
 -9.8192589e-03
 -9.2597511e-03
 -3.5856947e-02
  1.6232073e-02
  4.4368025e-02
  9.1062315e-02
 -4.8059568e-02
  3.3811200e-02
 -2.1318370e-01
 -1.0405990e-01
  4.9872763e-02
  2.3668441e-01
  4.0320583e-02
 -1.9269742e-02
  3.1736001e-02
  6.8520799e-02
 -5.9673652e-02
  3.5674442e-02
  5.0400663e-02
  7.8566670e-02
  5.2418280e-02
  6.5541036e-02
  1.8083010e-02
  4.4837628e-02
 -1.0587090e-01
 -5.8532297e-03
  2.0420223e-02
  5.4121695e-02
 -9.0891622e-02
  1.0896964e-01
 -1.0883542e-02
  8.1025921e-02
  7.8934655e-03
  1.2910211e-01
 -1.3159922e-02
  8.8852026e-02
 -7.6605089e-02
  8.4957498e-04
 -3.0471312e-02
 -7.1289137e-02
  1.5035671e-01
  6.2454697e-02
  4.4810627e-02
 -1.0197476e-01
  2.6407113e-02
 -3.3926528e-02
  7.6666228e-02
  3.0260198e-02
 -2.0664800e-02
  2.5298437e-02
  2.6231779e-02
 -5.1580206e-02
 -1.7270021e-02
 -3.6811281e-02
 -1.1389741e-02
 -1.7031923e-02
  9.1632299e-02
  4.5163095e-02
  2.8913379e-02
 -2.9657772e-02
  1.7672743e-01
  2.8226030e-01
 -6.2877017e-01
  5.3570759e-01
  1.0044878e+00
  1.3407564e-01
 -1.3746929e-01
 -3.7063938e-01
  2.4478078e-01
  8.7999096e-03
 -2.4494417e-02
 -1.0283707e-01
 -1.9727477e-01
 -1.5203606e-02
 -1.9678687e-01
 -2.5187053e-02
  5.8047343e-02
  3.9541278e-02
 -1.5356095e-01
 -3.4111291e-02
 -2.5208663e-02
 -2.2486247e-02
  1.8541151e-01
 -7.5433113e-02
 -2.6901344e-02
  2.7012607e-02
 -2.7996592e-02
  1.9908366e-01
  2.9377742e-02
  3.9249029e-02
 -3.3255836e-01
 -1.9263623e-02
 -5.0032521e-03
  1.3278957e-01
 -2.1328757e-02
 -1.4432082e-01
 -1.4317732e-02
 -1.6566148e-01
 -9.0758391e-02
 -4.0917639e-03
  1.8096583e-02
 -2.1397644e-01
 -1.0809355e-02
 -1.0625444e-01
  2.2851752e-02
 -1.1002002e-01
 -1.4972091e-02
  2.2107802e-01
  4.7699582e-02
 -4.0830050e-02
  8.0356039e-02
 -8.9380061e-03
 -1.0993744e-02
 -3.2787584e-02
 -5.0577059e-02
 -8.0252819e-02
 -1.5587061e-02
 -1.2700076e-01
  3.7497684e-01
 -5.4974306e-02
  5.4131884e-02
 -1.8492159e-02
 -4.2350434e-02
  1.0396207e-01
 -1.3734585e-02
  4.9757440e-02
  3.5481445e-02
 -2.8168181e-02
 -4.7401316e-02
  3.9764009e-03
  1.1064597e+00
  4.1114200e-02
 -1.9773038e-02
  2.9958813e-02
  2.4358593e-02
  9.0381742e-02
  1.0090445e-02
 -7.3555827e-02
  2.0881312e-01
  8.5547358e-02
  1.0211635e-01
  1.2460778e-01
 -8.6906344e-02
 -5.4014787e-02
  6.7694947e-02
  1.0689539e-01
  8.1177816e-02
  9.6647598e-02
  4.7017548e-02
  5.3940527e-02
  3.9666321e-02
  5.5355821e-02
  2.8976256e-02
 -7.7632349e-03
  2.4638658e-02
 -3.8332485e-03
 -4.2548474e-02
 -2.2541578e-03
 -2.5093354e-02
  2.0350663e-02
 -2.6579533e-02
  1.8860109e-02
  7.6677967e-03
 -1.0369688e-01
 -1.6412225e-01
  1.0258196e-01
 -1.4231798e-01
 -1.7790312e-02
  3.8739134e-02
  1.0834923e+00
  1.8426181e+00
 -2.0589527e-01
  5.6530964e-01
  4.0386769e-01
 -1.4349936e+00
  1.1219087e+00
  2.1619890e+00
 -5.3073145e-03
  6.4713888e-02
  1.5837957e-01
  7.0051759e-01
  4.4599482e-01
  6.9342032e-02
 -6.2688476e-01
 -2.9391127e-02
 -6.0286778e-03
 -1.5845792e+00
 -1.1346728e-01
  1.6101560e-02
  1.6117657e-02
  5.2165133e-01
  9.4923802e-02
  7.8791910e-01
  1.5552241e-01
  2.7458170e-02
  2.2240898e-01
 -3.8039607e-01
  4.5094693e-01
  9.2934126e-01
 -1.9630956e-02
 -6.3117415e-02
 -1.1305884e+00
 -5.6025170e-02
 -4.6789244e-01
 -3.3771247e-01
  2.8888594e-02
  3.6532450e-03
 -7.1374595e-02
 -4.5744468e-02
  2.2194190e-02
  8.7351143e-01
 -1.2366590e-01
 -1.4853151e-01
  8.0239274e-02
  4.3348420e-02
  4.5084571e-03
 -5.4274295e-02
 -4.1345455e-02
  6.9646038e-02
 -1.6160160e-01
  2.8311126e-02
 -4.3112319e-02
 -1.1598501e-01
  2.5849640e-01
  4.4108858e+00
  8.7048793e-01
 -1.5393968e-01
  2.2442290e-01
  1.1937638e-01
  2.4745266e-01
 -2.0016779e-01
 -7.7687860e-01
 -4.6875561e-03
 -3.4979549e-01
 -2.0255618e-02
  5.4520767e-02
  1.0216481e-02
 -9.0454318e-02
 -7.7220374e-03
 -5.2124739e-02
  1.2892771e+00
 -8.2910195e-02
  1.0432541e-02
 -7.9853544e-03
  7.8171579e-04
 -1.3303757e-02
 -7.5678743e-02
  4.7233183e-02
  1.6262006e-02
 -6.9482408e-02
  6.0577873e-02
  8.1569135e-02
 -5.3243034e-02
  1.5082730e-02
 -2.0275928e-02
  8.8570733e-03
 -1.5780120e-01
 -5.4517869e-02
 -7.0676282e-02
 -3.3694479e-01
 -1.9936923e-02
 -1.5206410e-01
  2.0554831e-02
 -2.7877806e-02
 -1.0442139e+00
 -1.3578235e-02
 -5.2945118e-02
  2.0979131e-02
 -3.0618286e-02
 -5.2129004e-02
 -4.6868987e-02
  2.7578060e-02
  3.8794246e-02
  5.0382495e-02
  1.3376052e-02
  1.6220190e-02
  9.8811939e-02
  4.5191113e-02
  2.6044270e-01
  6.4067487e-03
 -6.5296842e-03
  4.5300680e-03
  1.3500631e-02
 -1.5153554e-01
  5.8538053e-02
 -5.8697689e-02
 -1.7542288e-02
  5.1228050e-02
 -2.1063564e-02
  8.1450447e-02
 -1.8654941e-01
  5.7245199e-02
 -5.0538972e-02
  1.1075942e-01
 -2.3775277e-01
 -2.6815999e-02
 -4.7706019e-02
 -1.5188518e-01
  3.7008837e-02
  1.4228573e-01
  8.9695841e-02
  1.2350905e-02
  6.2569510e-04
  2.1539260e-02
 -1.4199831e-01
 -1.1808944e-01
 -4.6720162e-02
  1.4852963e-02
  1.3669848e-01
 -6.2393852e-02
  5.8595829e-02
  7.6734684e-02
 -1.8502140e-02
 -5.5258889e-03
 -6.5333828e-02
  7.6087780e-02
 -1.0580429e-01
  1.9934572e-02
  8.2494144e-04
  4.2352263e-02
  1.4420928e-01
  1.4466701e-02
  2.1563517e-03
  2.4902316e-02
 -1.1167821e-01
 -2.3676503e-02
  5.3405970e-01
  3.7080362e-02
  3.5135187e-02
 -8.0525845e-02
  1.5220062e-01
  2.4529351e-01
 -4.5009381e-01
 -1.5146375e-01
  6.3940471e-01
 -7.5017318e-02
  1.8422432e-02
 -2.4568343e-01
 -7.8741461e-05
  5.4285321e-02
 -2.4649132e-02
  4.7534939e-02
  2.4068169e-02
  1.3341503e-01
  1.3158479e-02
 -1.2559146e-01
 -6.7317329e-02
 -7.3731840e-03
 -1.0419698e-02
 -3.1761933e-02
 -1.1785112e-01
 -8.1501424e-02
  9.1486841e-02
  5.4578572e-03
 -1.8648278e-02
 -7.9185097e-03
  1.3163541e-01
 -1.6273187e-02
 -6.4371176e-02
 -9.8241627e-02
  1.6838033e-02
 -2.3136957e-02
  4.9140800e-02
  1.5122338e-01
 -2.3165450e-02
 -1.1885719e-02
  4.4948232e-04
 -2.5597885e-01
 -5.4520838e-02
  3.5905745e-02
  2.5802737e-02
  2.8683720e-02
 -1.0044762e-01
 -4.8128214e-02
 -6.1928611e-03
  6.8024844e-02
  3.9060038e-02
  7.6075876e-03
  1.0645888e-02
  3.5694636e-02
  2.4947219e-02
 -9.4084599e-04
  2.0601286e-02
  1.2416138e-01
 -1.7412424e-01
  3.1250671e-01
 -1.1378074e+00
 -1.5412525e+00
  1.5341361e+00
 -6.0198903e-03
 -3.0432766e-02
  1.2783136e+00
 -1.6573906e-02
 -4.4015668e-02
 -5.8537092e-02
 -5.6317661e-02
  6.1326113e-02
 -3.1317905e-02
 -9.6842311e-02
 -7.5382769e-02
  2.3394051e-01
 -7.0529923e-02
  1.3300175e-02
  8.7234274e-02
 -7.7859670e-02
  1.4159528e-02
  4.4236472e-03
  1.1492601e-02
  1.0640800e-02
  4.4675060e-02
  5.5441700e-02
  1.4897285e-02
  3.3803955e-02
  1.0608281e-02
  2.3168658e-01
  3.4490764e-02
  2.5343724e-02
 -6.0757026e-02
 -1.0668101e-02
  1.3869940e+00
  1.9133296e-02
 -1.2667300e-02
 -1.1914995e-01
 -3.3949617e-02
 -8.0302414e-03
 -6.3469824e-03
  4.0990777e-02
 -2.8231511e-02
  1.2010905e-02
 -8.0829747e-03
 -1.3455895e-02
  1.8256814e-03
 -2.3964301e-02
  1.5362082e-02
 -1.1627609e-03
  1.0446022e-01
 -3.1308584e-02
  4.1960917e-02
  7.3322840e-03
  8.2854047e-02
  6.8371249e-03
  2.0703627e-04
 -3.9689643e-03
  8.7741548e-03
 -8.1201091e-02
 -2.8937645e-02
  4.3461163e-02
  2.7760461e-02
  2.5254389e-02
  6.0749866e-02
 -3.3536982e-03
 -2.3680937e-02
 -1.6013639e-02
  4.4609290e-03
  2.1233294e-02
 -4.0213395e-02
  1.0533249e-01
  8.3068490e-02
  1.7621117e-02
 -4.4174962e-02
 -1.8383867e+00
  1.7836044e-02
 -9.2871385e-03
  2.7004969e-01
  1.7858956e-02
  3.8033977e-02
 -2.1620376e-01
 -1.6546331e-03
  1.9094995e-01
  1.5478266e-02
 -4.6809688e-03
  1.5874403e-03
  2.4832903e-01
 -2.0750094e-02
 -3.6625717e-02
 -1.8706542e-02
 -1.1048416e-01
  1.0151912e-01
 -8.7729711e-03
 -8.9445047e-02
  3.2169029e-02
  4.8267597e-04
 -7.9545967e-02
  7.6426730e-02
 -1.0008905e-01
 -7.5279690e-02
 -6.8065017e-03
 -3.7817705e-02
  3.2383323e-02
 -7.0330486e-02
  5.5186160e-02
  4.6046060e-03
 -1.3280166e-02
 -1.0038488e-01
 -3.4157059e-01
  6.3000629e-03
  7.4658401e-02
  8.2254959e-03
  9.6210778e-02
 -1.5884969e-02
 -1.1278907e-02
  5.5168465e-02
 -1.6197839e-01
 -2.7501060e-02
 -5.2281089e-02
 -4.8633710e-02
 -4.7143500e-02
 -4.0295880e-02
  3.4527972e-02
  2.6050152e-02
 -4.6353761e-02
  3.5390563e-02
  5.7113659e-01
  4.5628652e-02
  1.0406340e-02
  7.2395481e-02
  1.1717269e-01
 -6.6888794e-02
 -3.4675617e-02
 -1.8702501e-02
 -1.2595924e-02
  1.6551822e-02
 -2.1466318e-01
  2.9092707e-02
 -3.0502224e-01
  8.7992579e-02
 -5.5704545e-04
 -2.9014692e-02
  5.2143555e-02
  1.1698898e-03
  1.8987080e-01
  1.2633755e-02
 -3.5232328e-02
  4.5061477e-02
  1.3732788e-01
  1.5424764e-01
  2.1147470e-01
  8.1830854e-03
 -3.0284595e-02
 -2.6628824e-02
  7.2276257e-02
 -2.3278506e-02
 -1.6156554e-01
 -3.8908853e-03
  6.0573425e-02
 -1.8518752e-01
 -9.4292708e-02
 -1.1261594e-01
  1.7420326e+00
 -6.6333219e-02
 -3.0339276e-02
 -1.3434645e-02
 -6.8013780e-03
 -1.2609184e-02
  7.8355290e-02
 -3.4553733e-02
 -1.1078521e-02
  6.2162494e-03
 -4.6789777e-03
 -8.6526899e-03
 -1.0366707e-01
  2.9271007e-02
  7.3980749e-02
 -6.5130815e-02
 -7.8201592e-02
 -6.8368040e-02
  5.1108543e-03
  1.4309700e-03
  6.3872873e-03
  1.1779651e-02
 -2.9585641e-02
 -2.1083365e-01
 -3.5631314e-02
 -1.8804649e-01
 -1.4550911e-02
  3.5748594e-02
 -1.7154843e-02
 -2.8212361e-02
 -4.2202823e-02
 -1.5755752e-02
  1.6390007e-02
 -2.2562351e-02
  1.4240628e-01
 -2.6682834e-03
  1.8763460e-02
  5.0703995e-05
  1.6158576e-01
 -3.1269070e-02
 -1.8540299e-02
 -5.7910860e-02
 -6.7864493e-02
 -3.3018105e-02
 -2.3567379e-02
 -2.0700911e-01
 -8.6034700e-02
 -5.1033001e-02
 -3.0080212e-02
 -2.3863696e-02
  5.9343539e-03
  1.3415496e-01
  1.0868192e-01
 -1.7667608e+00
 -4.0310774e+00
  3.8655384e+00
  7.0233309e-01
 -2.2449579e+00
 -3.4564492e-01
  6.4321673e-01
  2.9931420e-01
  4.5889109e-02
 -2.8307246e-02
 -2.1897135e-02
  8.7522147e-03
  9.6001111e-02
  1.3456357e-01
  8.3131060e-02
  2.9679650e-02
  6.2361527e-03
  4.0121417e-02
 -4.0369187e-02
  2.1881223e-02
  1.8262978e-01
  2.1119073e-03
 -6.0252260e-02
  1.5596899e-01
 -7.7858850e-02
  7.0360339e-01
 -3.0220827e-01
 -1.4087071e-01
  5.4497546e-01
  1.9614357e-01
  6.2827818e-02
  1.0056876e-01
 -3.1176167e-02
  8.3942205e-02
  1.6626385e-01
  1.3949311e-01
 -2.9827427e-02
  8.0795549e-02
  3.7156492e-01
 -1.8112138e-02
  8.0576744e-03
 -1.0047755e-01
  4.2769611e-03
  3.4112912e-02
  4.3086268e-02
  1.9325167e-02
  8.5027084e-02
 -1.1987519e-01
  9.5332891e-02
 -7.3300950e-02
  4.9699180e-02
  4.1085117e-02
  8.2562141e-02
  1.6614199e-02
 -2.6015038e-02
  1.4331315e+00
 -1.1821254e+00
 -8.0784112e-01
  3.3127594e-01
  1.7457333e-01
 -8.1205973e-04
  1.3626480e-01
 -4.1058592e-02
 -1.2020364e-01
 -3.5949890e-02
  9.6105605e-02
 -4.7008965e-02
 -2.4619510e-03
  7.2707541e-02
  7.4883401e-02
  4.1539583e-02
  2.3133984e-02
 -4.4406753e-02
 -2.1575104e-02
  7.3344037e-02
  4.1848058e-03
  1.1597730e-02
 -8.7822620e-03
  9.2829309e-02
  1.5366476e-02
 -5.3969629e-02
  9.1523051e-02
  4.0783122e-01
 -5.4766741e-03
 -3.9035585e-02
 -4.7252163e-02
 -1.9557766e+00
  3.3029947e-02
  7.0821733e-04
  4.9810395e-01
 -1.3279825e-02
  1.4147609e-01
  4.6335328e-02
 -1.4687933e-01
  8.2129784e-02
  4.3024402e-02
 -4.8036046e-02
 -4.5018908e-02
  2.2138644e-02
  4.3470699e-02
 -5.0030407e-03
  2.5727924e-02
  2.9483384e-02
 -5.7307868e-03
  7.0400918e-03
 -1.6827330e-01
 -8.6428061e-02
 -4.1822591e-03
  2.8031972e-01
 -4.0071794e-01
 -2.9315088e-02
  4.3177441e-02
  1.3644812e-01
  2.2447777e+00
 -1.6236797e-01
 -8.5654795e-02
 -2.1060586e+00
  2.3104155e+00
  2.9489268e-02
  6.8785131e-02
  8.4272372e-03
  6.9309555e-02
 -3.0279881e-01
 -1.0825083e-01
 -5.3715080e-02
 -1.4759304e-01
  1.0525888e-02
 -9.3634136e-04
  2.8617848e-02
  4.1867571e-04
 -1.1532765e-01
  3.5227381e-02
 -1.2714896e-01
  3.7575964e-02
  9.2168748e-02
  9.0522148e-02
  1.2514724e-01
  6.6784360e-02
  1.1974323e-02
  9.2552431e-02
  2.1216853e-03
 -7.3117562e-02
 -2.5069636e-01
  5.3531043e-02
 -9.3483767e-03
  4.4043869e-02
  7.6284304e-02
  2.2341913e-02
 -5.5459835e-02
 -2.2329549e-01
 -1.8851477e-01
  6.3689300e-03
 -6.0258780e-02
  1.0129459e-01
  3.2580391e-02
  3.3189688e-02
  4.6869647e-02
  1.2623843e-02
 -9.9708494e-03
  1.1464350e-02
 -1.3667475e-01
 -6.1009746e-02
 -8.5051037e-02
  2.7093906e+00
  6.5951742e-02
 -3.3091187e-02
 -3.1232962e-02
 -7.6626305e-04
  1.5395928e-02
 -6.9503278e-02
 -1.9350747e-02
  3.3519328e-02
 -2.0585965e-02
 -4.8133601e-02
  4.2034514e-02
 -1.2920837e-01
 -1.6732210e-02
  3.8787924e-02
  1.9514624e-02
 -1.4337146e-01
  2.0317039e-01
 -1.0238688e-02
 -4.3326359e-02
 -2.3175456e-02
 -1.9904334e-02
  3.8094230e-02
  1.0803813e-01
 -5.2637957e-02
  5.3156670e-02
  3.1596825e-02
 -1.9179020e-02
 -9.4178781e-02
 -2.1919375e-02
  2.1301312e-03
  9.2605226e-02
 -2.3332847e-02
  3.0893192e-02
  1.2470695e-01
 -1.1726071e-02
  3.7051607e-03
 -1.5956770e-01
 -9.8421641e-02
 -1.8565401e-03
 -1.1718674e-02
 -1.7373366e-03
 -3.0694190e-02
  1.3519061e-01
  4.7127549e-03
  4.1485257e-02
  3.7505295e-02
 -6.9959313e-02
 -2.6773298e-02
 -9.5540136e-03
  6.5573774e-02
  1.5306512e-03
  1.6558984e-02
  1.5021193e-01
 -3.5844233e+00
 -3.9861786e-01
 -2.5632024e-01
 -3.5338369e-01
  5.9820157e-03
  9.3109119e-01
  2.7358087e-03
 -2.1191642e-01
 -2.7735096e-01
 -1.6140223e-02
  1.2388574e-02
  1.6587536e-01
  1.9278295e-02
 -9.7538954e-01
 -2.5081754e-01
 -3.7115581e-02
  1.9057846e-01
 -3.0257318e-02
  1.2462060e-01
 -6.4076707e-02
  8.5686594e-03
 -5.1798526e-02
  5.2987263e-02
 -4.9391396e-02
 -1.0165340e-02
  1.9007726e-01
  4.3326579e-03
  4.4067027e-03
 -1.0623418e-02
 -2.9486762e-02
  7.1418351e-03
  1.0463826e-01
 -2.6118895e-02
  5.8561865e-02
  1.3904296e-01
  2.4892572e-02
  2.0892346e-02
 -1.2395606e-02
  3.2202255e-02
  9.8792538e-02
  1.6697174e-01
  2.0401224e-02
  9.6940640e-03
  1.5833756e-02
  1.8374814e-02
  1.5121210e-01
  2.4385400e-02
 -9.6550621e-02
  3.1122435e-02
  9.0337925e-02
 -2.8369948e-02
  3.3056453e-02
 -5.7889376e-02
 -3.6462364e+00
 -9.9304706e-01
  2.5505254e+00
  1.2297295e-01
 -3.3942182e-02
 -4.8259710e-04
 -2.2449225e-01
 -3.0778348e+00
 -7.6949257e-01
  3.6153281e-01
  1.1270496e+00
 -1.0182577e-01
  3.9364788e-01
  7.5019485e-01
  7.1472026e-02
 -6.5666759e-01
 -2.7219743e-01
 -4.5135375e-02
 -2.3004923e-02
  2.9073769e-02
 -7.6902397e-03
 -1.0734411e-01
  8.0842113e-01
 -2.9518336e-01
 -3.2194242e-02
 -7.6496964e-03
  3.1385851e-01
 -2.3455706e-03
  3.9208466e-01
 -3.7718162e-02
  1.4528221e-01
  5.1021755e-01
 -2.0307130e-01
 -1.0400144e-02
  1.1073726e-01
  1.0975322e-02
  8.9805946e-03
  2.4636064e-01
  1.1469326e-01
 -3.6988366e-02
  8.2663648e-02
 -3.2335125e-02
  3.1652596e-02
  2.9255873e-01
  4.6673602e-01
  6.4865775e-02
 -8.8379625e-03
  2.3408610e-02
 -1.2068701e-01
 -3.3806807e-01
  3.8148570e-01
  7.5429119e-03
 -7.5761966e-02
  9.8591531e-03
  1.1952187e-01
 -1.3649701e-02
  4.7881044e-02
  1.4785162e-02
 -4.1338276e-02
 -1.1315785e-01
 -1.6996864e-02
 -2.4830466e-02
 -2.7858319e-02
 -7.7310279e-02
  3.4952038e-03
 -1.4621194e-02
  2.5321361e-02
  9.9833965e-02
 -1.0745449e-02
 -1.4387818e-02
  1.1173846e-02
  1.9593539e-02
  7.2587118e-02
 -9.5526420e-04
 -2.9090513e-03
  3.7070677e-02
 -9.0146750e-02
  1.1914327e-01
 -1.2686300e-01
 -7.1483878e-03
 -1.5447077e-01
  4.3583661e-02
  4.4075601e-02
 -4.7035206e-02
 -9.2468426e-02
  2.3618918e-02
  1.8639164e-02
 -1.3711223e-01
  4.5563132e-02
  7.9353135e-03
 -9.0742275e-02
  4.0347375e-02
 -3.5786036e-02
 -1.9072156e-02
 -1.0099480e-01
 -9.8200858e-02
 -1.2379467e-02
  1.0084901e-01
  3.8581029e-02
 -7.6186717e-02
 -2.0708304e-02
 -1.5545129e-02
  1.1410910e-02
 -2.3021413e-02
 -6.1974052e-02
  4.3114908e-02
 -2.5553564e-03
 -4.6452358e-02
 -6.6414572e-02
  6.1621573e-02
  3.2298291e-01
  5.8914351e-01
  2.6762778e-01
 -3.7602308e-01
 -3.1485006e-02
  1.1079891e-01
 -9.2827553e-01
  1.2992771e-01
 -1.0161599e-01
 -5.4720105e-03
 -9.3831979e-02
 -2.8860363e-01
  4.5948851e-01
  5.5012852e-02
 -8.7124035e-02
 -1.7295137e-01
  4.5771012e-01
  1.3820080e-02
 -6.5243885e-02
  1.7099379e-02
 -7.0898205e-01
  7.5493388e-02
 -1.5371155e-02
 -3.2981181e-01
  5.8380865e-02
 -3.7941351e-03
 -3.3733568e-01
  2.2644694e-03
 -2.6705440e-02
 -1.0672078e-01
 -2.3896861e-01
  1.1971785e-01
 -4.2598940e-02
 -1.2737070e-01
  2.1474351e-01
 -1.6487716e-01
 -3.7199210e-02
  3.5923161e-02
 -4.7741070e-01
  2.7158028e-01
 -9.0439051e-02
 -2.2208989e-01
 -1.8266490e-01
  4.4768319e-02
 -1.1262723e-01
  5.8860518e-02
  4.5162928e-03
 -1.9602215e-02
  1.5028903e-01
 -9.0561500e-03
  4.7900397e-02
 -4.2967822e-02
 -1.3802998e-01
 -2.7311742e+00
  2.8523858e+00
 -1.4033037e+00
 -4.9086895e+00
  4.8738435e-01
  2.0224692e-01
 -1.3809980e+00
  2.1678684e+00
 -2.9106158e-01
  2.5655290e-01
 -3.3037817e-01
  6.7124926e-02
 -3.4413920e-03
  4.2681303e-02
  4.8553374e-02
  4.2916398e-02
  1.4190729e+00
 -1.6655868e-01
  2.2923507e-01
  8.8013053e-02
 -1.6811138e-02
  7.0410520e-02
 -5.3486556e-02
 -1.5508885e-02
  5.7419699e-02
 -1.2105103e-01
 -1.8637782e-04
  1.0797054e-01
 -1.6005528e-01
 -1.0756516e-01
  2.1908332e-02
  1.9456223e-02
 -1.9348978e-01
  5.5729868e-03
  1.2154179e-02
 -2.8521928e-01
  1.4094703e-01
  1.2550820e-01
 -1.7627768e-02
 -9.6385919e-02
  2.7530342e-02
 -1.8455971e-02
 -9.5054649e-02
  5.7503302e-02
 -6.2971145e-02
  3.5737120e-02
  3.0606311e-02
 -2.5416680e-02
 -5.9316256e-03
  5.6741789e-02
  1.5057558e-03
 -3.7372842e-02
 -4.7669774e-03
  1.2743221e-01
  8.4388155e-01
  2.3254325e+00
 -1.0197246e+00
 -2.9143853e-02
 -1.8311424e-02
 -1.1325299e-01
 -1.6444276e-01
 -1.6273841e-01
  1.9388709e-02
 -1.3142268e-01
 -5.5674642e-02
 -2.8597265e-02
  1.5148830e-01
 -7.3817059e-02
 -8.0240577e-02
 -9.2592262e-02
 -2.2060752e-02
  5.6196690e-02
 -4.0738273e-02
  2.9751740e-02
 -6.3171074e-02
 -3.0432830e-03
  3.3542354e-02
 -9.8592572e-02
 -1.6390977e-02
 -6.9068037e-02
  8.1801666e-03
 -2.7114814e-03
 -3.2532483e-02
 -3.2976784e-02
 -6.5896705e-02
 -2.5687099e-01
  9.6892864e-02
 -6.0977653e-02
 -1.0555393e-01
 -6.6369154e-02
 -1.5323777e-02
 -2.8050313e-02
 -1.6822367e-03
 -5.9356899e-03
 -3.7008088e-02
 -6.7328215e-02
  9.1309398e-03
  1.1387750e-01
 -2.9523890e-02
 -5.8000691e-02
  2.0008063e-02
  5.0535105e-02
  4.1811958e-02
 -2.9868335e-02
  3.0597193e-02
 -1.3840279e-01
 -3.0848313e-02
  3.9081037e-02
  1.8698280e+00
  3.5108965e-02
 -2.4829870e-03
  3.5909482e-04
  5.1213577e-03
  2.5836093e-02
 -2.7870513e-02
  6.8895496e-02
 -4.7467377e-02
 -8.5603125e-02
 -3.7248973e-02
 -1.5747752e-02
  1.0781419e-02
  7.1538119e-03
 -7.5716905e-02
  1.3991626e-01
 -1.2816694e-01
  3.0552255e-02
  1.3853259e-01
  2.4646139e-01
  7.7070400e-02
  1.0456172e-01
 -2.9748025e+00
  3.2699980e-02
  1.4465486e-02
  7.2113532e-01
 -1.3355267e-01
 -1.2903851e-02
  4.6637964e-02
  2.0619449e-01
  9.7414240e-02
  7.1273223e-02
 -6.5325297e-02
 -3.1161413e-02
  6.4923251e-03
  1.0509084e-02
  3.1317003e-02
 -1.1183393e-01
 -1.2517341e-02
  5.2680396e-02
  8.1752189e-02
  4.8107632e-02
 -4.7370819e-03
 -3.7194721e-02
 -2.9868476e-02
 -7.5816676e-02
  4.6132378e-02
  1.7492458e-01
  9.1324307e-02
 -1.6164286e-01
 -8.8189453e-02
 -1.0493625e-01
 -3.1978154e-01
 -3.3035508e-01
 -3.8863540e-01
  6.9988650e-01
 -8.0565953e-01
  4.9860325e-01
  1.9879836e-01
 -6.2514728e-01
  1.0057448e+00
 -4.2830215e+00
  1.5238959e-01
  7.3639899e-02
 -3.4351600e-04
  4.5994356e-01
 -1.0589085e-01
 -1.4340810e-01
  3.6577579e-01
 -1.3359694e-01
 -4.8180199e-01
 -5.2717794e-02
  7.2502531e-02
 -2.7852541e-01
  6.1159551e-02
 -3.7323594e-02
 -3.4415526e-03
 -2.5334278e-01
 -6.2570968e-03
 -4.9126419e-01
  6.9677711e-02
  1.1711480e-01
  2.7685729e-01
  8.3930090e-02
 -2.4101779e-02
  3.2211080e-02
  9.9667415e-02
 -9.1391452e-02
  3.0998861e-02
  1.8639942e-01
 -8.6340969e-03
 -4.0114161e-02
  6.8704702e-02
 -8.7671116e-02
 -1.8969807e-01
 -8.7517954e-02
 -6.0068302e-02
 -2.7280682e-01
  4.5022089e-02
  8.7796599e-02
 -1.6134183e-01
 -1.6915675e-02
 -2.0400288e+00
 -6.5489054e-02
 -4.8253205e-02
 -7.6510966e-02
  3.9545879e-02
 -8.1467584e-02
 -2.0846967e-01
  3.0619677e-03
 -2.3266980e-02
  7.1549439e-01
 -1.0282588e-02
 -8.9218006e-02
 -8.6445734e-02
  1.1702934e-02
 -2.2556296e-01
  1.6473553e-01
  5.3991865e-02
 -1.2752037e-01
  1.2135726e-01
 -1.9357762e-01
 -6.5721292e-04
  5.0649971e-02
  8.7002590e-02
 -1.6215493e-01
  3.2637462e-02
  8.3818322e-04
 -1.8109211e-01
  2.1550062e-03
 -1.2629697e-01
  5.5451233e-02
  1.3786939e-02
  2.3201180e-01
 -2.0843346e-02
  1.7683635e-02
 -8.3975092e-02
  8.1656359e-02
  1.0530197e-04
 -9.3741946e-02
  5.6840893e-02
 -2.9846444e-03
  5.7813063e-02
  1.9412166e-02
  9.4352163e-02
  2.4089259e-03
  7.8749113e-02
  2.2930767e-01
 -2.4735940e-01
  8.5356131e-02
 -1.8777445e-02
  1.0238263e-01
  6.7881501e-04
 -1.7066104e-02
 -2.5867289e-02
 -6.2660282e-03
 -6.1659198e-02
  6.7368314e-02
 -5.2477885e-03
 -2.8093054e-03
  9.4397150e-02
  1.9088987e-02
 -9.0898627e-01
 -1.4360597e-02
 -2.1253251e-02
  8.9214884e-02
 -3.0468354e-02
 -2.6138578e-02
  4.7629266e-03
 -7.2202489e-02
 -9.2967592e-02
  1.8254928e-02
 -1.5227400e-03
  4.4393927e-02
  8.4941000e-02
 -4.4113245e-02
 -4.6975110e-02
  2.3135399e-03
 -3.0155834e-03
 -6.7814261e-02
 -2.0386668e-02
  6.1680460e-03
  1.0871133e-01
 -6.5257296e-02
  2.2267545e-02
  1.2450001e-01
  2.9280279e-03
 -2.7332164e-03
  3.5849012e-02
 -4.2709831e-02
  8.1563480e-02
 -1.1366877e-01
  3.3650201e-02
  1.2816198e-01
  1.3140829e-01
  1.3219215e-01
  1.7593004e-02
 -4.0120343e-03
  2.6909405e-02
 -4.8107024e-02
  6.2975466e-02
 -3.0446961e-03
  1.0611728e-01
  5.9129272e-02
 -3.6915466e-02
  6.2162443e-03
 -1.6418986e-02
  6.6951536e-02
 -4.1557852e-02
 -5.6396298e-02
  1.3290748e-01
  1.4879819e-02
 -8.0196094e-03
  6.3563228e-02
  1.8224098e-01
 -2.2748118e-02
  6.3310599e-01
 -6.9161057e-03
 -9.6411109e-02
  6.7112357e-03
 -7.0513293e-02
 -6.9833291e-03
  4.8563629e-02
 -1.3336803e-01
  5.1669676e-02
  2.6214885e-02
  7.3725469e-02
 -3.2169133e-02
  5.1419597e-02
  9.7574055e-02
 -6.4813048e-02
 -3.4206718e-02
 -1.4394754e-01
 -1.9280800e-01
 -1.5129311e-02
 -1.2537107e-02
 -4.7666505e-02
 -3.6521722e-02
 -1.8653486e-04
 -2.5232568e-02
  1.4790836e-02
 -5.3494621e-02
  6.9777877e-03
 -8.4098577e-02
 -2.5301464e-03
 -2.2265321e-02
 -3.0666016e-02
  4.3087918e-02
  1.1200806e-01
  1.0339345e-01
  2.7400732e-02
  3.0073384e-02
  2.7411841e-02
  3.0711178e-02
  8.9543343e-02
  5.8623888e-03
 -9.7826384e-03
  3.4739554e-02
 -2.8068677e-03
 -7.1985163e-02
  2.3653539e-02
 -1.7978834e-01
  1.4818659e-02
 -2.4602363e-02
 -3.1607403e-04
 -3.4979280e-02
 -3.6285777e-02
 -8.9142293e-02
 -4.1844351e-03
  3.9566639e-01
  1.4542679e-01
 -2.3390932e-02
  4.4507951e-01
  2.4093442e-02
  1.6449928e-02
  4.7080282e-02
 -4.7541884e-01
  9.4716780e-02
 -6.3293464e-02
  4.9511429e-02
 -1.3460026e-02
 -1.3568476e-01
 -3.9098229e-02
 -3.4799650e-01
 -3.1831804e-01
  6.9510923e-03
 -1.9046010e-02
  1.0359364e-01
 -3.5981028e-03
 -1.8998653e-01
 -5.0676964e-02
  5.2446717e-01
 -1.1247519e-01
  1.1850706e-01
  8.5497372e-02
 -5.7230419e-03
 -1.2046046e-01
  1.6733281e-01
 -6.2484488e-02
  5.1970303e-02
 -3.5587668e-03
 -1.5390579e-01
 -2.6937528e-02
 -5.3379923e-04
 -1.5888076e-01
  1.4653692e-01
  5.9061512e-02
 -9.9208308e-03
 -1.3018833e-02
  4.3474827e-02
 -6.9646188e-03
  4.9047593e-02
  5.0783232e-02
  4.4547124e-03
 -1.0332322e-02
  9.7522214e-02
  5.6053057e-02
 -2.3198584e-01
 -5.8475021e-02
  1.0004824e-01
  2.0543696e-02
 -6.6395827e-02
 -3.2446139e-02
  9.7655701e-03
  6.1321223e-01
 -7.5073071e-02
 -1.8714873e-02
  2.0573051e-01
 -3.0145550e-02
  5.8233608e-02
  3.0547438e-02
  3.0506350e-02
  2.8916987e-02
 -1.1785774e-01
 -1.2053978e-01
 -7.3549487e-03
 -3.3722684e-02
 -1.6975468e-02
  7.3885716e-02
 -9.1354884e-02
  1.6119909e-01
  3.5980608e-02
 -1.4164161e-02
 -2.6976541e-02
 -6.0546491e-02
  2.9722259e-03
  6.6566966e-03
  3.2454837e-02
 -4.3229528e-02
 -1.9994289e-02
 -6.2861033e-02
  1.3166179e-02
 -2.7850963e-02
 -1.4299475e-01
 -2.8374951e-02
 -3.2221343e-02
  3.9618805e-02
 -1.5460371e-02
 -2.0197477e-02
  7.1762443e-02
  1.9944074e-02
 -8.4113386e-03
  3.2236975e-02
 -2.4581985e-01
 -7.2696999e-02
 -1.0861278e-01
 -1.2342409e-02
 -4.9660582e-02
  2.6025381e-03
 -4.1561574e-03
 -6.6490874e-02
 -3.5611738e-02
 -1.1845207e+00
  6.7204528e-02
 -1.0196868e-02
 -8.0149427e-02
 -1.1608380e-01
  6.4106658e-02
 -1.6560292e-01
 -3.7564773e-02
  3.7417907e-02
 -1.6801929e-02
  7.1127139e-02
  4.5331538e-02
 -2.6493121e-02
  5.6895941e-02
 -3.4994882e-02
  7.9483986e-03
  3.4274258e-02
 -1.2446581e-02
  3.6732133e-02
  3.0588368e-01
  2.8751437e-02
 -1.0169280e-01
 -4.5305889e-02
 -3.7557643e-02
  6.7411125e-02
  1.0334423e-02
  5.8786288e-02
  1.0926875e-02
 -2.1725284e-02
 -3.8237270e-02
 -8.9349523e-02
  6.1915363e-03
  1.6045576e-02
 -5.1744472e-02
 -3.2013811e-02
 -3.5937846e-02
  4.1185659e-03
 -1.6671993e-02
 -4.3463480e-02
 -1.7766252e-01
  9.2758477e-02
  1.5344700e-02
  6.5624714e-03
 -5.4527838e-02
  4.8078276e-02
  1.2657858e-02
 -3.7089877e-02
  1.0930058e-01
  4.7729388e-02
 -7.5731248e-02
  1.1988838e-02
 -1.4980936e-01
 -1.9344008e-02
 -2.0119060e-02
 -9.8415934e-02
  1.9399155e-02
 -1.3788769e-01
 -1.5037300e-02
  1.2493916e-02
  1.3888268e+00
 -2.7632115e+00
 -5.1232362e-01
  2.5978270e-01
  9.2687875e-01
 -1.0536705e+00
  2.8028448e+00
  5.2235198e-01
  2.5639353e-02
 -3.5184309e-02
  5.4430138e-02
  3.8414314e-02
 -1.4603072e-01
  1.2725469e-02
 -1.9808245e+00
 -1.7717642e-01
 -9.2463829e-03
  8.9501250e-01
 -7.3574859e-01
  2.0738142e-02
  5.1520425e-03
 -5.4140100e-03
  5.9676241e-02
 -2.9492113e-01
 -6.9756866e-02
 -2.4887485e-02
 -5.4574364e-01
  3.9291866e-02
  1.3112457e-01
  4.7153048e-04
  9.3839154e-02
 -1.0567693e-03
 -1.4104412e-02
  8.6975396e-03
 -1.7518917e-01
  2.4254424e-02
 -7.7940993e-02
  1.1117874e-01
 -9.7223863e-02
 -2.6086196e-01
 -4.3721098e-02
 -1.4816295e+00
  1.7824420e-01
 -6.3358531e-03
  2.0532855e-01
  7.3454484e-02
  1.1434565e-01
  4.4692617e-02
 -9.8585926e-02
  1.5394188e-01
  5.2731220e-02
 -1.2460118e-01
 -1.2574187e-01
  1.0641000e-01
 -8.6345315e-02
 -2.6910381e+00
  3.1039600e+00
  1.4027761e-02
 -2.1960509e+00
  6.5095085e-01
 -7.7240236e-02
 -2.6117546e-02
  2.4557147e+00
  4.7015160e-02
  1.8028608e-02
 -5.5814397e-02
  2.1482471e-02
 -4.0201563e-02
  1.1458857e-01
  2.0420009e-01
 -2.5161490e-02
  1.9670749e-01
  4.7685308e-03
  1.0609931e-01
  7.6476000e-02
 -1.2313578e-01
  7.5208163e-03
  2.5548412e-02
 -6.6360489e-02
 -2.0590726e-02
 -2.4241464e-01
 -3.9769970e-02
  3.1535906e-01
  1.8141785e-01
 -4.2804316e-02
 -7.9000451e-02
 -9.7531497e-02
 -3.9471630e-02
  6.3835077e-02
 -1.7198098e-01
 -1.9864846e-02
 -1.8881513e-02
  2.8498194e-03
  2.9282993e-02
 -1.3030314e-02
 -3.1819608e-02
  5.0233293e-02
  2.0818305e-01
 -4.6136532e-02
  5.6451652e-02
  2.5110127e-02
  1.5536856e-02
  4.9308576e-03
  8.1569776e-03
  3.7470539e-03
 -4.5803308e-02
  1.1084427e-01
 -6.1894823e-02
 -2.4577592e-01
  3.2754967e-01
 -1.4416785e+00
  1.0405599e-02
 -7.8656040e-02
  6.7858237e-01
  7.0473295e-01
  8.1419295e-01
 -2.1300750e+00
  3.2664750e-02
 -4.7629628e-02
 -1.8708195e-01
  9.3266231e-01
  9.6155412e-02
 -7.7256978e-01
  6.5169424e-01
 -1.5813888e+00
  2.5331528e+00
 -4.5972303e-02
  5.2000321e-02
  2.5751472e-01
  3.5344538e-01
 -5.5353618e-01
  6.8090570e-01
  1.6935514e-02
 -1.9065893e-01
 -1.7049162e-01
 -5.2476924e-02
 -3.3066690e-01
 -5.8633044e-02
  2.5869951e-01
  4.1552659e-02
  1.4527144e-01
  2.1363068e-01
 -1.8130803e-01
  1.2334611e+00
 -6.3989172e-03
  3.2963470e-02
 -1.3166311e-02
  1.8145730e-01
 -4.4029120e-01
  1.6947348e-01
 -9.6058749e-02
  1.0465269e-01
  4.1662510e-02
 -8.0753528e-03
 -3.5959251e-02
 -3.1638943e-02
  1.1228248e-01
  1.7042176e-01
  9.9631870e-07
 -8.8527150e-02
 -8.3039477e-03
 -3.1643964e-02
 -1.0948886e-01
 -8.0973156e-02
  6.8147220e-02
 -2.0333892e-02
  5.1276209e-03
  4.0668990e-02
 -7.3762707e-02
 -5.6758638e-02
 -1.0270065e-02
  1.3048610e-02
 -1.0198182e-01
 -3.3867966e-02
  3.0056842e-02
  2.4858248e-01
  1.6306680e-01
  6.9948792e-02
 -9.4529010e-02
 -1.5511508e-02
  9.5385704e-03
  1.6956065e-02
 -1.2712224e-01
 -3.9716125e-03
  1.1923998e-02
 -5.5610109e-02
  3.3971097e-02
 -6.5259561e-02
  2.0187613e-01
  1.2739104e-01
 -6.4066932e-02
  3.1801820e-02
 -7.0097782e-02
  1.2458210e-01
 -1.4301454e-01
 -4.0017284e-02
 -1.1779534e-01
 -1.3671662e-01
 -1.8883920e-01
  1.0068407e-02
 -1.9284355e-02
 -3.1494632e-02
 -6.4036354e-02
 -1.6699281e-02
  4.1617434e-02
  1.3871229e-02
  7.9292297e-02
 -1.6756698e-02
 -9.5923223e-02
 -1.4710429e-01
  1.0261470e-01
 -5.0117109e-02
 -5.8503412e-02
 -1.8542789e-02
 -1.0363714e-01
 -1.1172424e-01
  2.1285181e+00
  1.4016942e+00
 -2.2598839e+00
  2.2074676e+00
 -2.1659118e-01
 -4.9406753e+00
  2.4485326e+00
  2.3140299e+00
 -6.9985497e-01
  6.9467258e-03
 -6.4951167e-02
 -3.3009484e-01
 -1.0693775e+00
  5.0964882e-03
  1.6978802e-01
 -1.1444453e-02
  1.2700902e-01
 -6.6468889e-01
 -7.6106721e-01
 -1.2956813e-01
 -5.5789024e-02
 -1.9877990e-01
 -3.5143245e-02
  5.8021206e-01
  2.1587465e+00
  1.6543932e-02
  4.1250210e+00
  3.6943235e-02
 -5.1251233e-01
 -2.8292197e-01
  6.4650947e-01
  2.6235675e-02
  3.4516025e-01
 -4.6145627e-01
  7.0274115e-02
 -8.9998245e-02
 -3.7907812e-01
 -2.3912981e-01
 -1.5171111e-01
 -1.6001813e-03
  2.4668990e-02
  1.5533866e-01
  9.8847347e-01
  1.5246547e-02
  2.6069829e+00
 -1.7475058e-01
 -1.1418398e-02
  2.1993259e-02
  4.3367788e-02
 -4.3253604e-02
  7.8412622e-01
  1.8145894e-01
 -2.9665546e-02
  1.5548736e+00
  1.9091588e-02
 -2.1515200e-01
 -1.6191007e+00
  6.9548911e-01
  6.3325560e-01
  1.4325881e-02
  6.1827898e-04
  1.1249312e+00
 -1.1422901e-02
  2.4976083e-03
  1.2550022e-02
  1.1174901e-02
  1.6369352e-02
 -6.4910036e-01
 -3.4994286e-01
 -4.2465194e-03
 -3.5031815e-03
 -7.9071850e-02
 -7.5669415e-02
 -6.2599055e-02
 -3.5286859e-02
  7.7916145e-02
 -7.5279586e-02
 -5.9830528e-02
  6.3051119e-02
  3.8964767e-02
  2.9886378e-02
 -9.0089463e-02
  4.9986452e-02
 -2.1836163e-02
  8.2616411e-02
 -4.7365773e-01
  2.2137423e-01
 -2.9209046e-02
 -6.6045165e-02
  8.0232732e-02
  5.8337180e-03
 -1.5436463e-01
  8.1982818e-03
  1.0900056e-01
 -5.0423998e-01
  2.9850885e-01
 -1.0067888e-01
  4.4615708e-02
 -1.4631617e-01
  8.2213961e-02
 -8.6627565e-02
 -2.7746385e-02
  7.4419901e-03
  2.3284829e-01
  7.6723844e-02
 -3.4753245e-03
  1.9133039e-02
 -1.8257886e-02
  1.3733265e-01
 -1.0956743e+00
  2.5206849e-01
  3.0630052e+00
 -5.6827165e-02
 -8.3697158e-01
  1.7096770e+00
  4.5382133e-01
  1.5545205e+00
  9.6951127e-02
  4.7021502e-01
  3.9683291e-01
  1.0609623e-01
  4.0761225e-02
  1.2127360e-01
 -2.6172507e-01
  2.2873414e-01
  4.1384563e-01
 -6.1452717e-02
  2.0846857e-01
 -2.6993271e-02
 -8.3245635e-03
  2.7240092e-01
 -3.7276348e-01
  2.0407835e-02
  3.9120238e-02
 -6.0777057e-02
 -2.1729560e-01
  3.1517220e-01
 -7.2506756e-02
 -9.3040511e-02
  2.3168739e-02
 -2.0738046e+00
 -1.8250003e-01
 -5.5047851e-02
 -2.0554130e-01
 -6.7619130e-02
  1.2417627e-01
  3.9267205e-03
 -7.7192220e-03
 -6.4219557e-02
 -1.6787234e-01
  2.2677897e-02
  3.5383161e-03
 -9.7962916e-02
 -1.5325478e-02
  6.0535427e-03
  6.8106830e-02
  6.3335866e-02
 -1.7508544e-02
  7.8395149e-03
 -4.2606592e-02
 -1.8913175e+00
  8.3293888e-04
 -1.0770828e+00
  3.4110870e+00
  4.5871568e+00
  2.7266335e-01
 -1.7035470e+00
 -1.7703224e+00
  9.1615982e-02
  5.2805674e-01
 -2.1250367e+00
 -9.2559621e-02
  2.2552432e-03
  9.9656088e-03
 -1.4176204e-02
 -3.4825496e-02
 -2.2392994e-01
  2.6201183e-01
 -1.0766309e-02
 -5.0184882e-01
  4.4631809e-02
 -5.1226906e-02
 -3.0124640e-01
 -6.9307387e-02
 -3.4875937e-02
  2.6604882e-01
 -5.8487582e-01
 -4.1328479e-02
  5.2764155e-02
 -3.8847223e-02
 -1.3699421e-01
 -2.9045844e-01
 -5.4353599e-02
 -6.4977087e-02
  4.4102553e-02
  1.3078579e-01
  2.8015089e-01
  6.8989560e-02
  1.3420734e-02
 -5.8751376e-03
  4.8626106e-02
  6.0285661e-02
 -3.2132685e-02
 -9.2287302e-02
  1.1305314e-01
 -1.5796851e-02
 -1.5114634e+00
  1.1125434e-02
 -1.3243264e-02
 -1.6529674e-02
  6.1863832e-02
 -6.0461191e-03
  4.6318784e-01
 -7.3507927e-02
 -4.1251469e-02
 -5.0563604e-02
  3.6995694e-01
  5.3755655e+00
  3.2025709e+00
 -1.8203780e-03
  8.9340639e-01
  8.8098657e-01
 -2.7293223e-01
 -7.7617345e-03
 -7.5921670e-02
 -3.1921718e-02
  1.3458597e-03
  4.6956319e-02
  8.0242895e-02
  3.4055382e-02
  3.4958792e-01
  3.7894496e-03
  9.3391404e-02
 -2.8336341e-02
  6.7487285e-02
  3.8690452e-02
  1.9167259e-02
 -5.7394233e-02
 -5.6429762e-02
  2.8168708e-01
  9.8594740e-02
  4.9019703e-03
  9.0368211e-01
 -4.6661538e-03
  5.7310119e-02
 -7.2212256e-02
  6.0375459e-02
 -1.5247593e-02
  3.6180291e-01
  4.1882042e-02
  6.6532634e-02
  1.7725696e-01
 -1.5410686e-01
  9.3627587e-02
  3.9892573e-02
  6.2594004e-02
 -6.5034181e-02
  5.1859081e-01
  1.1640047e+00
 -2.7171727e-02
  8.5177556e-02
 -5.9315860e-02
 -1.0007533e-02
  2.3827994e-02
 -1.9623846e-01
  4.1055910e-02
 -1.3638979e-02
 -2.2704970e-02
  3.5646230e-02
 -5.6514148e-02
 -8.6995043e-02
  1.3861883e+00
 -6.7736842e-02
 -1.6769768e-01
 -5.1460247e-02
  1.3065488e-02
 -2.6676748e-02
 -1.4255298e-02
 -3.1714763e-02
 -2.9139293e-02
  1.5482144e-01
  4.0178541e-02
  4.1937631e-02
  5.8916211e-03
  1.4893379e-03
  1.7061582e-02
 -1.3485220e-01
 -8.0225626e-03
 -1.9458834e-02
 -1.0020484e-01
 -1.0369905e-02
  1.6541895e-01
 -2.3046192e-02
 -4.2052907e-03
 -3.4227155e-02
 -3.9121103e-02
  1.1950336e-02
 -1.1634205e-02
 -1.8350704e-01
  3.3132229e-02
  6.2634699e-02
 -9.4354097e-03
  1.3042314e-02
  3.6920162e-04
 -5.3128898e-02
  4.3464083e-02
  2.2193251e-02
 -1.4390938e-01
 -2.7309024e-01
  1.9974072e-01
  2.4895584e-03
  1.1576036e-01
  3.7628151e-02
  1.2186897e-01
 -1.3448092e-01
  2.3733566e-03
  1.4824870e-01
  1.0409965e-02
  1.2299083e-01
  9.0445921e-02
  3.4229435e-02
 -1.0240698e-03
  2.3848938e-02
  1.5898877e-01
  2.7649498e-01
  5.8527260e+00
  1.4511365e+00
 -1.1790632e-01
  7.8090054e-01
  2.2692856e-01
 -1.9341105e-01
 -6.9913729e-03
 -9.5044255e-02
 -4.6729888e-03
  9.6079949e-03
 -3.0202735e-02
  4.8318107e-02
  6.8927067e-04
  3.4368020e-01
  5.4878384e-02
  4.6356972e-02
 -1.5936424e-01
  2.7644681e-02
  8.7755054e-02
 -1.1809850e-02
  7.8945883e-02
 -1.0108825e-02
  6.8893023e-02
  2.0314582e-02
 -4.9400032e-02
  3.0036372e-01
  1.4921933e-01
 -6.8494260e-02
  3.4107402e-02
  1.5729982e-01
 -2.4958612e-02
  6.8281993e-02
 -1.7931953e-01
 -4.7818724e-02
  1.8720171e-01
 -8.2297763e-03
  4.3473452e-02
 -3.8539849e-02
 -4.7198370e-02
 -5.4929130e-02
  5.6656349e-02
 -9.1670156e-02
  1.1708891e-02
  2.7506825e-01
  1.7494653e-01
  1.6905741e-01
 -1.7998280e-02
  9.3579754e-02
 -5.0640162e-02
  5.5198390e-02
  1.3813305e-02
 -1.0437320e-01
  1.4235577e-02
 -9.1548645e-01
  4.4344690e-01
 -5.5394702e-02
 -9.3342550e-03
 -2.2151752e+00
 -1.4823048e-01
  3.2071632e-01
  5.7692349e-01
 -2.1842845e-02
  1.9212433e-03
  2.1021265e-01
  3.4645426e-01
 -4.4464525e-02
  8.6054271e-03
  3.7141535e-02
  3.2818809e-01
 -6.9906134e-03
  8.3852984e-02
  3.0242884e-01
  7.6328777e-02
  1.9148330e-01
  1.2901309e-01
  1.1438484e-01
 -8.3509932e-04
  7.8063615e-02
  1.2467117e-01
  4.4475645e-02
 -5.9896875e-02
  1.2585238e-01
 -4.9222555e-02
 -4.3921154e-03
  7.5989249e-03
  2.9573941e-01
  1.5926529e-01
  3.5352856e-01
 -8.4155299e-02
 -1.0719233e-01
 -4.7378037e-02
 -4.4303302e-02
 -4.1798469e-02
 -1.5988666e-01
  9.0426230e-01
  1.2506686e-02
  1.2307364e-02
  1.3060389e-01
  2.5477517e-02
  1.6192056e-01
 -9.8482454e-03
 -1.8177563e-02
 -7.0713289e-02
  1.0965152e-01
 -5.5423316e-02
  3.5344614e-04
 -4.1779842e-02
  1.5195068e+00
  1.6344779e+00
  3.0146277e+00
 -9.8208584e-02
  1.2290076e+00
  5.4654725e-02
 -9.2566532e-01
 -1.4798633e+00
  3.3975174e+00
  9.3960106e-01
  2.4108642e-01
  1.3138457e-01
  1.1658630e-01
 -8.8540830e-02
  1.2165554e-01
  8.8512130e-02
 -6.1029941e-03
  2.6108610e-02
 -3.5391226e-02
 -4.6561843e-01
  2.2657940e-01
  1.1020293e-02
 -8.7401345e-02
 -1.2859452e-01
 -9.2702724e-02
 -3.8801391e-02
  7.3022813e-02
  1.1864228e-01
  1.4665861e-01
  4.3745086e-01
 -5.5809906e-03
  5.9504490e-02
  2.4227740e-01
  1.2693448e-01
 -4.7332581e-02
  4.0470608e-02
  4.0039232e-01
  1.0168477e-01
  5.5601589e-02
  7.9028774e-03
  4.8208814e-03
  3.3981744e-02
 -9.3751393e-02
  5.7249486e-02
  1.6762409e-02
  1.8593617e-02
 -6.6884570e-03
  6.4227269e-03
 -1.4944220e-02
 -1.9033112e-02
  5.2817583e-02
 -3.5305168e-02
  4.6415858e-02
  8.0753237e-02
 -6.0762592e-02
  6.2504119e-01
  6.8948001e-02
 -2.5026324e-01
  1.1405241e-02
  4.1469719e-02
 -4.4801310e-03
  6.2944025e-02
  2.1254548e-03
  1.5921819e-01
  6.6724204e-02
 -5.2610125e-02
 -1.6640714e-01
 -2.1801510e-01
 -2.8973790e-02
  3.6118770e-01
 -1.5822104e-03
  9.2812357e-03
  7.1175583e-02
  1.4763675e-02
 -2.8436325e-02
 -2.2591451e-02
 -1.8726090e-02
  2.9543120e-02
 -1.8085726e-01
 -2.5503019e-02
  5.1033903e-02
 -8.1248045e-02
 -2.1543452e-01
 -3.6330058e-03
 -3.3168633e-02
 -2.5294330e-02
 -2.1536406e-02
  4.6501126e-02
  1.5925914e-02
  1.4774497e-02
  8.6717702e-02
  9.1443516e-02
  1.4258271e-01
 -4.1693557e-02
 -2.1147661e-02
 -3.4249812e-02
  1.3531071e-01
  6.6303246e-02
 -2.6594101e-02
  4.0505148e-02
  2.3821674e-02
 -3.9669674e-02
 -9.6424773e-02
  1.4564647e-01
 -2.5429545e-02
  3.5462726e-02
 -5.7831548e-02
  7.2838083e-02
 -1.7752346e+00
 -2.6848695e+00
  1.4152135e+00
 -2.7766440e+00
 -4.5932761e-01
  5.7941228e-01
 -1.5485215e+00
 -1.5267341e+00
 -1.9867607e+00
 -3.6181974e-01
  6.1040730e-03
 -5.9621554e-02
 -6.6162109e-02
  5.7006672e-02
 -1.0785285e+00
  3.8905635e-01
  4.0231338e-01
  5.0248760e-01
  6.2767930e-02
  2.8123960e-02
 -1.8321556e-01
  5.3820312e-02
 -5.2300412e-02
  3.4715569e-01
  4.4111255e-01
  4.3969452e-02
 -2.5462908e-01
 -5.3255435e-02
 -2.2252920e-01
 -5.7888515e-02
  4.2663779e-02
  8.4478915e-02
  6.9798219e-01
 -7.7159411e-01
  1.0823717e-01
 -6.8157035e-01
  1.0867553e-01
 -7.8241166e-05
 -1.0559540e-01
 -2.2285718e-02
 -1.0345321e-01
  1.8078886e-01
 -2.1067844e-01
  1.2725869e-02
  1.1006034e-01
 -2.2528425e-02
 -5.6273770e-02
 -7.2924634e-03
  1.8445636e-01
 -1.3869328e-02
  3.6457166e-02
  9.8142177e-03
 -1.2863922e-01
  3.5513252e-02
  1.0875673e+00
  8.6473972e-01
 -8.7768507e-01
  7.2515242e-02
 -8.4943658e-01
  1.0824706e-01
 -1.7673296e+00
  6.4624172e-01
  5.8897525e-01
  8.4763899e-02
 -3.4177873e-01
 -1.3497202e-01
 -4.8220906e-02
 -2.0127073e-01
  3.6431098e-01
  9.1715500e-02
 -7.4885823e-02
 -1.3257216e-01
 -6.5062923e-05
 -3.8119364e-01
  3.8644269e-02
 -8.8208057e-03
 -2.4929453e-01
  7.4273638e-02
 -2.7707785e-02
 -1.5173334e-02
  3.6065631e-02
  1.9610886e-02
  2.4079371e-02
 -3.4058678e-01
 -1.8477035e-01
 -1.3235919e-01
 -3.6412960e-01
  1.0414701e-01
 -4.9646996e-02
  1.6876703e-02
  4.1311868e-02
  1.7303795e-02
  8.0131739e-02
  2.6856143e-02
 -1.1580458e-01
 -1.1516878e-02
  1.2313423e-01
 -1.5305990e-01
 -1.3834660e-02
  1.2152836e-01
  7.4504852e-02
 -2.3075160e-02
 -5.1733158e-03
  6.2382579e-02
 -3.7560329e-02
  2.1123407e-02
 -1.0362373e-01
 -4.0443931e-02
  1.9582771e-02
  1.2451729e-01
 -8.9815240e-03
  1.8813591e-03
  1.5085512e-01
  6.6386387e-03
  5.9879392e-02
 -5.0569158e-02
  2.7117853e-03
 -2.2558760e-02
  2.6123358e-03
 -3.2327145e-02
  1.2252478e-02
 -1.6033594e-02
  2.6060134e-02
  4.0831666e-02
 -8.7173730e-03
  4.2809304e-03
  2.0065228e-02
 -7.2125406e-03
  3.0479718e-02
  8.1011690e-02
 -1.1697319e-02
 -2.0479850e-01
  1.4282792e-02
  1.4980036e-02
 -1.2029256e-02
  7.7504486e-02
 -4.9688995e-02
  1.1487073e-02
  2.0108866e-03
  9.1113420e-03
 -3.5507634e-02
 -6.2522739e-03
  1.0444274e-01
 -1.6589956e-01
  6.1309241e-02
  6.5872088e-02
  2.9025460e-03
 -2.6376545e-02
 -1.1358325e-02
  7.5537622e-02
 -5.3098280e-02
 -3.3235069e-02
  4.1536823e-02
 -3.7501436e-02
 -1.7077851e-01
 -3.7657883e-02
  4.0116735e-02
 -7.9878762e-02
 -9.1537140e-02
 -4.4102166e-02
 -1.9463072e-02
 -5.7739578e-02
  3.2599393e-02
 -2.3794743e-01
  2.6215937e-02
  2.8074828e-01
  2.4061648e-03
 -6.1167456e-02
  5.0481213e-03
 -3.9596237e-02
  6.1436340e-02
  6.8071730e-02
  1.6512747e-01
 -3.6714822e-02
  1.5422641e-02
  1.9121271e-02
  5.6077947e-04
 -2.1864036e-01
 -5.3776752e-02
 -1.8881305e-01
  7.2040133e-02
  2.1667197e-02
 -1.2909350e-01
 -5.7598867e-02
  8.8958377e-03
 -6.2453926e-02
 -1.1392088e-01
  1.8340656e-01
 -5.9254426e-03
  7.4634008e-02
  5.4882847e-02
  8.3467802e-03
 -3.5873458e-02
  3.4259398e-02
 -2.1633040e-04
  1.2542752e-03
  1.8834481e-02
  3.1866688e-02
  8.5048586e-02
  1.1475156e-01
 -6.9462433e-03
  5.5516236e-03
  6.6634305e-02
  1.5609676e-01
 -1.4209731e-03
  3.7271384e-02
 -1.6085761e-02
 -5.6275923e-02
  3.2668091e-02
  5.1352672e-02
  4.3881759e-03
  6.0549952e-02
 -1.0629361e-01
  2.3148216e-02
 -1.4563893e-01
  1.6474586e-02
  5.0064366e-02
  2.4843082e+00
 -5.6848350e+00
 -1.2186080e-01
  1.0269226e+00
  5.0771070e-01
  1.8656556e-02
 -4.0978374e+00
 -1.3804271e+00
 -1.2609471e-01
 -5.0286110e-03
 -1.9235347e-03
  1.8409288e-02
  3.5846081e-02
 -4.9047929e-01
 -4.0376801e-02
 -1.5612856e-01
 -1.4029312e-01
 -2.8180262e-02
 -1.3691361e-02
 -1.4840373e-02
  2.5200570e-02
 -1.1577225e-01
  5.5462188e-01
  2.9996875e-01
  7.4141636e-03
  8.5167319e-02
 -1.1955025e-02
 -6.4569429e-02
  5.2415458e-03
 -8.5430695e-03
 -1.2787087e-01
  1.5522393e+00
  1.9926682e-02
 -3.1601948e-01
  2.6193313e-02
 -1.0004385e-01
  2.4070404e-02
 -1.0564250e-01
 -2.0023559e-01
 -2.0144592e-01
  1.4133241e-03
 -2.2483971e-02
 -1.6983593e-02
 -3.8362870e-03
 -7.0708975e-02
 -3.2104298e-02
 -6.3690208e-03
  1.1351902e-01
 -5.2073102e-02
  5.1830351e-02
  6.8303929e-03
 -7.9541691e-03
  1.6078873e-02
  1.0238328e-01
 -2.5014672e-01
 -2.2671016e-01
  5.8136779e-01
  5.0021684e-01
  2.5955217e-02
 -2.4260613e-01
  8.3978492e-01
  1.2509026e-01
  2.8632322e-02
 -4.3550085e-02
 -1.1668711e-01
  2.7423486e-02
 -4.6371618e-01
 -3.9943162e-01
  1.9260554e-01
 -4.7476384e-01
 -1.3854571e-01
 -3.0965751e-01
 -4.5994288e-01
 -8.6280175e-02
  4.8328456e-01
 -8.8161486e-01
  2.8446099e-01
 -1.8128204e-01
 -1.0790987e-01
  3.7174176e-03
 -1.6527785e-02
 -1.9548582e-02
  9.4426334e-02
 -1.9660385e-01
 -7.2528976e-01
 -1.8984352e-03
 -2.7289808e-02
 -2.9153249e-01
 -2.7508789e-01
 -1.5352730e-01
  3.4440860e-02
 -2.9452652e-01
  3.6228427e-01
  1.5540219e-02
  1.8927869e-01
  1.8840025e-01
 -3.9248231e-01
 -2.4441771e-02
  7.2686356e-03
  1.0994379e-02
 -2.3814354e-02
 -8.3627984e-02
 -2.1514753e-02
  8.7595351e-02
 -1.4883690e-03
  1.5916559e-04
 -3.9397530e-02
 -4.7346190e-01
  9.1537756e-01
  7.0024878e-02
  3.6179936e-01
 -2.0688686e-01
  7.8405537e-02
 -1.2273612e-01
  3.9742760e-02
 -9.8219447e-02
  2.1291073e-02
 -1.6384181e-01
  7.4446686e-02
 -7.5876519e-02
 -1.2561512e+00
 -1.8249385e-02
  6.1907653e-02
 -7.4781507e-02
 -1.8191285e-02
  5.0813900e-03
 -3.2098085e-02
 -4.4485521e-02
 -1.5294501e-02
  6.2055815e-02
 -5.4414865e-02
  1.6963138e-01
  5.4970838e-02
  2.0479083e-02
  4.0811347e-03
  6.5710537e-02
 -4.3180753e-03
 -8.0123946e-02
 -7.4007935e-03
 -2.6277258e+00
  1.3356477e-01
 -7.5236090e-02
 -2.2774990e-01
  1.0754300e-02
 -5.7442185e-02
 -3.9869159e-02
 -2.0910978e-02
 -5.2131422e-02
  2.4094976e-01
  2.0486100e-02
 -1.0529710e-01
 -1.4938499e-01
  8.3264887e-02
  8.0944508e-02
 -6.0288988e-02
 -1.1815227e-02
 -1.0725244e-01
 -7.0821278e-02
 -3.6141291e-02
 -2.8284240e-01
 -8.1366412e-02
 -1.0298496e-02
 -1.9627169e-03
  3.8132794e-02
 -2.1686427e-01
  1.2051187e-02
  6.4389981e-02
  9.6554264e-02
 -1.4786909e-02
 -3.7048904e-03
  5.1125366e-02
  6.0884900e-02
 -1.6583286e-02
 -1.5979382e-01
 -2.5306458e-03
  1.4316101e-02
 -2.0264581e-02
  1.0377777e-01
  1.6847195e-02
 -1.7903659e-02
 -5.1479194e-02
  2.4345245e-02
  8.1376202e-02
 -7.9477429e-03
  5.0737180e-02
  9.8550906e-03
 -6.8416290e-02
  8.2723148e-02
 -4.6605546e-02
 -3.6342297e-02
 -8.8197924e-02
 -1.1337499e-02
  3.6773738e-02
 -2.8203178e-02
 -3.0185822e-02
 -1.4898387e-01
 -1.0375890e-02
  4.9097501e-03
 -5.0163185e-03
  1.5608846e-01
  3.3549156e-02
 -5.5884019e-02
 -5.2990392e-02
 -1.4800082e-01
 -1.5129912e-01
  4.4418234e-02
 -1.2399943e-01
 -8.4337786e-02
 -2.0050758e-01
  6.2796310e-02
 -3.1361971e-02
 -5.4069355e-02
 -4.3417491e-02
 -5.2596387e-02
  1.1443107e-02
  8.7675184e-01
 -1.3448461e+00
  1.8882343e+00
 -2.3098674e+00
  1.1676441e+00
  2.5059042e+00
 -2.4354522e+00
  1.1707145e+00
  1.5220399e+00
 -2.7186518e+00
 -1.7546666e+00
  1.3977963e+00
 -1.6975968e+00
  1.4225141e+00
 -7.0088094e-01
  1.0507020e+00
 -1.7543513e+00
  2.1634967e+00
  2.8977613e+00
 -1.7281350e+00
  2.9100182e+00
 -1.8227048e+00
  1.5159491e+00
  4.0872568e-01
  4.7530577e-01
 -1.1418905e+00
  2.0104570e+00
 -2.1908405e+00
  1.9082344e+00
  2.8382256e+00
 -3.1932113e+00
  9.0001506e-01
 -8.4003347e-01
  7.7870578e-01
 -2.0830290e+00
  1.7640789e+00
 -3.1887476e+00
  1.1577737e+00
  2.6836193e+00
  6.9758159e-01
 -4.5979810e+00
  2.5532091e+00
  1.8859621e+00
 -2.3728673e+00
 -2.0161417e+00
  1.6739472e+00
 -2.2971804e+00
  1.2493765e+00
 -6.5032136e-01
  3.1705010e+00
 -1.8559899e+00
  1.3878844e+00
 -2.3229055e+00
  2.4713790e+00
 -1.1213760e+00
 -1.5526465e+00
 -2.2861650e+00
  9.1466612e-01
  4.6541594e-02
 -2.3356338e+00
  2.0724964e+00
  2.0584245e+00
 -1.2858546e+00
 -2.0610082e+00
 -1.3730147e+00
  1.6015043e+00
 -4.6506327e-01
 -2.2596092e+00
 -2.1875443e-01
  2.7823629e+00
  2.2958198e+00
 -1.7353942e+00
  1.0591269e+00
  8.2354479e-02
  2.8756189e+00
 -2.2833254e+00
  8.4160888e-01
 -2.7715509e+00
  2.2419093e+00
 -1.2516695e+00
  3.4979355e-01
  1.8474118e-01
  2.4234025e-01
 -5.4045534e-01
  1.1196408e-01
  8.1742579e-01
 -1.4721864e+00
 -1.3053246e-01
  3.9983919e-01
 -1.9999390e+00
  7.3094672e-01
  8.9984901e-02
 -1.6390942e-01
 -1.0555601e+00
 -4.0509988e-02
  5.8429950e-01
 -3.9248928e-02
 -1.8344315e+00
  9.2829980e-02
 -2.6679933e-01
  2.1937435e+00
 -3.4411669e-01
  4.6998515e+00
 -2.0818789e-01
  8.2225867e-02
 -1.1288980e-01
  6.3200527e-01
 -3.0673842e+00
  2.7863493e+00
  1.9096577e+00
 -3.9430404e+00
  1.0327598e-01
  5.1795441e-01
  2.0417309e-01
 -8.1075394e-01
  1.2066007e+00
 -1.2451213e-01
  6.8422556e-02
  2.0685589e+00
 -4.5192789e-02
  9.9845535e-01
  2.9694405e-01
  5.0834209e-01
 -3.5214691e+00
  9.8886721e-02
  5.6491590e-01
 -7.0341164e-01
 -1.4084004e+00
  2.0590867e-01
  1.8400921e-01
  1.0927266e+00
 -3.4744933e-01
  2.4817910e+00
  2.9245887e+00
 -2.2312683e-01
  1.0146706e+00
 -1.7861465e+00
  4.9675252e-02
  4.5780918e-01
  2.2305591e-01
 -2.2780097e+00
  4.4310713e-01
 -1.4816523e+00
 -4.6280870e-01
  1.3471995e-01
 -2.3344533e-01
 -8.5096705e-01
 -3.3998127e+00
 -4.6513408e-01
 -5.7601386e-01
  2.6604515e-01
 -4.8527974e-01
 -1.0426241e+00
 -2.3804316e-01
  2.5059524e+00
  8.0459369e-03
 -9.4694555e-02
 -4.0026412e+00
 -1.9938162e-01
 -5.3360343e-02
 -1.9186345e-01
  4.9453016e-02
  5.5760074e-02
  1.5700345e-01
 -4.7612667e-02
 -2.4069577e-02
 -1.0781637e-01
 -1.3602862e-02
  2.4128065e-02
  3.4660767e-03
 -3.9123967e-02
  5.6531295e-02
 -2.5265077e-03
 -1.1384360e-02
 -1.9967932e-01
 -1.5812578e-02
 -5.2470677e-03
 -3.9122101e-02
  4.2781610e-02
 -2.6049452e-02
  2.5985569e-02
 -9.9466890e-03
 -1.8065065e-01
 -3.6830287e-03
 -1.1339305e-02
  6.0761776e-02
 -1.8541809e-02
  6.7100853e-02
  4.5322217e-02
  1.7730000e-03
 -1.0780034e-01
  4.6800878e-03
  7.1883560e-03
  3.2672249e-02
 -4.2698238e-02
 -7.3879799e-03
 -1.6016031e-02
  1.0692935e-01
  1.0792716e-01
  6.5491259e-02
  6.3945137e-02
  2.8062657e-02
  7.4492283e-02
  1.4747126e-02
  7.8722507e-02
  2.5934679e-02
 -6.0407702e-02
  3.0794444e-02
 -3.9272835e-03
 -7.3873930e-02
  1.4235834e-02
  7.3236942e-02
  1.0702180e-01
  1.0329748e-02
 -2.6901064e-02
  1.4913544e-01
 -2.4713023e-02
  7.2587403e-03
  4.5747407e-02
  9.6682841e-03
  1.0873865e-01
  1.3942418e-02
 -8.2587272e-02
  2.1853147e-02
  1.0419099e-03
  1.1494593e-02
  1.9411447e-02
 -1.3499221e-01
  1.1199770e-01
  2.7966397e-02
  4.0127948e-02
 -1.9540593e-02
 -1.0038748e-01
 -7.1806996e-03
  4.2605545e-02
 -5.8777467e-03
 -5.2316967e-02
  6.2342636e-02
 -3.9736763e-02
  5.5489872e-02
  1.6535087e-02
 -4.2955354e-02
  2.7525453e-02
  4.4663891e-02
 -7.6803595e-02
  1.6429452e-02
  5.1206976e-02
 -1.1393218e-01
 -8.0558360e-02
 -7.6324819e-03
 -9.2117459e-02
  3.5132788e-02
 -1.6694418e-01
  1.1810545e-01
 -2.9724207e-02
 -3.9289404e-02
  1.3466027e-02
  1.8231426e-01
  5.4575283e-02
 -7.9567274e-03
  1.2721980e+00
 -9.6513620e-03
 -5.4475512e-02
 -4.5785587e-02
 -1.1831294e-02
  9.4748348e-02
  6.1515041e-02
  9.2090778e-02
 -6.7506570e-01
 -3.5160487e+00
  2.7113429e-01
  3.0747249e+00
 -1.7725657e+00
  3.0265129e+00
  5.3945613e-01
 -1.2552136e+00
 -8.5772765e-01
 -6.6426861e-01
 -6.3115257e-01
 -1.1170431e+00
 -7.2245353e-01
  3.2607778e-03
  6.6006398e-01
 -1.5225574e+00
  1.1552802e-01
  9.3072373e-01
 -1.0874358e-01
  9.3282662e-02
 -1.2914684e-01
  7.0452148e-01
 -1.4983781e-01
 -1.1157652e+00
 -1.9943936e+00
  7.4928194e-01
 -9.1935527e-01
  5.1129311e-02
 -6.3542366e-01
 -1.1694409e-01
  1.1176061e-02
 -7.8910559e-02
  6.6072732e-01
 -1.7305652e+00
  2.1789612e-01
  3.0487469e-01
 -9.3513973e-02
 -2.0687488e-01
  4.2199560e-02
  1.0635639e-02
 -9.8858260e-02
 -2.4610776e-02
 -6.4338994e-01
  8.5612692e-02
 -6.1397332e-01
  1.1260554e-01
 -1.8942328e-02
  1.0778477e-01
 -2.5595369e-02
 -4.4656217e-02
 -1.6323395e-01
 -4.7588550e-02
 -7.2602279e-02
  6.8624709e-03
 -3.7193432e-01
  1.9438826e+00
 -1.2807215e+00
 -7.2410697e-01
 -7.0564151e-01
 -1.1107923e+00
 -2.8978751e+00
 -2.6380644e+00
  2.3545485e+00
  4.4017106e-01
  8.5580599e-01
 -1.8139491e-02
 -3.0092800e-01
  1.4003708e+00
  3.9483750e-01
  1.1926355e+00
 -1.0403291e+00
 -5.5074207e-02
  1.1669596e-01
  5.6619430e-01
  8.6364083e-02
 -1.2437129e-02
  3.1241143e-01
  6.7582332e-02
  6.5007252e-01
  1.9689137e-01
  1.0359268e+00
  4.0486479e-01
  2.2641228e-01
 -2.5683265e-02
  4.9835712e-02
  3.9055452e-01
 -7.7971119e-01
 -3.5275258e-03
 -1.9997878e-02
 -2.1629392e-01
  1.5119243e-01
 -4.9889782e-01
  9.1975637e-02
  2.2663843e-02
  9.9869296e-02
  2.1221789e-02
  3.1880237e-02
  4.7881261e-01
  7.4505895e-01
 -8.2007602e-02
 -4.3138668e-02
 -1.6001502e-02
  7.2567157e-02
 -1.6130548e-02
 -3.6550104e-03
  1.6921122e-01
  6.6234156e-02
 -2.8958468e-02
 -1.6042992e-02
 -7.4846484e-02
  1.6200744e-02
 -1.0862899e-02
 -5.5289287e-02
 -2.3810188e-03
  1.5649882e-01
  6.2807716e-02
  1.2924682e-01
 -5.5360310e-02
 -1.7819151e-02
  7.8624353e-02
 -5.8761402e-03
  8.4909536e-03
 -1.8588340e-02
  4.5578368e-02
  1.4592255e-02
  8.7831765e-02
 -4.6044819e-02
 -8.1425477e-03
  2.2574811e+00
  1.2688579e-01
 -9.1500275e-02
  2.7985385e-01
  2.5559427e-02
 -6.1841059e-02
  3.5298909e-03
 -1.6082479e-01
 -1.1155659e-01
  7.6619156e-02
  1.0523650e-01
 -1.1339219e-01
 -1.2112246e-01
  4.1855499e-02
  1.6522358e-01
  2.2848409e-02
 -1.5506377e-02
 -1.8482687e-02
  2.2957221e-02
  1.1956051e-02
  2.1029015e-01
  9.0341881e-02
  6.3313600e-03
  8.0661179e-04
 -3.2817437e-03
  1.2031843e-01
 -5.3830189e-03
 -4.1728150e-02
 -3.7704933e-02
  2.4968101e-02
  6.0010054e-03
  7.2578669e-02
  9.0820111e-02
 -1.7531041e-02
 -1.7381301e-02
 -1.4410511e+00
 -1.4878731e-02
 -2.6495431e-02
  3.3395745e-02
 -2.2759359e+00
  3.7929824e-01
 -3.3871815e+00
 -1.3668519e-01
 -6.4720708e-04
  4.9634505e-02
 -1.7927992e-01
  7.4248940e-02
 -1.8465342e-02
 -6.4814389e-02
 -1.8425243e-01
  1.0745859e-02
 -1.4639881e-02
  1.1592605e-01
 -3.4726016e-02
  4.6584446e-02
  1.1955217e-01
 -1.7157566e-02
  2.0890588e-02
 -8.9320065e-03
  4.8689496e-02
 -5.3293314e-02
 -5.0424289e-02
  3.2623626e-02
 -6.9692126e-03
 -5.1388357e-02
 -2.9775808e-03
 -5.2845851e-02
 -3.0636251e-02
 -3.3062220e-02
 -6.4304195e-02
 -7.8543518e-03
 -1.5610296e-02
  7.0081158e-03
 -4.6064332e-02
 -1.7075222e-02
  2.8928438e-02
 -6.8654396e-02
 -7.1912833e-02
  3.1101912e-01
 -2.3985635e-02
  1.0909999e-01
 -4.5401327e-02
 -6.4506039e-02
 -1.3665988e-01
 -1.4091338e-01
  3.0409252e-02
 -1.0349664e-01
  4.6252191e-02
  2.0283285e-01
  4.5805609e-01
 -7.2757848e-02
  4.9557447e-02
  7.2264299e-02
  1.3671254e-01
 -4.8179500e-02
 -3.8246548e-01
 -8.4045187e-02
 -4.5309015e-02
  1.5841195e-01
  5.3458285e-02
  4.3371201e-02
  8.2409926e-02
 -1.6639998e-02
 -8.4464453e-02
  2.4166176e-02
  4.8750632e-02
 -3.2693539e-02
 -5.4599132e-02
  8.8737234e-03
  4.1177254e-02
 -1.0643731e-01
  2.7802810e-02
 -2.7189115e-01
 -5.7760771e-02
 -5.3967613e-01
  1.6583513e-03
 -1.3139847e-01
 -8.6640753e-02
 -4.1483391e-02
 -6.8372294e-02
  9.6668694e-03
 -2.1038529e-02
  1.3128744e-01
 -7.4388911e-03
  1.3105592e-01
  6.0472183e-02
 -2.2923483e-03
  4.2432076e-03
 -1.3630323e-02
  1.0150031e-02
  8.7364338e-02
 -6.1360992e-02
  5.6740850e-02
 -1.5526340e-02
 -2.1705733e-01
 -2.8605580e-02
  1.1785770e-02
  4.5622248e-02
  2.1741213e-02
 -9.7844116e-03
 -6.4889140e-02
 -9.6244268e-02
 -3.1124425e+00
 -4.0540905e+00
 -5.9339225e-01
 -7.3019391e-01
  6.6262037e-01
  5.9967270e+00
 -1.1699293e+00
  3.0151803e+00
  4.0883788e-01
  2.1905489e-01
  6.2152728e-02
  1.2921952e-02
 -5.9093829e-02
  8.6649969e-02
 -4.9328473e-03
  3.6158618e-02
  1.6615562e-01
 -1.1625210e+00
  2.4059011e-01
 -1.7068410e+00
  1.7753449e-01
 -8.7415297e-03
 -4.8921999e-02
  5.5450000e-02
  1.4166313e-01
  3.4591404e-01
  1.0687402e-01
 -6.8859935e-02
 -2.7897147e-02
  5.6542449e-02
 -3.9551383e-01
  4.1358930e-01
 -3.1594662e-03
  4.1084709e-03
 -2.3542804e-01
  3.8390648e-01
  2.2558225e-02
 -4.6937428e-02
  8.2143344e-02
 -4.5676511e-02
  1.7107521e-01
 -3.8336194e-01
  7.1936913e-02
  5.5461679e-02
 -1.4042303e-01
  3.6939386e-02
  1.7824292e-02
 -1.2114181e-02
  2.1966720e-04
 -3.0161437e-02
  4.2146582e-02
 -9.5897093e-02
  7.5629652e-02
  6.8764828e-02
  2.1245605e-03
  2.7400746e+00
  7.2072488e-01
 -8.0900109e-01
  9.2453563e-01
 -1.1616786e+00
  3.5314295e-01
  2.2848473e+00
  3.6606062e-03
 -1.6717830e-01
  1.6621962e-01
 -4.1377574e-02
  1.0034828e-01
 -1.4121125e-02
 -1.7719531e-03
 -6.6137061e-02
  3.5216209e-01
 -9.3802990e-04
  5.4100014e-02
 -7.7585232e-01
 -2.1884259e-02
  1.6596168e-01
 -2.1481352e-02
  2.8249437e-01
 -1.0108654e+00
 -2.7743405e-02
  8.4436303e-01
 -2.4733260e-01
 -2.2686470e-02
 -7.5205505e-01
 -1.1412986e-01
 -1.1992625e-01
  2.7565905e-01
 -9.7272265e-01
  8.9628011e-02
  7.4024796e-02
 -1.5772708e-01
  1.3761267e-02
 -1.2284508e-01
  1.4701465e-01
  6.4339228e-02
 -1.6867872e-02
 -5.2115309e-01
 -4.0982109e-02
  1.2087973e-01
 -5.4820631e-02
 -8.5703246e-02
 -2.5323050e-03
  1.8225834e-02
  8.5754192e-04
 -1.0519936e-01
 -4.4877972e-02
  3.0594420e-02
 -1.1079855e-02
  5.8465589e-02
  3.8132933e-03
 -5.9714023e-02
 -5.7005707e-02
 -3.3255141e-02
 -5.3717379e-02
 -5.0523024e-02
 -7.2995080e-03
 -1.2485088e-01
  3.1849537e-02
  3.4478810e-02
  2.0257482e-02
 -3.5735391e-02
  2.8653651e-02
  2.9651362e-02
 -1.8645393e-02
  5.4024197e-02
 -4.2459358e-02
 -1.2050992e-01
  2.5101380e-02
 -1.8714821e-01
 -2.3457486e-02
  4.1161384e-03
  1.6203819e-01
 -4.7299664e-02
  6.3088901e-02
 -1.4171543e-02
 -4.0195626e-03
 -1.7191879e-01
 -6.9468014e-02
  9.0114819e-03
 -1.2940441e-01
  5.2717187e-02
 -3.4716059e-02
  7.5550191e-02
 -4.6442878e-02
  3.8862191e-03
  1.4381111e-01
  1.4310002e-01
  5.0570980e-02
 -7.7956140e-01
  5.0961990e-03
  6.7351364e-02
 -5.4189477e-02
 -8.8782795e-02
  6.3755542e-02
 -6.2298488e-02
  2.2042872e-02
 -1.2898491e-01
  1.1960129e-01
 -3.3707425e-02
 -7.7008538e-02
 -5.4859027e-02
  1.7757965e-02
 -2.7021348e-01
 -6.0943309e-02
 -5.0451390e-02
  7.7035479e-02
 -1.7045853e-01
 -1.2205597e-02
 -7.6620981e-02
  2.2480674e-01
 -3.3128425e-02
  6.4406909e-02
 -4.0949740e-02
  9.2301160e-02
 -4.2339101e-02
 -4.1771460e-02
 -2.1508592e-03
  7.7192858e-03
 -1.8347066e-02
 -1.3981784e-03
  4.0224813e-02
  5.4903679e-02
 -4.5476511e-02
 -1.5363437e-01
  1.5037374e-02
  3.7680307e-04
 -2.1955106e-02
 -1.8544069e-01
  3.6673617e-02
  8.7343402e-02
  3.3303123e-02
 -2.4676162e-01
  5.2869953e-03
 -1.6182710e-01
 -9.8356411e-02
  1.6415957e-01
 -1.2951291e-01
  1.3588075e-01
 -2.9699119e-02
  1.3952604e-01
 -5.1442213e-02
 -2.8110549e-03
  1.6266088e-01
 -2.7802814e-02
  3.6953220e-01
  1.4139687e-01
 -8.1787212e-03
  2.4937560e-01
 -7.4900471e-02
 -3.5394460e-02
 -3.0161105e-02
 -9.9945985e-02
  3.7587327e-01
 -9.1095217e-02
 -4.3444041e-02
  9.0803921e-02
  7.6082828e-03
 -7.6895311e-02
 -1.1156418e-02
 -1.1269243e-01
  8.6310327e-02
 -2.2517031e-02
  4.6340901e-02
  9.2239499e-02
  1.3983448e-01
 -8.5490225e-03
  6.3990086e-02
  1.8430187e-01
  6.1564624e-02
 -1.3395344e-02
  4.0620487e-02
 -5.1775679e-02
  2.0774053e-01
  1.8058801e-02
 -1.0166816e-01
  1.1192258e-02
  5.4482047e-02
 -3.3054765e-02
 -2.8827101e-02
  3.2854963e-02
  1.6479148e-02
 -8.0578066e-02
  7.5539485e-02
 -8.5293986e-03
  2.6500154e-02
 -1.1703829e-02
 -1.5951957e-01
 -1.0450767e-02
 -3.8364988e-02
 -4.7331769e-03
  3.8527697e-02
 -4.0476818e-02
 -1.1971366e-01
 -4.0511717e-03
  2.3815237e-02
 -7.1456313e-02
 -1.2514816e-01
 -1.7881090e-02
 -3.8716637e-02
 -4.2915151e-02
  3.4766847e-01
 -2.0172791e-01
  1.0573967e-01
 -4.8967425e-02
  1.1337059e-02
  3.4463212e-02
  1.9256402e-03
 -2.4656476e-02
  1.1030197e-01
  1.7836703e-02
  1.7644753e+00
  6.3439965e-01
  5.3323536e+00
  3.3633339e-01
  1.1081075e-01
 -2.5047860e+00
 -1.1778295e+00
  8.5596043e-01
 -1.2260745e+00
 -2.2019610e-02
 -3.0773768e-01
 -6.9766456e-01
  2.1605602e-02
 -6.3820206e-02
 -1.7494489e-02
  2.3341389e-02
  1.1201584e-01
  6.2338501e-01
 -1.0944369e-01
 -7.9301083e-01
 -1.0132042e-01
 -4.1010812e-02
  3.9569050e-01
 -7.6664954e-02
  5.2690925e-03
 -1.8595125e-01
  1.3439520e-01
  6.1953530e-02
 -8.2450815e-02
  2.3383597e-02
 -8.7717319e-01
 -9.4043408e-03
  1.6621463e-01
 -2.6613791e-02
  5.9693372e-03
  1.2913227e-01
 -9.0021500e-03
  1.1457135e-01
  3.9927922e-02
 -3.3265813e-03
  3.5054269e-01
  6.5319228e-01
  8.4379688e-02
 -2.0400259e-01
 -4.6985835e-01
  1.0419758e-01
 -2.4933113e-02
 -5.6325188e-03
  2.7691495e-02
  2.0058662e-02
  1.5565560e-03
  4.8255671e-02
  6.0709506e-02
 -2.4919624e-03
 -2.1055956e+00
 -3.2729030e+00
  7.8632146e-02
  5.2805074e-02
 -7.3631215e-01
  1.3653755e+00
 -3.6004782e+00
 -1.8999575e+00
  2.8357375e-01
 -9.2478609e-01
 -3.0358022e-01
 -1.0816444e-01
  1.5126658e-03
 -2.8204403e-03
 -4.1660613e-01
  4.5291293e-01
 -4.9518836e-01
  3.4652117e-01
  2.0323770e-01
 -3.7112627e-02
 -5.4947000e-02
 -4.2216726e-02
  5.6083404e-02
 -9.4731793e-02
  7.2582603e-01
 -1.4340535e-02
 -1.9881368e-01
  3.4038633e-02
  5.0532553e-02
  5.0591026e-03
 -2.4971324e-01
  2.0428739e-01
 -8.8824952e-01
  3.1650522e-01
  1.0449649e+00
 -1.8670221e-01
  3.1326926e-01
 -1.6141275e-01
  1.8466309e-01
 -3.9132154e-01
  1.1760549e-01
  1.1052444e-02
  3.7914705e-01
  5.2520953e-02
  3.9603439e-01
  1.4443949e-01
 -1.2419842e-01
 -2.5759998e-01
  1.7839770e-01
  9.0774104e-02
 -1.4657502e-02
  6.7448090e-03
 -1.1820523e-01
 -1.0556344e-01
  2.9913814e+00
 -1.2957256e+00
  2.5260389e+00
  4.9117884e-01
  2.7617073e+00
 -2.1279557e+00
  2.8788362e+00
  2.3430872e+00
  2.3284791e-01
  2.1858399e+00
 -2.8195624e+00
  7.0728211e+00
  1.1809074e-01
 -1.0041147e+00
 -1.3946209e-02
 -7.4713051e-01
 -6.0241140e-02
 -6.5586649e-02
 -3.3310071e-01
  4.7963541e-03
 -1.1309808e+00
 -8.7103075e-01
 -1.3277885e-02
  8.4974730e-01
  2.2202431e-01
 -5.4978877e-01
 -6.6659093e-01
  5.4381806e-01
  9.9721020e-01
 -7.5022680e-01
 -1.8340679e-01
 -9.4638228e-02
  3.1351015e-02
  8.2249455e-02
  4.9347362e-01
 -2.0147485e-01
 -3.1406605e-01
 -5.2748066e-01
 -4.2859457e-02
  5.2240144e-02
 -1.9319447e-02
  4.0734764e-02
 -5.3735919e-02
 -6.9721498e-02
  8.3447433e-01
  6.4191896e-01
 -1.0186955e+00
 -2.0574717e-01
 -5.5656962e-02
 -1.6486365e-02
 -1.8899290e-01
  1.9177177e-03
  4.1661340e-01
 -6.4812735e-02
 -3.1324437e+00
  5.7150692e-01
 -5.0615251e-02
 -4.8547409e-02
  7.9779550e-02
 -1.4985489e+00
 -4.0216944e-01
  1.2745141e-02
 -1.8949386e-02
  9.6670603e-03
  1.9039401e-01
 -2.7412516e-03
  5.2683245e-02
 -4.6906214e-02
 -1.2141952e-01
 -4.5939412e-02
  8.2483143e-02
 -7.2608426e-02
  5.8350049e-02
  1.7105198e-01
  1.0883649e-01
  8.4877394e-02
  8.3856434e-02
  6.4496621e-02
  8.1240879e-03
  2.5771784e-02
 -1.3495754e-01
 -5.2590001e-02
  2.6291605e-02
 -8.0308812e-03
 -3.7596244e-02
 -2.2223452e-03
 -1.1118855e-01
 -6.0018845e-02
 -1.2182139e-02
 -1.4525127e-01
 -1.1581048e-01
 -8.8952504e-02
  8.5565532e-03
 -5.2678246e-02
 -8.0040134e-02
 -4.8528258e-02
  3.6974020e-02
 -4.5125641e-02
  5.0733425e-02
 -3.0213296e-02
  4.4281326e-02
  6.5204233e-02
  2.6460590e-02
 -2.8416803e-02
  2.1606689e-02
 -1.0337868e-01
 -3.4573935e-02
  2.3446327e-02
 -2.6080385e-01
  2.0581880e+00
  1.8522514e-01
 -3.6025479e-01
  7.5517279e-01
  3.5356953e+00
  2.2095642e+00
  2.2953320e+00
  1.1926838e-01
 -2.4564572e-01
  3.1444252e+00
  3.6505584e-02
  1.8198408e-02
 -7.9166973e-01
 -3.4823555e-02
 -7.6886676e-02
 -7.8317048e-03
 -3.2522288e-01
 -6.1761278e-01
 -1.4740692e-01
 -1.2926705e-01
  1.6103283e-01
  8.1173088e-03
 -2.7042848e-01
 -3.6558264e-01
 -6.4286941e-01
 -2.9270560e-01
 -9.0007223e-02
 -1.3328552e+00
 -1.9392803e-02
  2.3354681e-01
  3.5534110e-02
  2.6726501e-02
 -8.5281283e-03
  1.6420478e-01
  2.6759401e-01
  3.1565562e-01
  2.3023453e-01
  5.0740190e-02
 -6.7026563e-02
 -4.3406107e-02
  2.6768763e-02
 -1.5458004e-01
  1.8642095e-01
 -7.4276125e-01
 -4.6610620e-02
 -4.9495496e-02
 -4.4306763e-03
 -5.8450405e-02
  6.0333437e-03
  3.9124127e-02
 -3.7880164e-02
 -2.7348097e-02
  1.5801027e-01
  2.5379270e-02
 -1.1043393e-01
 -6.0189426e-01
 -6.8918020e-02
  1.9607559e-01
 -3.4429262e+00
 -5.3753251e-01
 -2.7047133e+00
 -6.4750120e-02
 -4.3617737e-02
 -1.8321525e-01
  3.4526829e-02
  7.0120871e-01
  9.6581373e-03
 -1.2407344e-02
  1.7897545e-01
 -9.9679959e-01
  1.0132319e+00
  1.9907672e-02
 -1.4774439e-01
 -2.5345701e-01
 -7.3820043e-01
  1.8206440e-01
 -5.2281916e-02
  1.8891932e-01
 -4.3256119e-01
 -4.2944267e-01
  6.4786784e-02
  6.0049608e-02
  5.5279923e-03
 -7.8410516e-03
  3.1576744e-01
 -3.9312772e-02
  5.6723511e-01
  4.2134854e-03
 -1.1911798e-01
  3.4317743e-02
  2.9811177e-01
  2.1346773e-01
  6.3988656e-02
 -1.6839804e-02
 -8.7223455e-02
  1.1610818e-01
  3.2538018e-01
  4.9505807e-03
  4.4741206e-02
 -1.9734580e-02
 -2.2218615e-01
 -2.6309707e-03
  1.8657814e-01
 -2.0650646e-01
 -2.6899330e-02
 -4.3612875e-02
 -3.3868968e-02
  3.4041747e-01
 -2.5722799e-01
  5.7632297e-02
 -6.3142180e-02
  3.8924318e-02
 -9.4707805e-01
  4.3602161e+00
 -9.9641554e-02
 -1.3494325e-01
  3.4864105e-02
 -4.6503092e-03
 -1.4658187e-02
 -7.7849627e-02
  4.8958644e-02
  3.4594133e-02
 -1.0275845e-01
 -6.7041412e-02
  2.2870569e-02
  2.5861206e-02
  1.2409607e-01
  2.3780132e-02
  1.4340764e-01
 -2.6899988e-02
  2.4284281e-01
  8.8001743e-02
 -6.0439934e-03
  1.6391302e-02
  3.5634536e-02
 -3.1718064e-02
 -3.1181406e-02
  2.6476406e-02
  1.9550761e-02
 -1.3575934e-02
 -1.0646053e-01
 -7.9871632e-02
  1.1848291e-01
  3.1734711e-01
  4.5552701e-02
 -1.9297287e-02
  4.5735497e-02
  1.5406564e-02
 -1.9169534e-03
  1.6613904e-02
 -2.8815726e-04
  2.7228689e-02
  9.2372596e-02
 -4.3279164e-02
 -5.1392194e-02
  5.7740718e-02
  1.4997999e-01
  4.1905195e-02
 -3.0609988e-02
  1.6404222e-01
 -2.0005409e-02
 -2.7142452e-02
  2.2074206e-01
 -6.3034706e-02
  3.4001964e-01
 -1.0890571e-01
  2.5873601e-01
  2.1958055e-01
  5.8476973e-01
 -1.0874974e+00
 -1.6372291e-02
 -4.8309798e+00
  2.1713287e-01
 -4.1692644e-02
  1.1721728e-01
 -4.8573255e-03
 -1.7339741e-01
  2.9294741e-01
  4.2668712e-01
  3.2124653e-01
  4.5610121e-01
  1.9290904e-02
  1.3319115e-01
 -1.4384884e-01
 -2.5345519e-02
 -7.5755191e-01
  1.9374479e-01
  2.8236735e-01
 -1.2425839e-01
  7.3952392e-02
  1.6068806e-01
  2.8121901e-01
  1.2212937e-01
 -2.0057546e-02
 -2.4577582e-01
 -5.8446009e-02
  1.3524957e-01
 -8.1476785e-02
 -6.1022467e-03
 -1.6552208e-01
 -1.9933982e-01
  2.7795548e-02
  7.4280225e-02
 -2.6505107e-01
  5.7273600e-03
 -4.4118356e-02
 -4.3372838e-03
 -1.2494870e-01
  6.3987009e-02
  2.2830547e-01
  1.0214904e-02
 -1.8538445e-02
  1.7244513e-04
 -4.2551672e-01
  7.0152834e-02
 -4.0442683e-03
  1.0355932e+00
 -4.3309685e-02
 -2.3132434e-02
  5.5978645e-02
  1.9605777e-01
  7.7751605e-04
  6.9878489e-01
 -2.1260139e-02
 -7.8095421e-03
 -1.7115701e-02
  1.1957455e-01
  4.6023782e-02
  1.6583396e-02
 -7.1887352e-02
 -3.6550976e-02
 -7.4575216e-02
  7.3020279e-02
 -9.8926976e-02
 -1.1705073e-01
 -1.8418146e-02
 -1.3666951e-02
  5.6371880e-01
 -1.4673051e-02
 -3.2102361e-02
  5.7864111e-02
 -6.5664761e-02
 -5.0664734e-02
  3.0712737e-02
  2.9850677e-03
 -6.6273019e-02
  8.0499306e-02
 -1.7043112e-03
  6.0458835e-02
  1.2351996e-01
 -3.9021228e-02
 -2.8666353e-02
 -6.6222444e-02
  2.9707232e-02
 -2.0194167e-02
 -1.6104197e-02
 -1.0232381e-02
  1.6858410e-02
 -3.4906589e-03
 -1.4410459e-02
 -3.5159290e-02
  2.1791458e-02
 -3.0868692e-02
  8.2042843e-02
  2.4228396e-02
 -1.3835939e-02
  9.7930431e-03
 -2.5443837e-02
  1.7060868e-02
  1.7443275e-01
 -1.2418999e-02
 -8.3365868e-04
  1.7544639e-04
  8.1028193e-02
 -7.1622148e-02
 -3.8984856e-03
 -3.1397615e-02
 -4.2796388e-02
  2.3763480e-03
 -2.0620978e-01
 -3.2168962e-03
 -1.2461256e-02
  5.1092695e-02
 -1.5712426e-03
  1.1684161e-01
  7.4829489e-02
  1.4873056e-01
 -5.8835510e-02
  6.8798184e-02
  7.0326753e-02
  6.8714142e-02
  1.8266719e-02
  7.3078647e-02
  6.3987285e-02
 -9.6234307e-03
 -4.1479836e-03
 -2.4093786e-02
 -6.5581501e-04
 -3.4392636e-02
  1.2931781e-02
 -4.2955596e-02
 -8.5188217e-02
  1.2519120e-01
 -5.0401497e-03
  4.6230134e-02
 -1.5125393e-02
  5.8266915e-02
 -8.0011063e-04
 -4.3605030e-02
 -1.2026489e-01
 -7.8044221e-02
 -7.1127638e-02
  1.2137516e-02
 -5.1212329e-02
  4.1265357e-02
  5.0441280e-02
  7.6799273e-02
 -1.8834560e-01
  6.3884109e-02
  4.0738136e-02
 -7.9284698e-02
  1.0338782e-02
  6.6176474e-02
 -1.3869457e-01
 -8.1653798e-01
 -1.3464797e+00
  4.4711211e-01
 -7.7113163e-01
  1.7394837e+00
  1.0487096e+00
  1.1095411e+00
 -2.2228405e+00
 -3.7678796e-01
  1.3761717e+00
 -2.4544525e+00
 -1.1421870e+00
 -1.6356634e+00
 -1.7949251e+00
 -1.3494306e+00
  1.3631836e+00
  5.9563875e-01
  2.7662382e-01
  7.5747877e-02
  1.4507109e-01
  1.1036658e+00
 -1.0464520e+00
  6.7023605e-01
 -9.6317601e-01
  2.2531213e-01
 -6.7167997e-02
  2.5272706e-01
  8.0536085e-01
  1.9521715e-02
 -7.6765291e-02
 -7.1363336e-01
 -6.6515821e-01
  1.8248580e-01
  8.1487238e-01
 -6.9374573e-01
  1.5841152e-01
  1.5486719e-01
  1.4727974e-01
  1.7585243e+00
 -8.6039668e-01
 -7.5010079e-01
 -1.1459473e+00
  7.0843059e-01
  3.5278377e-01
 -2.7771090e-04
 -9.8997332e-02
  2.1778844e-01
  3.0001158e-02
 -9.4298556e-02
  1.0995247e-01
  1.7796154e-01
  1.6692206e-01
  3.2983243e-02
  3.4720761e-01
  1.7799118e+00
 -1.3101943e-01
  1.9252197e+00
  4.2168517e-03
  3.1390555e+00
  6.0465688e-01
 -5.9964709e+00
 -1.4864816e-01
  1.8387970e-01
  8.0028439e-01
  1.9178256e-02
  4.1729681e-02
 -1.0580225e-01
  7.9778060e-03
  2.4494074e-02
  1.7387387e-01
 -2.5381211e-02
  5.9854943e-01
 -2.6463658e-01
  6.0037926e-02
 -1.4045810e-02
  1.3835175e-02
 -4.5038061e-03
  9.8785393e-02
  5.5171686e-01
  2.1099979e-01
  1.5717638e-01
  6.0801213e-03
 -4.9619265e-02
 -6.5392712e-03
  5.7352427e-02
  5.3950537e-02
 -3.2409422e-02
  1.0006951e-01
 -2.8344989e-01
  7.6131150e-02
  1.7231788e-01
  6.4958106e-03
 -4.1572150e-02
  3.1464145e-02
  1.6072154e-01
  5.7572715e-02
  5.4754764e-02
  2.0613635e-01
 -2.1336496e-02
 -1.9090127e-02
  1.2714346e-02
 -7.1211755e-02
  2.8867522e-02
  5.2953001e-02
 -2.8311342e-03
 -1.0217703e-03
 -3.1222345e-02
 -8.7991029e-02
 -2.2172050e+00
 -1.7968614e-01
 -4.1496524e-01
  3.2961556e-01
  2.4185894e+00
 -2.0011921e+00
 -1.8089643e-01
  7.8489453e-01
  1.3430431e-01
  5.8525586e-01
  5.4170239e-01
  3.4266639e-01
  8.5116260e-02
  2.9476881e-01
  1.0140609e+00
  5.0663692e-01
  4.4953325e-01
 -6.5985955e-02
 -1.9387223e-02
 -1.6543399e-01
 -3.9874697e-01
  6.6509497e-01
 -2.2783864e-01
  7.5013238e-01
 -8.5808024e-02
 -3.6788416e-01
  1.7426774e-02
  5.8436368e-02
 -1.5832339e-01
 -2.3223533e-01
  2.8657502e-01
  1.5474963e-02
  2.1054418e-01
  5.4194224e-01
  4.1424122e-01
 -1.9461279e-01
 -2.1769123e-01
 -1.8574691e-01
 -1.6713308e-01
  2.3711713e-01
 -2.8849864e-01
  7.9731531e-02
 -4.0174711e-02
 -4.1154027e-01
  3.9716627e-02
  1.7282130e-01
 -1.2570384e-02
 -5.8159430e-02
  7.7279799e-02
  5.9305869e-02
 -2.4169814e-03
 -3.5004579e-02
 -1.9752333e-02
  1.8376262e+00
 -1.0015229e+00
 -7.2018474e-01
 -9.2578895e-02
 -3.7278709e+00
 -1.2559243e+00
 -6.1390709e-02
 -6.0307341e+00
  2.7085805e-01
  6.4024127e-01
  1.1736825e+00
  9.0033239e-01
  1.2996785e-01
  4.4874051e-01
 -1.6983961e-01
 -5.1597431e-02
 -2.6773265e-02
  5.3594865e-02
 -6.5210885e-03
  1.0328833e+00
  1.7092273e-01
 -1.1466083e-01
 -5.3949941e-02
  7.6311827e-02
  6.6035777e-02
  1.0905553e-01
  3.7320312e-02
  2.9108801e-04
 -1.2178124e-02
  9.0468265e-02
  1.9920236e-01
 -7.4980147e-02
  3.0935094e-01
  2.2459931e+00
 -3.0385641e-02
  1.2488715e-01
  4.3580207e-01
 -3.4019718e-01
  1.0416451e-01
 -1.2357415e-01
 -5.3749224e-03
  4.2237136e-01
  5.3406607e-02
  2.6988316e-01
 -7.3734857e-03
  9.7562355e-05
 -1.2284319e-01
 -6.5035000e-03
 -6.0243607e-02
 -3.3257965e-02
 -2.3879983e-02
  2.6463311e-02
 -6.1577335e-02
 -1.3578997e-02
 -6.4264812e-02
  3.5157546e-01
 -3.7795268e-02
 -5.6545589e-02
 -6.1924916e-02
  3.8715708e-01
 -4.4896770e-01
  2.1010971e-02
  4.7489330e-01
 -3.2946791e-02
 -1.1365194e-01
  1.7409356e-02
 -1.0695078e-01
 -5.9316348e-02
 -7.2106933e-03
  3.1530622e-02
  4.1876726e-02
  9.1810755e-02
  1.0818733e-01
  5.7898007e-02
  3.1598277e-02
 -3.5353985e-01
  4.8241630e-02
  2.3151645e-03
  1.6799520e-01
  8.9341983e-02
 -2.5592795e-02
  4.2813491e-02
  1.5932228e-01
 -9.5934071e-02
 -1.6445242e-02
  9.7031243e-02
  1.2902056e-01
  2.7779816e-02
 -1.9815679e-01
  2.7003121e-03
 -1.6086048e-02
 -3.4747053e-02
 -2.8702011e-02
 -5.2720074e-02
 -6.2881641e-02
  5.1873256e-02
  1.0941584e-01
 -3.9770186e-02
 -2.1843274e-01
 -4.0239021e-02
  9.2255510e-03
 -1.2711493e-02
 -2.2137549e-02
  1.1483470e-01
 -3.7847806e-02
 -4.4213249e-03
  3.8368534e-02
 -2.4177602e-02
  8.6617157e-02
  1.3768064e+00
  2.2031907e-02
 -5.6840226e-02
  2.1345554e-02
 -6.1589831e-01
  6.7842132e-03
 -1.0344712e-01
 -4.1851424e-02
 -5.0882169e-04
  1.2043401e-02
 -2.4179952e-02
 -6.2522180e-03
  2.6003582e-02
  8.4420934e-02
 -7.6645702e-02
  6.9468126e-02
 -1.6212644e-01
  6.6136897e-02
  7.4502252e-02
  2.7200875e-03
  1.4143796e-01
 -1.0215665e-01
  2.1087164e-02
  4.0713325e-02
  4.1336176e-04
 -2.8418768e-02
 -1.6579222e-02
 -3.2839905e-02
 -1.5996452e-02
  9.6910208e-02
 -5.4105174e-02
  2.5398221e-02
 -2.0920290e-01
  9.1996431e-02
  3.8707803e-03
  6.7227960e-02
 -4.7351032e-02
 -2.2512932e-01
  2.1297450e-01
  1.5625536e-02
  1.7832532e-03
 -1.8500611e-02
 -9.2593143e-03
  7.4795657e-03
  8.3080921e-03
  3.6804587e-02
 -1.3882977e-01
  1.0388500e-01
  2.0471220e-01
 -3.3592790e-02
  1.7190842e-01
 -1.8747287e-02
 -5.0271437e-02
  5.3528953e-01
  8.4185374e-01
 -5.5147624e-01
  2.0268077e-01
 -1.9701222e+00
 -1.3911965e+00
 -1.1554891e+00
 -6.4826384e+00
  2.3612510e-02
 -1.3032108e-02
 -6.5527934e-01
 -1.7363122e-01
 -1.5274206e-01
  1.7028678e-02
 -6.4894897e-03
  1.7962830e-02
 -7.9689547e-02
 -5.5909342e-01
  9.0364307e-02
 -6.3466325e-02
 -8.7719388e-02
 -1.3319882e-02
  2.8872741e-02
  1.2741376e-01
 -1.1894641e-02
  3.3693400e-01
 -2.8207213e-02
 -5.4328982e-03
  1.0044658e-01
  1.0029845e-01
  3.8232386e-02
 -2.7451380e-03
 -6.9795825e-02
 -4.7564041e-02
  5.1200646e-03
 -2.8344944e-01
 -3.1891623e-01
 -2.1111578e-02
 -7.8661814e-03
 -1.0946420e-01
  2.3116596e-02
  4.1356963e-01
  1.1021330e-03
 -9.4154626e-02
 -3.3598263e-02
 -4.0130008e-02
 -6.3435949e-02
 -4.1346729e-02
 -4.5095280e-02
 -2.1960806e-02
  4.3176617e-03
  1.7250699e-03
  4.3352980e-02
  1.8517407e-02
 -1.3153836e+00
 -1.8715492e-01
  3.1514414e-02
 -6.0919452e-01
  5.0120845e-02
  4.7073346e-01
 -4.5191422e-02
  1.0031098e+00
  5.2166528e-01
 -5.6550238e-02
  2.0964581e-01
 -8.2478866e-02
  7.4807227e-02
  1.5675202e-01
 -1.0044680e-01
  2.1805207e-01
  1.0814006e-02
  2.3272288e-01
  2.3031338e-01
  8.5340488e-01
 -1.2180205e-01
 -1.1717560e-01
  1.7554463e-01
 -1.3080227e-01
  2.8756973e-01
  2.6433656e-01
 -6.2212884e-01
  5.5318993e-01
  2.9849699e-01
 -1.0455010e-01
  8.0777369e-02
  5.1771529e-04
  2.2497404e-01
  1.5519743e-01
  2.8149480e-01
  3.2978844e-02
  5.4247554e-02
 -1.2770928e-01
 -3.9916415e-02
 -1.1080404e-01
  3.1587932e-02
 -4.6023875e-01
  1.1878225e-01
  1.7301574e-01
 -2.1957183e-01
 -4.7996275e-02
  4.0194515e-02
 -5.0274003e-02
 -1.1332025e-01
  2.3019135e-02
 -1.6289547e-02
  1.3529286e-01
 -2.5166020e-02
 -1.1814517e-03
 -1.2426901e-01
 -6.3852482e-02
  3.7636086e-02
  3.8345857e-04
 -8.2904147e-03
 -5.7802983e-03
 -2.4795316e-02
  7.8387221e-04
  2.9144755e-02
  2.5132146e-02
  1.0896984e-02
 -5.6736685e-02
  1.9321930e-02
  3.7121652e-03
  1.6809979e-02
  1.7226813e-02
  5.5737410e-02
 -9.7826749e-02
 -1.4637241e-01
  1.3464624e-01
  1.8487211e-02
  2.6261859e-02
  1.8263351e-02
 -7.8747489e-02
 -2.7841225e-01
 -5.9284229e-02
  3.0548584e-02
 -4.1251108e-02
 -3.8853671e-02
 -6.5372251e-03
  3.7577063e-02
 -2.1661865e-02
 -4.8050988e-02
  8.0806926e-02
 -3.9583351e-02
  3.9639883e-03
  7.2127879e-02
  1.3863944e-01
  2.9355025e-02
 -5.3306360e-02
 -1.1491433e-02
  1.8852194e-01
  6.4178780e-03
 -8.8138506e-03
  1.1877327e-02
  3.8352363e-02
  3.6042728e-03
  3.8868865e-01
  4.5783389e-02
 -8.4631247e-03
 -9.7364420e-03
 -1.4271570e-03
  1.6223999e-02
  3.9157569e-02
  2.9709639e-02
  2.8161157e-02
  5.8721185e-01
 -1.1003397e-01
 -4.8922069e-02
  7.3654836e-01
  3.3810419e-01
 -9.8525548e-01
 -3.3321980e-02
  5.7006378e-02
  3.2999441e-02
 -5.0009828e-02
  1.4397084e-02
  7.1887784e-03
 -3.1865712e-02
 -3.1156078e-01
  4.2256914e-02
 -1.9156147e-02
  5.9959978e-02
  1.0887975e-01
 -2.8393837e-03
 -1.0638154e-01
 -4.1923080e-02
  1.7460745e-02
  1.3725918e-02
 -2.4613673e-02
 -4.8351962e-02
  4.4537332e-02
  3.9711863e-02
 -4.3154139e-02
  4.7076181e-02
  4.2170648e-02
 -9.7939841e-02
 -8.5173167e-02
  5.5706929e-03
 -1.1483164e-02
  6.8686642e-02
  2.9134601e-01
 -1.5321872e-01
 -1.0711843e-02
  1.9799875e-02
 -1.9452627e-01
 -5.0834570e-02
 -2.7840814e-01
  3.7096683e-02
 -1.4455551e-02
 -1.4266463e-01
  8.7587396e-03
  4.6973545e-02
 -1.2484684e-02
 -1.6089775e-01
 -1.6937584e-02
 -4.3636957e-01
  5.4865275e-03
 -2.3541303e+00
  5.3677231e-01
 -4.9718614e+00
 -1.1785500e+00
 -1.3259501e+00
  4.6152863e-01
  4.8213083e-01
  7.9967147e-01
  7.8529888e-01
 -3.6068406e-02
  2.9055152e+00
 -1.1309032e+00
 -7.8083601e+00
 -1.9793550e-02
 -1.0321425e+00
  1.0436780e+00
  3.5265431e-01
  2.6340377e-01
 -1.1424114e-02
 -1.5608503e-02
 -1.5559828e-01
 -3.9696053e-02
  5.8260489e-01
  8.3685845e-02
  1.5156099e+00
 -3.6767095e-02
 -7.9627657e-01
  4.0181082e-02
  2.6369044e-01
  5.3108990e-02
 -1.1115714e+00
  5.2584261e-01
 -1.5063395e-01
  1.4800477e+00
  3.3780557e-01
 -5.2628106e-01
  9.6491046e-02
