nep4 2 Ni Au 
cutoff 6 4 104 35
n_max 8 8
basis_size 8 8
l_max 4 2 0
ANN 80 0
 -4.7188607e-01
 -3.6841014e-01
 -2.0270281e-02
  4.2966068e-01
  4.3199301e-01
 -2.7172449e+00
  1.7830662e-01
  1.6080464e-01
  2.9093993e-01
  6.1067350e-02
  6.9011986e-02
  1.4507402e-01
  2.3164232e-01
  1.5481731e-01
 -7.3472876e-03
 -7.3988780e-02
  3.5410102e-03
  2.9357970e-02
  1.8268052e-02
  5.2670468e-02
  3.4707943e-01
 -2.4196200e-02
 -5.6765475e-03
 -1.6451024e-01
  1.3083160e-02
 -3.9245006e-02
 -3.7682420e-03
  6.4944126e-02
 -2.8660315e-01
  1.2434570e-02
 -5.5823612e-01
  1.2812195e-02
  1.1573007e-01
  6.6765793e-02
  1.7513791e-01
  4.4871245e-02
  4.9117014e-02
 -3.6486972e-02
 -3.1762864e-02
 -1.8769098e-03
  1.9418519e+00
 -1.3599843e-01
  5.8115780e-01
  3.1852867e-02
  2.5208735e-01
  2.5306232e-02
 -3.3645812e-02
  1.1186403e-02
  7.0744984e-02
  9.4096527e-02
  6.1220005e-02
  1.7585024e-01
  2.8213540e-02
  1.1666619e-01
 -7.3746091e-04
 -1.4342868e-01
 -4.8435560e-01
 -2.9806194e+00
 -5.5345934e-02
  3.8969332e-01
 -2.8652496e+00
  4.4464622e+00
 -3.7547910e+00
  2.4055074e-01
  1.0498875e+00
  1.6667247e-01
  1.8551643e-01
 -5.9317265e-02
 -2.8869897e-01
 -2.9320559e-01
 -2.8195608e+00
 -2.3946686e-01
 -3.1995162e-02
 -4.2586634e-01
  1.3515803e-01
 -1.0876472e-01
 -4.2733663e-01
 -1.0748466e-01
 -2.7576059e-01
 -1.3791704e-01
  8.2278982e-02
  2.0013417e-01
 -7.1032447e-01
 -1.7137676e-02
 -6.5071768e-01
 -3.7328713e-02
  8.7682344e-02
 -4.8592871e-01
  1.8258987e-01
  3.0109137e-03
  4.5597848e-02
  5.9835702e-01
 -1.3146631e-03
  2.3257789e-01
 -1.9471180e-02
  1.0264383e-01
 -1.8073006e-02
  6.7462675e-02
  3.8036296e-01
  9.9200301e-02
  6.1560214e-02
  1.8258320e-02
 -6.6510513e-02
  1.0008725e-01
 -1.0523845e-02
  8.5156158e-02
 -1.5975051e-02
  1.3594162e-01
 -5.3177554e-02
  9.5375799e-02
 -3.4902042e-01
  1.1980709e-01
 -5.6686290e-02
  6.1497325e-01
 -1.7630291e-01
 -8.3722383e-01
 -1.9832104e-02
 -5.7685245e-02
 -1.0562263e-01
 -9.0014972e-02
 -1.4562768e-01
 -1.2441202e-01
 -4.1957177e-02
 -4.5139935e-02
  5.8168892e-02
 -9.0212792e-02
 -1.1416241e-01
  9.0618752e-02
 -7.1982048e-02
 -7.9759702e-02
  1.2284575e-01
 -1.2828991e-01
  6.8657450e-02
 -3.5568792e-02
 -3.6040816e-02
  1.7180124e-02
  4.8617892e-02
 -4.6682827e-02
  1.3249998e-01
  6.2559612e-02
  1.8069565e-01
  1.0379249e-01
  8.4360868e-02
  9.1677487e-02
  2.0224133e-01
 -1.3796635e-01
 -1.1475752e-01
 -1.3113847e-01
 -7.4618151e-03
 -1.2581463e-01
 -3.9014049e-02
  2.6944157e-01
 -1.5289506e-01
 -6.8818457e-02
 -2.5344668e-02
 -2.2134991e-01
 -5.0165735e-02
  9.5754787e-02
  2.4430923e-02
 -7.8062512e-02
  1.0548848e-02
  4.4523306e-02
  2.1386673e-01
 -9.5920926e-03
 -3.9969251e-02
 -2.7382913e-01
 -2.5686166e-01
 -3.6503915e-02
  3.4179650e-02
  3.2819476e-02
  6.5783843e-02
  1.4166170e-02
 -1.3344985e-02
 -1.6448301e-01
 -7.0827127e-02
 -8.4132224e-02
 -2.3600119e-01
 -6.7490019e-02
 -8.6320341e-02
 -3.9620388e-02
 -3.3774553e-03
 -4.0027348e-04
 -3.6230829e-02
  3.9043032e-02
 -6.2631696e-02
  1.4169759e-01
 -6.7710690e-02
  3.0859608e-02
  2.1955481e-01
  2.6112327e-02
 -2.2703994e-02
  4.8229706e-02
 -1.5913725e-01
 -6.7220442e-03
  3.3857378e-03
  1.4353077e-01
  2.1080379e-01
 -1.1436636e-02
  1.1335597e-02
  3.6893952e-01
  1.7062812e-01
  1.8517988e-02
 -8.2245298e-02
  5.3378977e-03
 -1.7365769e-02
  7.8691646e-02
  2.7088437e-02
 -1.3988885e-01
  2.5066474e-01
 -1.9055223e-01
 -7.3445581e-02
  3.7193902e-02
 -1.1452025e-01
 -2.8445533e-02
  8.5949816e-02
  2.5594914e-01
  1.0552677e-01
 -6.3117124e-02
  9.0132914e-02
 -5.8418717e-02
  9.0542482e-03
  2.5720144e-02
  3.9470129e-02
 -5.8295812e-02
 -2.7980924e-02
 -1.7582377e-02
 -1.0824212e-01
  8.8765755e-02
 -3.3524048e-02
 -9.7969860e-02
 -1.4283001e-01
  4.3413553e-02
  3.6558738e-01
 -8.0068067e-02
  1.5900120e-01
  1.2985240e-01
  3.4403395e-02
  1.7751765e-02
 -9.0691417e-02
 -1.7462736e-01
 -3.3112608e-02
 -1.7625248e-01
 -8.9710794e-02
  5.9865933e-02
 -6.7902066e-02
  1.1812670e-01
 -1.9031072e-01
  6.8586476e-02
  2.5736082e-02
  7.4932531e-02
  2.1133136e-02
 -7.3600501e-02
 -1.6115348e-01
 -6.3617490e-02
  7.0301950e-02
  2.8266791e-02
 -1.2395044e-02
 -2.2454690e-03
 -1.0184395e-01
 -8.1430878e-03
 -7.2110519e-02
 -8.3387733e-02
 -1.7627731e-01
  1.4142230e-01
  6.3672788e-02
 -1.8260397e-02
  5.2419491e-02
 -2.2043057e-02
 -4.3874301e-02
 -1.4843671e-01
  6.3754338e-01
 -5.8492702e-01
  7.5114524e-01
  4.4039124e-01
 -2.3006916e-01
  8.0415255e-01
 -6.2417006e-03
 -1.0200235e+00
 -6.7798114e-01
 -8.8651672e-02
 -5.6939244e-01
 -1.5130295e-01
 -4.5523882e-01
 -5.3728852e-02
 -8.6718953e-01
 -1.6548619e-01
 -8.8737808e-02
  2.7096398e-02
 -3.0046064e-01
  7.8263795e-01
 -4.2122686e-01
  2.3935677e-01
 -3.4896448e-02
 -8.5604869e-02
 -3.7615749e-01
 -1.5806243e-01
 -1.4892042e-01
 -5.9835739e-02
  1.6730446e-01
  7.6876871e-02
  1.5109614e-01
 -4.8273811e-01
 -7.6539403e-01
 -9.9085897e-02
  5.7502877e-02
  5.2871820e-02
 -5.3092659e-01
  5.7088959e-01
  2.4544265e-02
  9.4128691e-02
 -1.6682051e-02
 -4.3256348e-01
  2.1034120e-01
  9.4908543e-02
 -2.8186750e-01
  5.3096939e-02
  4.4839181e-02
  2.2979113e-01
  2.2118954e-01
  5.8895562e-02
  8.3584167e-02
  4.7967896e-02
 -1.8956741e-02
 -1.3618599e-01
  4.3922544e-01
  4.5141593e-01
  3.2379442e-01
  1.5317774e+00
 -2.3789325e-01
 -3.0461943e-02
  6.5520711e-02
  4.5539290e-02
  1.0709237e-01
 -2.9415755e-02
  7.4543349e-02
  1.0240975e-02
  4.8840508e-02
 -8.2764246e-02
 -8.6003207e-02
  8.9723282e-02
 -3.1053862e-01
  8.2218289e-02
 -9.0673715e-03
  2.9457989e-03
  1.0835374e-02
  4.9077351e-02
  1.9376203e-01
  2.5271796e-02
  2.7032999e-02
  7.0835645e-03
  1.5868953e-01
 -4.4542607e-03
 -1.9938271e-02
  4.1374553e-02
  7.2106947e-03
  1.1613323e-01
  8.7701958e-03
  3.1462267e-01
  1.2141925e-01
  1.2347959e-01
  9.9216670e-02
 -1.0035124e-01
 -5.9598241e-02
  8.7101527e-02
  4.4184667e-01
  3.6219612e-02
 -6.1237700e-02
 -7.7692792e-02
  9.7886890e-02
  8.4681556e-02
  1.9193115e-02
  3.8480066e-02
  5.3352542e-02
 -7.0349321e-02
  2.6978013e-01
  7.3577732e-02
  1.1929490e-02
 -1.1360168e-01
 -7.0156068e-01
 -9.3904632e-01
 -6.0749361e-03
  1.7208198e+00
  4.1602531e-01
  3.0230737e-01
  1.8896455e-01
 -2.2530878e-01
 -9.5715076e-02
  3.2556474e-01
  3.6948824e-01
  1.4929264e+00
  1.7149553e+00
  1.7977126e-02
  1.7193998e-01
  3.5464033e-02
  9.1230080e-02
 -4.8984259e-01
  1.8991884e-03
 -1.2803025e+00
 -5.4975754e-01
 -1.9605588e+00
  1.3638143e-02
 -4.9837463e-02
 -8.9338146e-02
 -5.6243235e-01
 -3.4450132e-02
  1.9582357e-01
 -1.7555399e-01
  1.8898923e-02
 -7.1760461e-02
  8.3500944e-02
  1.0563675e-02
 -6.1848094e-03
  1.5489165e-01
  2.4172230e-02
  7.5849581e-01
 -1.3839313e-01
 -2.8223714e-01
  4.1488919e-02
  6.1803097e-03
  1.6059938e-01
  4.2672850e-02
  2.5424799e-01
  8.0463849e-02
  3.2042250e-02
 -1.2484654e-01
 -2.0306483e-01
  6.7350161e-03
 -5.6306012e-02
  8.7668188e-02
  5.5986595e-01
  1.4934701e-01
  2.0500807e-01
  2.0218484e-02
  1.3644953e+00
  4.9204373e-01
  2.3692530e-01
  2.0337935e-01
 -4.1774675e-01
 -1.6141474e+00
  2.5410485e-02
 -3.2118538e-01
 -4.8566025e-02
 -2.3224589e-01
 -2.0852519e-02
 -2.5527808e-01
  8.6416282e-02
 -7.8184538e-02
  1.5828504e-01
  5.6452830e-03
 -1.0132505e-01
  4.7944114e-04
 -2.0610396e-02
  2.9384585e-02
 -1.6187789e-01
 -2.2782134e-01
  1.1962748e-01
 -9.6193314e-02
  1.2984347e-02
 -5.2335091e-02
  1.5580182e-01
 -5.3441472e-02
  2.0446803e-02
  1.0203878e-02
 -8.8863648e-02
 -3.2686263e-02
  9.2282603e-03
  2.9023470e-02
 -2.3659188e-03
 -6.4749229e-03
  6.6044547e-02
  1.8804781e-01
  1.5252015e-01
 -2.0517441e-02
  1.0279809e-02
 -6.6539259e-03
 -3.4097750e-02
 -2.7503792e-02
  1.5115102e-01
 -1.8255706e-01
 -1.1024063e-01
 -7.8983620e-02
 -7.4785672e-02
  9.2858814e-02
  9.3902349e-02
 -2.0507945e-01
 -4.5334687e-03
  6.0871307e-02
 -1.1900880e+00
  4.7856016e+00
  4.5118032e+00
  1.0364927e+00
  1.4216800e+00
  5.7158214e-01
 -1.5437262e-01
 -1.5077705e+00
 -2.3061914e-02
  9.2357453e-03
  5.6777056e-03
  8.6531542e-02
  6.3835762e-02
 -5.9323339e-03
 -1.7957830e-01
  1.3072634e-01
 -1.7038459e-01
 -1.4940448e-01
  4.0817197e-02
 -1.4761141e-01
  1.6116241e-01
  2.5414765e-01
 -2.1106377e-01
 -4.8861522e-02
  3.5593141e-02
 -1.0114639e-03
  3.9298881e-02
  3.6490938e-01
 -7.8548826e-02
  6.0980465e-02
  2.2183561e-01
 -3.5788778e-02
  2.2250956e-02
  2.0411631e-02
 -3.0625394e-01
  1.9555534e-01
  8.3890678e-03
 -6.1419955e-03
 -3.1804498e-02
  2.5933442e-01
  2.8959479e-02
  4.6049982e-02
  2.3604234e-01
 -1.3182204e-02
 -3.6797613e-02
 -1.6065432e-02
 -1.2203497e-01
  1.8594917e-02
 -1.6870594e-01
  5.1377252e-02
 -3.1643515e-03
 -3.4619407e-03
 -4.1164253e-02
 -3.9922407e-01
 -4.3865703e-02
 -2.9438552e-03
  1.7703394e-04
  1.2629646e-01
  2.8910168e-02
  1.8482975e+00
 -2.3495078e-02
  4.9295701e-02
  1.3383052e-01
  2.7116841e-01
 -2.6723191e-02
 -2.6950902e-01
  5.0797552e-02
 -8.4817417e-02
 -4.5314983e-02
 -1.7227612e-01
 -2.0810819e-01
 -1.9471917e-02
 -2.4064219e-02
 -1.1472753e-02
 -1.2171537e-01
  5.6951202e-02
  8.8024683e-02
 -2.3756999e-01
  1.3364249e-01
 -7.2274752e-02
  4.2408288e-02
  8.3657749e-02
  7.0348531e-02
  1.1827114e-01
 -6.5452956e-02
  1.9664293e-02
  1.9222870e-01
 -4.1949350e-02
 -7.9731137e-02
 -6.5607779e-02
 -5.1257979e-02
  9.6990690e-03
  3.7423134e-02
 -1.0291915e-01
  1.0715374e-01
 -4.0282927e-02
 -1.6377153e-01
  3.1458586e-01
  6.1082460e-02
  1.4848240e-02
  2.2737317e+00
  1.4095032e-02
 -6.1366882e-02
 -3.5250850e-03
  1.0888911e-02
 -2.7678512e-02
  9.5394686e-02
  1.2844073e+00
  1.0963496e-02
  7.8517252e-01
  6.8222088e-01
 -4.8542306e-02
  1.8392898e+00
 -2.4492390e+00
 -1.1350999e+00
  5.5088870e-02
 -1.8747205e-01
  3.7413463e-02
  2.0802157e-01
 -4.9562410e-02
 -1.0343841e-01
 -1.9154433e-02
  6.0747702e-02
  1.8719429e-01
  2.0901941e-02
  9.2066266e-03
  1.5070526e-01
 -2.3503792e-02
 -1.7740607e-01
  5.2307766e-02
  1.4705224e-02
 -1.9132571e-02
  9.7450012e-01
 -1.8746385e-02
 -3.8987347e-03
 -6.7939140e-02
  8.1114762e-02
 -2.7548531e-02
 -2.8402919e-02
  1.0984210e-02
 -1.4300977e-01
 -2.9824361e-01
  9.5664099e-02
  2.7553967e-01
  3.2166669e-01
 -1.2598059e-02
 -1.4004186e-03
 -2.6841387e-01
 -1.2428231e-01
 -6.6989209e-03
  2.1271478e-01
  8.2657412e-02
 -5.2874967e-02
  2.4386720e-01
 -2.7842050e-02
 -3.0382130e-02
  2.6084984e-02
 -2.0354468e-02
 -1.7662011e-01
 -1.6972914e-02
 -5.3706821e-03
  4.4829206e+00
  2.9722917e+00
 -7.6766634e-01
 -5.5073118e-01
 -3.2857915e-03
 -1.2354590e+00
  2.8543992e+00
  3.7527397e-01
 -3.0133979e+00
 -2.2206320e-01
 -2.4349116e-02
  1.6041385e-01
 -2.5870526e-01
  1.0960538e-01
  1.1576287e-02
 -2.0297399e-01
 -1.3979600e-01
 -1.1162430e-01
 -2.7037212e-01
  3.5574451e-02
 -1.8984163e-01
 -2.0734408e-01
 -9.9761647e-01
  3.0142868e-01
  2.2250102e-01
 -1.0411365e-01
 -5.7275966e-02
 -8.3323979e-01
  1.0102402e-01
 -1.0742122e-01
 -8.0716908e-02
 -2.2610126e-02
 -4.3868905e-01
 -5.7271615e-02
  2.0018272e-01
  4.0289041e-02
 -1.2801820e-01
 -1.4892077e-01
  1.0881823e-02
  4.0648994e-01
  1.8873556e-01
 -1.4259626e-01
 -2.4561761e-02
 -3.0882496e-01
  2.0119202e+00
  3.5736434e-02
 -6.1939713e-02
  4.5874327e-02
  3.5461240e-02
  1.3275707e-01
 -1.1742672e-01
  6.5381587e-02
 -7.8401014e-02
  4.6608724e-02
 -2.1325384e-01
 -1.1987940e-01
  2.5764525e-02
 -1.1430686e-01
 -1.0772005e-01
  1.1561395e+00
  3.1977527e-02
 -4.3315434e-01
  2.1521784e-02
  1.1195868e-02
 -4.7522433e-02
 -6.1239921e-02
  2.6439251e-02
 -5.3997144e-02
  1.0019185e-02
  3.3351861e-02
 -1.7496189e-02
  3.9709863e-01
  1.6718616e-01
 -1.0998932e-01
 -8.8802047e-02
 -3.3709320e-01
 -2.3192117e-02
 -2.3857008e-01
  1.4036100e-01
  1.2302503e-01
 -1.6844517e-01
 -4.6420982e-03
  1.9079524e-01
  1.9681609e-01
  5.3916022e-02
 -5.2792069e-02
 -1.9977102e-01
  1.3098738e-01
  4.8055401e-01
  1.7324342e-01
  1.0692327e-01
 -1.2344600e-02
  2.0326005e-01
  2.0813447e-01
 -1.5140426e-03
  1.9237064e-02
 -1.4276921e-02
 -4.9350344e-02
  1.3995797e-02
 -4.5045316e-02
  2.6965905e-02
 -4.9637478e-02
 -1.9925353e-03
  3.7176192e-02
  1.7998669e-02
 -2.2685966e-02
  3.3038534e-02
 -8.4968150e-02
 -1.9434437e-02
 -7.6102018e-01
 -9.8895922e-02
 -1.3564083e-01
  5.1559787e-02
 -2.3081142e-01
 -5.0424457e-01
  7.2412342e-01
 -2.7456656e-01
  1.9009644e-02
  7.3360801e-03
  3.4288101e-02
 -1.8428972e+00
 -2.8564775e-02
  4.3533750e-02
 -1.7585981e-01
  3.0826056e-01
  4.2156626e-02
  1.0010962e-01
 -1.6951716e-01
 -1.5162562e-01
 -7.6755616e-03
  4.6332266e-02
 -1.0306182e-02
 -7.8340527e-03
  1.3419974e-01
  1.7916964e-01
 -1.2550537e-01
  7.9810858e-02
  1.8705864e-02
 -1.0226696e-04
 -1.6352750e-01
  1.0539253e-01
 -1.7390413e-02
 -6.6839385e-01
 -5.6124133e-01
  1.0086170e-01
 -1.5480697e-01
 -3.2379624e-01
 -1.5996127e-01
 -1.3284732e-01
  4.5458189e-01
 -1.0939718e-01
 -3.1507939e-01
 -4.6265876e-01
 -2.0439880e-01
  1.8997663e-03
 -8.3774418e-02
  8.8683143e-02
 -3.9397486e-02
  9.3098041e-03
  1.3987605e-02
 -2.0747662e-01
  1.3642488e-01
 -4.3506715e-01
  6.6411756e-02
 -5.1354725e-02
  8.5793227e-01
  1.5901969e-01
 -1.0679728e+00
 -6.2914537e-03
 -6.1883336e-01
 -4.1423958e-02
 -2.5649028e-02
  1.1384219e-01
  3.9300136e-02
  2.9936725e-01
  7.7239789e-02
  1.2238536e-02
  2.5624275e-01
  2.1597742e-01
  3.4629506e-01
  8.9662865e-02
  1.0723078e-01
 -6.2502307e-01
 -1.7057387e-02
  1.8019502e-01
 -5.2931500e-03
  1.7395410e-01
  6.9941454e-02
  3.7684005e-02
 -1.2338277e-02
 -8.1009120e-03
 -3.6512429e-03
  3.1398058e-01
  1.9376757e-02
 -3.7946858e-02
  4.0489885e-01
 -1.3655236e-01
  7.4791476e-02
 -1.4904700e-01
  1.4265668e-01
  3.4563869e-01
 -1.7394740e-02
 -2.5949106e-02
  1.2111359e-01
  3.3535555e-01
 -1.1556901e-02
 -3.7334334e-02
 -5.7784334e-02
  1.4757484e-02
 -9.0990946e-02
  6.0134977e-02
 -7.6202795e-02
 -1.6880685e-02
 -2.7928850e-01
  1.6906375e-01
 -7.3944263e-02
  5.9760973e-04
 -1.5034148e+00
 -9.1839588e-01
  3.1949615e-01
  1.0344149e+00
 -7.3680677e-02
  2.1125152e+00
 -7.9954517e-01
 -9.7969978e-04
  5.2264971e-01
 -3.5076376e-02
  4.5835614e-01
 -5.2286941e-01
  8.9574549e-03
  1.4026438e-01
 -1.9682351e-01
  1.1950532e+00
 -8.3300048e-01
 -2.3723567e-01
 -1.7952433e+00
  1.4775087e-01
 -3.0921381e-02
 -1.1315831e-01
 -1.8338609e-02
  1.1251184e-01
 -5.6581086e-01
 -2.4987280e-01
 -2.9996446e-01
 -2.0102255e-01
 -1.6538732e-01
 -1.6113896e+00
 -8.1928648e-02
  2.7971333e-01
 -1.5989314e-01
 -1.6443318e-02
 -2.2919308e-01
 -1.2327117e-01
  4.6327814e-01
  4.4996589e-02
  1.3808393e-01
 -7.1332693e-02
 -3.4509577e-02
 -1.5775061e-01
  4.2555895e-02
  3.0568451e-01
  6.7308068e-02
 -4.5014516e-02
  3.3357643e-02
 -1.2524464e-02
  5.2689251e-02
  1.7057247e-02
 -1.3798958e-01
 -1.1393157e-02
  1.1459548e-01
  5.0589353e-02
 -5.1226068e-01
 -5.6469332e-02
 -1.1959224e+00
  1.7885093e-01
  8.3714604e-01
 -8.5366791e-04
  2.0997353e+00
 -1.4756931e-01
 -1.0595619e-01
 -9.3729921e-02
  1.4242058e-01
  5.6846666e-01
 -1.0208915e-01
 -6.2352140e-02
  1.6741064e-01
  2.0145679e-02
 -3.0565787e-02
  8.2075246e-02
  3.1563692e-02
  1.7416088e-02
  8.7302364e-02
 -1.2392812e-01
  3.8370579e-02
  4.5909375e-02
  2.5049606e-03
  1.6688217e-01
  9.0522310e-03
  1.3884023e-01
  1.7391771e-01
  5.1901948e-01
  7.0630707e-02
  3.3564195e-01
 -2.4673653e-01
  2.1886287e-02
  1.2126791e-02
 -4.5046989e-02
  7.5867943e-02
  4.6971017e-01
 -6.1409418e-02
  3.4963790e-02
  6.7677565e-02
  3.1498733e-01
 -3.7764341e-02
  2.3311602e-02
  8.9448936e-02
 -1.0632634e-01
 -8.4863149e-02
 -8.1728408e-03
 -2.8678702e-02
 -7.5645618e-02
 -2.8261480e-01
  3.2073066e-02
 -4.8401911e-02
  1.2013885e-01
  2.0247233e-01
  5.2961476e-02
  1.9942146e-02
 -7.7261152e-03
 -1.0926890e-01
  1.7029164e-02
  1.1039981e-01
  1.0729834e-01
 -7.8270905e-02
 -6.3222453e-02
  1.5326588e-01
  7.2554894e-02
 -6.1432436e-02
  4.8165213e-02
  4.6270877e-02
 -2.5259232e-02
 -2.1465568e-02
  5.1416731e-03
 -1.1988734e-01
 -1.6201179e-02
 -7.5312182e-02
  2.3225866e-02
  1.3636604e-02
  2.0775555e-02
 -1.9472958e-01
 -1.3840299e-02
  5.3893244e-03
 -1.1370085e-01
 -2.8513509e-01
 -1.4699179e-01
 -1.0424198e-01
  3.1599909e-02
  4.0981802e-01
 -9.1484524e-02
 -7.6103755e-03
 -7.9594567e-02
  1.1132975e-01
  6.6595145e-02
 -9.2773281e-02
  1.6652394e-02
  8.4712669e-02
  3.5986461e-02
 -1.4781313e-01
  2.7680346e-01
  2.0256077e-01
 -4.8861090e-02
 -1.7446823e-01
 -2.0429271e-03
 -1.2416185e-01
  1.2566531e-01
  1.4308293e-01
 -3.2003608e-01
 -3.6591411e-02
  4.8024395e-01
 -9.2030895e-01
 -7.4961787e-01
 -1.3104252e-02
 -2.8366739e-01
  2.4863691e+00
  1.7181901e+00
  1.4330000e+00
  3.8203895e-01
 -1.0915451e-01
  2.0690313e-02
 -7.4479729e-02
 -1.2928910e+00
  1.3150478e-02
 -1.7053542e-01
 -5.0217032e-01
 -2.5943922e-02
 -1.5087563e-01
 -5.3987071e-02
  7.6120868e-02
  1.7105640e-01
  2.6136708e-01
 -2.8241072e-02
  7.4750125e-02
 -7.4069098e-02
 -4.6860248e-02
 -6.8881936e-02
 -2.1389879e-02
 -4.3824646e-01
 -8.8618286e-02
 -2.2913274e-01
  8.9943625e-02
  1.2202752e-02
 -8.9639023e-02
  5.3838138e-02
  3.5797134e-02
 -1.6882440e-02
  2.8471248e-03
 -1.7796883e-02
 -2.4050960e-01
 -1.5060289e-02
 -4.1840017e-02
 -1.6070142e-02
 -2.0577101e-01
  4.5171371e-01
 -1.4442460e-03
  4.3810993e-02
  5.5483818e-02
 -6.8677217e-02
 -3.0118253e-02
  1.0669228e-01
 -1.3425313e-02
  7.8792032e-03
  6.3527741e-02
 -1.3319517e+00
 -2.4125013e+00
 -3.3083931e-01
 -3.8977578e+00
 -2.6445526e-01
  1.0452865e+00
 -4.8440981e+00
  3.6516115e-03
  1.1730048e-01
 -1.9540390e-01
  4.1947111e-01
 -5.4759745e-02
 -7.3019765e-02
  7.3067635e-02
  1.3687476e-02
 -2.0208766e-01
 -9.8079014e-01
  8.0690986e-01
  6.2699835e-03
 -8.2688648e-01
 -2.5303394e-01
  8.7616757e-02
 -1.3433616e-01
  1.9079514e-01
 -2.1400850e-02
 -4.2611402e-01
 -2.7370930e-01
  1.8233462e-01
  5.5844046e-02
 -2.3758688e-03
 -8.4999539e-02
 -4.7289465e-02
 -2.5013159e-03
  1.5169772e-02
  1.0550427e-01
  7.6173238e-02
  2.3208610e-03
 -5.3465385e-02
  7.4774034e-02
 -4.5004550e-02
 -6.0102206e-02
 -2.1331756e-01
  1.2094039e-01
 -1.3841628e-01
  1.8638179e-01
 -7.9679929e-02
  6.8095557e-02
 -1.8132384e-01
 -1.9000642e-02
 -2.2376977e-02
 -5.0672144e-02
 -4.4642176e-02
 -6.7202106e-02
  1.3211149e-01
 -9.9098064e-02
 -5.3638585e-02
 -2.2382720e-03
  1.9766604e+00
 -5.3539000e-02
 -3.6370388e-01
  1.4668652e+00
 -7.2033079e-03
 -4.5319012e-01
 -1.9445845e-03
  6.1960317e-02
  9.0577833e-02
  5.4671053e-02
 -1.8721841e-02
 -2.3059363e-02
 -8.6705603e-02
  2.7680182e-01
 -3.0798304e-01
 -3.6592152e-02
 -1.0039109e-01
  3.0655092e-01
 -3.4365363e-03
 -2.2102136e-02
 -1.9684200e-01
  3.4663837e-02
  4.0845513e-02
  2.7473329e-02
 -7.6884842e-03
 -1.5460634e-01
 -7.1814969e-02
  3.3030227e-01
  8.1948284e-03
 -4.1701087e-01
 -1.6570629e-01
  4.4101388e-03
  4.8283320e-02
  1.3180628e-01
  1.6920676e-02
  8.7423123e-02
  8.0544669e-03
  2.1563235e-01
  5.7603721e-02
  3.6612013e-01
  4.6343893e-02
 -1.4616220e-01
  1.3347892e-01
 -2.5754426e-02
 -6.5958880e-02
  3.1087114e-02
  1.6180570e-01
 -1.1201765e-01
 -8.2085598e-03
  4.7118678e-03
 -6.5567885e-03
 -4.1945297e-02
  1.2015254e+00
 -1.3536187e+00
  3.7457740e-01
 -6.7930472e-01
  1.1982691e+00
 -8.2913256e-01
 -4.8057255e-01
 -3.5382560e-01
 -2.9291847e-01
 -9.9689960e-03
 -2.0940344e-01
 -7.5639553e-02
  6.0034841e-03
 -5.2959491e-03
 -3.5529736e-02
 -3.2473916e-01
 -3.8074476e-01
 -6.3611187e-02
  4.1304763e-02
 -7.3287916e-01
  1.6472945e-01
  6.9129780e-02
 -1.3858894e-01
 -4.5651086e-02
  7.5250410e-02
  3.0444015e-02
 -1.2231558e-02
  1.3885414e-02
 -5.0188708e-01
 -9.1818072e-02
  1.3747078e-01
 -1.4291066e-02
  3.1739107e-01
  5.3843450e-02
 -9.3639225e-02
  2.7552521e-02
 -5.8372900e-02
 -1.1281757e-01
 -3.2478005e-01
 -2.8135619e-01
 -9.3648292e-02
  1.3776040e-01
  1.4885458e-01
  1.7585385e-01
 -1.4544101e-02
  2.5719818e-02
  3.0313923e-03
 -9.6992649e-02
 -2.4683395e-02
 -1.9050485e-01
  3.1418487e-02
  1.0161550e-01
  2.3454957e-01
  9.3888734e-03
 -5.6753814e-02
  1.3076603e-01
  8.8641597e-03
 -1.6825806e-02
  1.3277061e-01
 -7.0838183e-02
 -9.7459859e-01
 -8.2553197e-03
 -1.2177887e-01
  9.9000093e-03
 -2.1000154e-01
  5.4835875e-02
  4.6758998e-02
  1.0077623e-01
 -3.9530811e-03
 -2.9654408e-01
  9.0795822e-02
 -8.0960378e-02
  3.7246150e-01
  3.3666916e-02
  4.2370323e-02
 -3.2588124e-02
 -1.4899103e-01
 -2.9062939e-01
  4.8347887e-02
 -6.0510684e-02
  7.1625128e-02
  5.7966188e-02
 -5.4425731e-02
 -2.3024268e-01
 -2.7128119e-02
  2.4910264e-01
 -6.7347564e-02
 -5.4121470e-01
  5.7961382e-03
  6.2579429e-01
 -1.0984685e-01
 -6.8144661e-01
 -2.9294519e-02
 -2.9719776e-01
 -1.6105528e-01
 -2.6888568e-02
  5.5342894e-03
 -1.3789774e-01
  2.2705381e-01
 -1.8155454e-01
 -2.1902349e-02
  2.9462352e-02
 -5.9239240e-03
  4.1534159e-02
 -8.3547803e-03
  3.9771557e-02
 -1.0705286e-01
 -1.1781523e-01
 -5.7127450e-02
 -4.9103048e-02
  2.2069843e-01
  2.5487259e-01
  2.3347644e-02
 -2.4286173e-01
 -9.5828027e-02
 -8.4197946e-02
 -4.6206519e-02
 -1.4305863e-01
 -8.0202542e-02
 -9.6352369e-02
  2.0822673e-01
 -1.1466419e-02
 -2.2588423e-01
 -3.3332277e-02
  3.2801592e-01
 -3.9113309e-02
 -7.6317184e-02
 -2.1512496e-01
  1.3152708e-01
  1.0967580e-02
  6.5774940e-02
  1.0940345e-02
  9.3058497e-02
  8.1015483e-02
  9.9559382e-02
  3.4399834e-02
 -3.1225514e-01
 -5.2350271e-02
 -3.2446675e-03
 -2.1501985e-01
  4.7717702e-02
 -3.4420773e-02
 -6.1467253e-02
 -6.5656759e-02
  1.2017007e-01
  7.9201072e-02
 -1.7595273e-02
  8.4371157e-03
 -2.1345389e-01
  9.7193066e-03
 -1.8790849e-02
  7.4718945e-02
  2.2399554e-01
 -2.8426778e-02
 -8.2747482e-02
 -3.8867127e-02
  6.3112475e-02
  5.9854038e-02
  1.2808523e-02
 -1.2196899e-02
 -2.6179425e-02
  1.4621199e+00
 -3.7712470e-02
  1.4640947e-01
 -5.2253789e-01
  5.9799436e-02
  8.0124003e-01
 -1.2280635e-03
  2.8566006e-01
 -1.5245914e-02
  6.5958323e-03
  1.6968550e-01
  1.2787697e-01
 -7.3576942e-02
 -1.9720177e-01
 -1.2621421e-01
 -1.8616168e-01
 -8.9838304e-02
  1.2214241e-01
  9.8196015e-02
  2.4475425e-02
  4.2712446e-02
 -6.4532220e-02
  9.1353893e-02
 -4.1287884e-02
  1.6860174e-02
  6.9747113e-02
  2.0048273e-01
 -1.7066792e-01
 -5.0840467e-02
  3.1278815e-02
  3.5203847e-01
 -8.2743056e-02
 -2.1503771e-02
 -9.1038421e-02
  5.0799683e-02
 -1.0715151e-01
  4.7932163e-02
  1.4007302e-01
 -1.1956118e-01
  6.8368956e-02
  1.4063515e-01
  1.7906771e-03
 -3.2339051e+00
 -1.5344355e-01
  1.2649357e-01
 -1.1236542e-01
  4.0593006e-02
 -1.2254857e-02
 -1.1784387e-02
 -3.2254908e-02
  5.2075632e-02
  1.9136848e-02
  1.5372598e-02
  2.0686097e-01
 -7.8915328e-01
 -9.7494262e-01
 -1.4654908e-01
  1.9973210e-01
  6.4164335e-01
  6.9829917e-01
 -3.4002683e-01
  1.4401606e+00
  2.4576391e-01
 -1.2808233e-01
 -7.2610050e-02
 -1.6854595e-02
  2.3557493e-01
  9.9163204e-02
  4.3000340e-02
  2.6524099e-02
  1.6133380e-01
 -5.6872670e-02
  1.5044583e-01
 -6.0956877e-02
  3.9879751e-01
 -1.9372074e-02
 -4.1911118e-03
  4.1402161e-01
  1.6512333e-01
  1.6122293e-01
  4.2217544e-01
  1.9219108e-02
 -1.3041613e-02
  3.3406392e-01
  2.3605853e-01
  3.2088050e-01
 -3.0004047e-02
  7.0419244e-02
 -4.7906899e-01
  2.2141875e-01
  5.8138140e-02
 -4.4282723e-02
 -2.3857815e-02
  9.8162107e-02
  8.4928274e-01
 -2.0039499e-01
  4.7430021e-01
 -7.9049498e-02
  5.0775591e-02
  4.0354315e-02
  2.3033407e-02
  7.2037913e-02
  1.2064434e-01
 -1.5625618e-03
 -6.1856054e-02
  5.3961888e-02
  4.5824159e-02
 -1.2308110e-02
  7.0693068e-02
 -1.0901127e-01
  5.9257019e-02
  4.3328445e-02
  2.5864211e-01
 -2.2549918e-02
 -1.0507391e-01
  3.4523431e-02
  5.6964103e-02
 -7.4757054e-02
  9.2453644e-02
 -5.6892335e-01
  7.1554020e-02
 -8.7478727e-02
  3.1859372e-02
 -1.0922553e-02
  1.1353252e-02
  1.0349916e-01
  4.4298045e-02
  4.9010240e-02
 -4.4570985e-01
  4.4109166e-02
  1.2280969e-02
 -2.9822219e-02
  1.0780019e-01
  2.4066715e-02
 -6.0981587e-03
 -1.7616071e-01
  1.4865884e-01
  1.3920575e-02
  2.5731629e-02
  1.6044892e-01
 -1.0812893e-01
 -1.7622156e-02
 -9.9119388e-02
 -1.6087120e-02
 -1.8580075e-02
  2.1670656e-02
 -7.8174390e-02
 -1.2617111e-01
  1.4385819e-01
 -2.5524956e-01
  6.6734195e-02
  2.3012325e-01
  3.3527970e-01
 -2.1300834e-01
  2.2206843e-01
 -1.9707281e-02
  6.6296846e-02
 -2.9651282e-02
  8.6908221e-02
  1.0179426e-01
  1.7953469e-01
  1.1782041e-01
 -5.1013138e-03
 -1.5683852e-01
 -6.8041854e-02
 -3.0396798e-01
 -1.0631098e-01
 -3.3445276e-02
  2.0362043e-01
  1.7407145e-02
 -1.9566150e-01
 -4.7242932e-02
 -4.1973982e-02
  3.1491076e-03
 -4.8201613e-02
  8.3759539e-02
  5.4759525e-02
 -8.6948395e-02
 -1.3521464e-01
  1.3078244e-01
  2.0612601e-02
  2.5556466e-01
  4.6376716e-02
  7.7458024e-02
 -2.7064180e-02
 -2.1112859e-02
  5.6666240e-02
  5.5148605e-02
 -1.0627626e-01
  1.8934255e-02
 -3.8169980e-01
  5.0184835e-02
  1.0619746e-03
 -8.4838957e-02
 -3.9323573e-03
  5.4053098e-02
 -1.0393474e-01
 -1.3667278e-01
  8.2739979e-02
  4.8516285e-02
  1.7097320e-02
 -1.0191382e-01
  3.6108896e-01
 -2.2390734e-02
  8.1313297e-02
 -8.1628099e-02
 -7.8072481e-02
 -1.7644545e-01
  2.8844798e-02
 -1.3069993e-02
 -2.7789606e-02
  4.2303111e-03
  1.6844968e-01
  1.3068077e-01
 -1.4033654e-02
 -1.2909651e-01
  3.9751078e-03
 -1.0148821e-01
  1.2816258e-01
 -1.1967032e-01
  7.6243922e-02
 -1.2284077e-02
  3.8829502e-02
 -1.9234316e-02
  2.1874076e-01
  8.1961617e-02
  5.9091765e-02
  9.5155500e-02
 -2.6764113e-02
 -1.2515739e-01
 -9.8579098e-04
  1.9780360e-01
  2.8694717e-02
  7.4606180e-02
 -1.6071616e-01
  1.5774201e-01
 -1.5764734e-01
  5.9828181e-03
  7.6548725e-02
 -1.9004289e-03
 -6.9349721e-02
 -1.0553678e-01
  4.9620394e-02
  2.2638112e-02
 -1.0873343e-01
  1.1234449e-02
  9.8070703e-02
  3.1064777e-02
 -7.6668628e-02
 -2.3570154e-03
  5.3201620e-02
  1.7938213e-01
 -2.3631537e-01
  5.0644841e-02
 -3.1899340e-02
 -1.4456049e-01
  1.6567963e-01
  1.4258620e-01
 -1.3162003e-01
 -1.4311202e-01
  4.9919233e-02
 -6.3431911e-02
  9.1546392e-01
 -1.0301433e-01
  4.8413388e-03
 -1.2148241e-01
  2.0399454e-01
  3.0223489e-02
  3.5017379e-02
 -1.0465672e-01
 -1.6437612e-01
  3.8268530e-01
  5.5209649e-01
 -3.0245122e-01
 -2.9649688e-02
 -1.2640421e+00
 -1.1555707e+00
  4.8190129e-01
 -3.6362031e-01
  8.0905650e-03
 -7.1563825e-02
  9.4739735e-01
 -2.4456757e-01
  2.4550806e-01
  9.6841007e-03
  2.3040457e-02
  1.6131105e-01
  1.0453247e-02
 -1.6185440e-02
  9.7927645e-02
  8.3282210e-02
  2.6094697e-02
  4.1555572e-02
  1.0863449e-01
  3.9282437e-02
  3.5199705e-01
 -3.5007045e-01
 -3.8157424e-01
 -4.0476644e-01
 -5.5863947e-01
 -1.7060597e+00
  3.5709298e-01
  2.3539411e-01
  2.8966801e-02
  2.4534380e-02
 -1.7109421e-01
 -6.2951691e-02
 -1.1362771e+00
 -2.1860082e-01
 -6.1969531e-01
  1.1420481e-01
  2.6323976e-02
 -2.5960869e-01
 -1.5458056e+00
  1.0001472e-01
  3.6543097e-02
 -3.0416751e-03
  4.0442631e-02
 -5.5017773e-02
 -5.0208513e-02
 -7.6123103e-02
  6.7003816e-03
  9.2172204e-03
 -4.6050027e-03
 -5.6051254e-01
  7.3874816e-02
  5.1792139e-01
 -5.9208721e-01
  2.2298589e-01
  3.4001723e-02
 -4.7271705e+00
  4.8956033e-02
  2.4050656e-01
 -4.7881775e-02
  1.6351417e-01
 -7.4946508e-03
  1.0801705e-01
  5.6841955e-02
 -8.7799013e-02
 -2.1192418e-02
 -3.9835429e-01
  4.5646936e-01
  3.6123749e-02
 -1.1906378e-01
 -1.5079631e-01
  7.9166107e-02
 -1.3964047e-01
 -9.9800423e-02
 -9.2316844e-02
 -1.2333369e-01
 -1.6419959e-01
  1.7385489e-01
 -2.1131014e-02
  1.1701960e-01
 -2.1645406e-01
 -3.7960638e-03
 -1.3294575e-01
  4.1907832e-02
  4.2892215e-01
 -4.3927249e-02
  3.7582841e-02
 -3.7770316e-03
 -1.2408207e-01
 -7.0584297e-02
  6.8432748e-02
 -4.6474542e-02
  1.4223228e-02
  2.8903824e-01
 -8.9799047e-02
 -2.3781512e-02
 -3.2601885e-03
 -8.8066079e-02
  1.1315201e-01
  3.8770638e-02
 -3.5022542e-02
 -1.1352933e-01
 -1.9358863e-01
  2.5184881e-02
  3.8579765e-01
 -6.9281355e-02
  1.0123465e+00
  3.6801314e-01
 -8.0993849e-01
  1.5047773e+00
  6.7931376e-02
 -9.3783444e-01
  9.1685331e-01
  5.4293383e-02
 -8.4618199e-01
 -2.9218824e+00
 -1.7810135e-01
 -1.5307811e-01
 -2.9255554e-01
 -6.5634899e-02
  9.6360222e-02
  1.0040856e-01
  2.4009456e-01
  4.3282634e-01
  8.4694847e-02
  1.7147067e-01
  1.5008682e-01
 -1.0815945e-01
 -1.9739537e-02
 -3.8945183e-02
 -7.3711254e-02
  8.4834546e-02
 -5.9834743e-01
 -1.6374825e+00
 -5.7008392e-01
 -1.0097720e-01
 -3.7641663e-02
 -1.7821807e-01
 -5.9279051e-02
 -2.2115272e-02
 -8.2531685e-01
  7.0721102e-01
  8.2622963e-01
 -3.8987897e-02
  4.6738457e-02
 -8.4112220e-02
  3.0385656e-02
 -1.8109683e+00
 -1.0271899e-01
  4.3716747e-02
  9.9552445e-02
 -1.0658170e-01
 -2.0215379e-02
 -1.2426920e-02
  2.9105134e-03
 -1.1184265e-01
 -1.8603390e-02
 -2.0473582e-01
  1.1279041e-02
 -2.6357692e-01
  1.2502985e-01
 -6.1985839e-02
 -5.4727636e-02
  1.9472472e-01
  2.2670601e-01
  1.4115633e-01
 -1.4452766e-02
 -3.6050945e-03
 -3.7157759e-02
  7.0497170e-02
 -2.3264027e-01
 -2.0146837e-02
 -9.3078673e-02
 -2.2361518e-01
 -1.1830333e-01
  7.8516565e-03
  2.8870605e-02
  3.1053942e-02
 -1.7900579e-02
 -3.4096986e-01
 -9.0861693e-02
  8.9969352e-02
 -1.6190834e-01
 -8.5339032e-02
 -7.9130821e-02
 -1.2772831e-02
 -1.2679491e-03
  5.3210281e-02
 -1.3330820e-01
  1.9352984e-01
  2.8163287e-01
  1.4254415e-01
 -2.0454274e-01
 -4.1520979e-02
 -9.4945878e-02
  1.7084616e-01
  9.3341507e-02
  1.7648309e-01
  6.6152252e-02
 -2.2381639e-01
  1.8309684e-01
 -7.5458430e-02
  1.7806794e-02
  5.0655909e-02
  7.8473121e-02
 -1.7837591e-01
 -5.1162716e-02
 -2.8431183e-02
 -9.7165525e-02
 -1.0646078e-01
 -7.2352096e-02
 -9.4620943e-02
  1.3654737e+00
 -3.1912155e-02
 -3.0064344e-01
 -5.8689547e-01
  3.0153828e-02
  2.3239987e-01
  7.1342774e-02
  2.7761579e-01
 -2.0681332e-01
  1.0702638e-01
 -2.8132689e-01
  3.8805345e-01
 -8.3037682e-02
  1.6206807e-01
  1.5958214e-01
  1.1662870e-01
  1.1431858e-01
  4.4709254e-02
 -3.0628761e-02
 -1.3985969e-01
  1.1084740e-01
 -6.6927494e-03
 -8.6625293e-03
 -1.9098980e-02
 -1.3984630e-02
 -4.3075729e-02
 -1.3013718e-01
  1.1007430e-01
  1.0258909e-01
  5.3012109e-01
  5.8759167e-03
  3.3616433e-03
  9.4100930e-02
  8.4176332e-02
  1.2361612e-01
 -2.3710473e-02
  1.8330556e-01
 -6.0753876e-01
  2.0087112e-01
 -5.6085718e-01
 -1.1796325e-01
  1.0128748e-01
 -5.5328995e-02
 -1.6416761e-01
  1.9680323e-02
  1.4021280e-01
 -4.9183972e-02
  1.5496254e+00
  4.6314206e-03
  9.2653506e-02
 -2.4896863e-01
  1.4485890e-01
 -9.8989874e-02
 -4.5620546e-02
 -9.3510970e-02
  3.2351583e-02
 -9.9669790e-01
  1.0809924e-01
 -4.0595645e-01
  8.2516533e-01
  1.3376892e+00
 -7.7606297e-01
  3.0603978e-01
  1.4926936e-01
 -3.3875685e-02
 -1.3847023e-01
  7.6226696e-02
 -2.8558627e-01
 -3.9322726e-02
 -7.5115092e-02
 -3.8197286e-02
  1.2255967e-02
  3.9340857e-02
  2.4217900e-02
 -1.5230341e-01
 -5.0217479e-02
 -4.6841048e-02
 -3.6344979e-02
 -2.5113598e-01
  7.4442200e-02
  2.1725367e-01
  1.9339044e-02
 -1.0825209e-01
 -2.3962891e-01
 -6.1398588e-02
 -4.8693621e-01
 -1.8826522e-02
 -6.1002415e-02
 -9.2547322e-03
  9.1711199e-04
 -6.3175345e-03
  4.4956371e-01
 -2.9121664e-01
  3.3701893e-02
 -2.0790114e-01
  6.9817312e-02
  3.0005512e-01
 -5.3369697e-02
  1.2995197e-01
  7.7402353e-02
  6.9642529e-02
  1.2115370e-02
 -1.9897468e-01
 -1.3450615e-01
  2.8548364e-02
  1.2578525e-01
  3.8888031e-03
  4.7418918e-02
 -7.0416451e-01
 -9.1396761e-01
  2.3026721e+00
  3.2494693e+00
 -4.7035303e-02
 -2.9884880e+00
 -1.7109512e+00
  2.6743782e+00
  3.5745776e+00
 -2.9924089e-01
  1.4965023e+00
 -2.0529030e-02
  2.3260884e-01
 -3.1233186e-02
  3.3312559e-02
  2.5016850e-01
 -1.7322645e-01
  3.5990831e-02
  1.4733773e+00
 -6.6920525e-01
 -4.6643507e-01
  3.1196043e-02
 -4.5295197e-01
  4.7379115e-01
 -7.3117900e-01
  2.3366826e+00
  8.3259743e-01
  2.1118917e-02
 -2.0209278e-01
  4.3809769e-01
 -5.2189499e-01
  9.4445720e-02
  8.3490044e-01
  1.4072432e-01
 -6.0402441e-01
 -2.5283907e-02
  3.2268313e-01
  1.4909769e+00
  3.2686567e-01
  1.8382698e-02
 -3.7587840e-02
  1.5396270e-01
  5.9055042e-01
  3.4648959e-02
  4.1853219e-02
 -1.4393987e-01
 -1.1661524e-01
 -1.8799579e-02
  1.8415299e-01
 -1.5825730e-02
  9.9441834e-02
  3.7073292e-02
 -1.8705394e-02
  8.5627489e-02
 -3.3991606e+00
 -2.2687516e+00
 -1.4938872e+00
  4.1383559e-01
  7.2766447e-01
 -6.8940058e+00
 -1.9731125e+00
  9.8903513e-01
  3.3782378e-02
 -9.5924556e-02
 -4.3366775e-01
  2.7919289e-01
 -1.4289578e-03
  3.3566225e-01
 -4.2260587e-02
  5.1281875e-01
 -3.3476062e-02
 -1.2002108e-01
  8.1233390e-02
  5.3428507e-01
  3.0380324e-01
  7.7136189e-02
  7.2623961e-02
 -3.0937028e-01
 -4.6255488e-02
  3.2499838e-01
 -3.1749599e-02
 -1.0013445e-01
 -6.2487262e-01
  2.6942270e-02
 -5.5446607e-01
 -1.2267116e-01
 -1.2079640e-01
  6.6351795e-01
 -1.8242863e-01
 -5.2618563e-02
 -4.0660907e-02
 -1.3138188e-01
  7.6212817e-01
  1.0890362e-02
 -9.5813490e-02
 -5.8680344e-01
  7.4980356e-02
  2.8864008e-01
  7.2509962e-01
 -2.7068466e-01
  1.8129617e-02
 -4.6926644e-02
  3.2485801e-01
  1.1535345e-01
  2.6555610e+00
 -1.2469523e-02
 -1.4432251e-02
 -5.8957849e-02
 -3.3450027e+00
 -2.1261120e+00
 -7.2516805e-01
  1.6156809e+00
  1.3499506e+00
 -1.2774970e-01
 -1.1152041e+00
  2.7879605e+00
  2.7501488e+00
  3.9284185e-01
 -5.2915329e-01
  1.5895259e+00
 -3.4328589e-01
  3.8124779e-01
  3.0348105e+00
 -1.4021757e-01
  1.9246659e-01
 -1.1367656e+00
  2.1391252e-02
 -1.7328876e-01
  8.2871452e-02
 -3.9796781e-02
  8.4608585e-02
 -9.4160847e-03
  9.1969319e-02
  5.3172588e-01
 -2.0420057e-01
  1.1497649e+00
  5.2900579e-02
 -1.3057233e+00
 -2.8344321e-03
  2.6030073e-01
  6.7251784e-01
  9.5623022e-01
 -2.7294600e-01
  6.6997957e-01
 -4.3897908e-02
  2.2363212e-02
 -1.8259935e-01
 -6.2765151e-01
  2.6654556e-01
  1.4893807e-01
  1.0734688e+00
  1.7497204e-02
 -2.1853957e-02
 -6.2798440e-02
 -1.4403132e-01
 -2.6530545e-02
 -1.9220982e-01
  1.4863767e-01
  2.9375805e-02
 -4.6548050e-02
  1.9374888e-01
  2.2404809e-01
 -1.3540137e-01
 -3.2204624e-02
  1.2992592e-01
 -1.9115621e-01
  6.9915533e-01
  1.2702428e+00
 -4.7600478e-01
 -2.2075243e-01
  2.3260793e-01
 -1.4078123e-02
 -1.6927625e-01
 -4.8869412e-02
  8.6606391e-02
 -8.7968213e-04
 -7.6564692e-02
  1.7001736e-01
 -4.5039499e-01
 -4.6328545e-02
  6.5722808e-02
  2.4099413e-01
 -1.5347360e-02
 -1.2363361e-01
  3.8035259e-02
 -8.9261271e-02
 -2.9952082e-01
 -2.5470933e-01
 -8.5343100e-02
 -7.9877228e-02
 -7.6479256e-01
  8.7598644e-02
  1.9872154e-01
  7.8600682e-03
 -2.9758483e-02
  2.9187035e-02
 -2.4836950e-02
  2.7856553e-01
 -2.8923815e-02
 -8.6406596e-02
  2.4205923e+00
  9.8446244e-03
 -6.2135715e-02
 -2.1158734e-01
  3.6645527e-03
 -5.7338320e-02
 -1.7772734e-01
  2.1093881e-02
 -1.3857765e-01
 -3.8108221e-01
  4.7429144e-01
 -1.0681524e-02
  1.1893251e-02
  6.8320289e-02
 -1.5739621e-01
  1.1722191e-01
 -3.0471308e+00
  1.5790600e-01
  2.5555253e+00
  1.9343264e+00
  1.6578633e+00
 -9.7663158e-01
  3.5877690e-01
  1.1586785e+00
  9.8098755e-01
  1.3330486e-01
 -8.3978675e-02
 -2.5792093e+00
  3.0754727e-01
  1.5726258e-01
 -1.8952709e-02
  5.3409971e-02
  6.6824742e-02
 -4.3217313e-02
  8.3933532e-02
 -2.0140728e-02
 -1.7130468e-02
  2.9500106e-01
 -1.3591845e-03
 -3.5459906e-01
  7.2675541e-02
  2.5443127e-02
 -1.7024286e-01
  1.2485391e-01
  5.1440407e-02
 -1.0170344e-01
 -3.0505759e-01
 -1.7460699e-01
 -1.9436526e-01
 -7.0068739e-02
 -8.9348763e-02
 -2.6016422e-03
 -3.4437295e-02
 -1.8674940e+00
 -1.0790090e-01
 -1.5725920e-01
 -1.2489709e-01
  2.3080703e-02
 -2.6464254e-02
 -1.1899956e-02
 -6.1208409e-01
  6.8173476e-02
  3.7629269e-02
 -6.2897066e-03
  1.0807196e-01
 -2.9867649e-02
 -3.3057041e-02
  8.7682791e-02
  3.4989260e-02
 -2.4042931e-01
  1.8180594e+00
 -1.5089856e+00
  4.5095426e-01
 -4.1689634e+00
 -3.1678679e+00
 -1.3525428e+00
 -1.8958789e+00
  3.4490091e-01
 -1.9440360e+00
 -6.8490200e-02
  3.3833870e-01
 -4.8058310e-01
 -2.0205578e-01
 -6.5159255e-01
 -3.3452758e-03
 -1.7066146e-01
  7.7242661e-01
 -4.6961996e-01
 -3.8805631e-01
  4.1090512e-01
 -1.0982360e+00
  2.1067411e-01
 -4.0921092e-01
 -8.0340095e-03
  3.4798259e-01
 -9.4160426e-01
  4.4050941e-01
 -4.2744282e-01
  4.8659545e-01
  2.2088422e-02
  1.2840590e-01
 -8.5102391e-01
  1.3343846e+00
 -1.0867662e+00
 -1.7196566e-01
  3.6590046e-01
 -2.6030120e-01
  7.4392724e-01
  1.6526073e+00
  1.5649412e-02
 -5.0849589e-03
 -9.4881445e-01
  1.4579751e-02
  1.1295219e-01
 -1.3924640e-02
  4.5253322e-02
  3.7231854e-01
  5.7066597e-02
 -6.4547771e-01
  1.2058286e-01
 -5.1100802e-02
  1.8626390e-02
 -3.8883671e-01
 -1.3101573e-01
 -2.4662828e-01
  7.2320425e-03
 -1.6956651e-01
  1.0041172e-01
 -2.0826811e-02
  1.5055321e-01
  1.4013097e-02
  3.9491426e-02
 -3.1245703e-01
 -1.4073133e-01
  2.9484686e-03
 -1.6953725e-01
 -6.0932995e-03
 -1.2688957e-01
  1.2411173e-01
  7.6169372e-02
 -9.4060175e-02
 -1.2624159e-01
  5.8105331e-02
  2.6130193e-01
 -4.0511969e-02
  8.7550431e-02
 -2.4907405e+00
 -7.3018424e-02
 -3.0135751e-01
  2.1098723e-01
 -2.0080258e-01
  1.5113121e-01
 -3.4090936e-01
 -4.6666673e-01
  1.3878334e-01
 -2.8746048e-01
 -7.7395231e-02
  3.6125503e-02
 -2.3328981e-01
 -1.3766825e-01
  1.8091747e-01
  3.3292475e-01
  2.6303776e-02
  4.1969074e-03
  1.0332718e-01
 -4.7953121e-02
  7.0931733e-02
 -2.4164695e-02
 -1.3488968e-01
 -7.5357363e-02
 -1.2668610e-02
  3.4411871e-01
  2.7750580e-02
 -2.5729781e-02
  4.4082154e-02
 -1.0477262e-01
 -4.0130340e-02
  1.3077676e-01
  2.9632360e-01
  6.4825124e-01
  1.1843447e-02
 -9.0207887e-01
 -4.2447679e-02
 -1.1655434e-02
 -7.6227075e-01
  2.8635445e-01
 -1.2734559e-01
 -4.4975419e+00
  3.4168398e-01
  2.1626545e-01
  5.8544266e-01
 -5.3985111e-02
  2.4326007e-01
  2.0499924e-02
  4.9443638e-01
  1.3543996e-01
 -1.2895487e-01
  2.9507030e-02
  2.7902463e-02
  4.7480956e-02
  2.4821185e-02
 -6.0711756e-02
  1.0563319e-02
  5.4943625e-02
 -1.8340518e-01
 -9.7653717e-02
 -3.7339018e-03
 -2.2775320e-02
  3.3723664e-02
 -1.4730708e-01
  1.9104837e-02
 -4.3466326e-02
 -7.5974435e-02
  5.3640693e-02
  8.9528024e-02
  1.6642880e-01
  3.6745083e-01
  4.5723982e+00
 -5.0062016e-03
  8.0753751e-02
  1.7914783e-02
 -3.8099170e-02
  8.2344614e-02
  1.0438051e-02
 -2.9126119e-03
  1.8078306e-01
 -1.7188673e-01
 -4.9932525e-02
  1.8670435e-01
  1.2986308e-01
  3.7249506e-02
 -7.0041277e-02
 -1.6054498e-01
 -1.4034891e+00
  2.0556645e-02
 -7.2669852e-01
  3.8990673e-02
 -1.7200748e+00
 -1.0770204e-02
 -7.9076660e-01
  8.1716925e-02
 -3.1009713e-01
  1.9747527e-01
  6.6172905e-02
 -2.1832410e-02
  2.0727043e-01
  4.4070512e-02
 -3.8327828e-02
 -5.6910396e-01
  2.9420728e-02
  1.0536359e-01
  6.7320101e-02
 -7.7137328e-03
  3.1302493e-02
 -1.8806454e-02
 -3.6605816e-02
  1.1714348e-01
  1.1755906e-01
 -1.4006399e-01
 -5.8915462e-02
  8.5159704e-02
 -2.3852244e-01
 -4.7494426e-02
 -7.0692403e-03
 -6.8448022e-02
  6.5579779e-02
 -2.5162887e-02
 -3.6377828e-03
 -1.2386967e-03
 -8.1103332e-02
 -4.5335989e-02
 -1.2794931e-01
  5.5875249e-02
  1.5369184e-01
  9.8233998e-02
 -5.1798038e-02
 -1.0234693e-01
 -7.0925087e-02
 -3.0246008e-02
  1.0051596e-01
  4.9588230e-02
  1.3620351e-01
  1.9219427e-01
  4.6974164e-02
 -2.2087146e-01
 -2.6727006e-02
  7.4215823e-01
  7.6255810e-01
  4.2928362e+00
  6.2586675e+00
  2.9258769e+00
  1.1455029e+00
  5.8647356e+00
 -5.6178266e-01
  2.9716656e+00
 -1.8351056e-01
  1.6846331e+00
 -9.8869610e-01
  1.8873744e+00
  3.5428038e-01
  2.9598039e-02
  3.7507407e-02
 -4.0344472e+00
  3.1082609e-01
  5.5917406e-01
 -7.2379696e-01
 -3.4262002e-01
 -7.3055595e-01
 -3.7368900e-01
  1.1585103e-01
 -1.5020220e-01
  1.4309508e+00
  1.1714207e+00
 -3.8984764e-01
  2.1989611e-01
  2.6993737e-01
 -5.1907283e-01
  1.1339173e-01
 -7.6457728e-03
 -2.0616013e-04
  9.7431719e-02
  2.2006226e-01
 -7.6400926e-03
 -7.0535177e-01
 -2.8922318e-02
 -1.3589686e-01
 -5.5317525e-03
  8.6068638e-02
  2.1943208e-02
 -5.3304023e-01
  4.4704811e-03
  1.4320488e-01
  2.7898975e-02
 -6.5186381e-02
  6.2501281e-02
 -1.0876387e-01
 -8.7673619e-02
 -9.1118790e-02
  6.0708433e-01
  1.4520117e-02
 -9.6275687e-02
 -2.4583177e-01
 -1.2690127e-01
  2.8591506e-02
  2.2867341e-01
  2.4707998e-01
 -9.6815289e-04
 -3.8970965e-01
 -7.2376505e-02
  8.5693546e-02
  4.6270135e-01
  9.2990905e-01
  2.3329429e-01
  7.6295719e-02
 -1.0333622e-01
 -1.0680442e-01
  7.2466421e-01
  3.3441994e-01
  1.7986362e-01
 -1.1490644e+00
 -1.4883433e-01
  2.8051509e-02
 -4.2249881e-02
 -4.9577583e-02
 -3.9578639e-03
 -2.3441562e-01
 -3.1825066e-01
 -4.2042911e-01
  2.4603280e-01
 -6.9380246e-02
  1.1751320e-01
 -1.2634841e-01
  5.0572496e-02
  1.2364139e-01
 -4.0396866e-01
  9.5024377e-01
 -6.8983132e-01
 -5.7814735e-01
 -2.3271134e-02
 -9.3277395e-01
 -9.2873007e-02
 -4.1407023e-02
 -2.0027619e-04
  2.4158290e-02
 -4.4293728e-02
  1.5843615e-01
  3.1032791e-02
  1.5161401e-03
  1.6000357e-01
 -2.2956911e-03
  2.9600315e-02
 -2.2890097e-01
 -3.2962280e-04
 -8.5561842e-02
 -9.9426406e-03
  2.7609712e-01
 -1.4100564e-01
  2.7997711e+00
 -9.8343387e-02
  7.1083438e-01
  2.0717800e+00
 -6.9429226e-02
  9.4307460e-02
  4.5354553e-02
 -8.7145656e-02
 -9.1139987e-02
  3.7992275e-01
 -8.3806999e-02
  1.8060671e-02
 -4.8822700e-04
  2.0017825e-01
 -2.0521291e-01
  1.1996835e-02
  6.0937945e-02
  5.2077621e-02
 -1.5814897e-01
  1.2236740e-01
 -7.3822372e-02
 -4.4369447e-01
  1.6663771e-02
  1.1451078e-01
  8.8980168e-02
 -2.4048528e-01
  3.0221090e-02
 -7.3527154e-03
  5.8076799e-02
  1.1330083e-01
 -2.0929804e-02
  4.2616606e-02
  7.6071791e-02
  2.7016539e-02
 -1.3407586e-02
 -7.4302010e-02
  9.9738672e-02
  2.6443651e-01
  1.2452204e-02
 -1.6127111e-02
  2.5222981e-02
  2.0591538e-02
 -6.3158967e-02
 -3.2828663e-02
  3.9398666e-02
  6.7070276e-02
  1.0672437e-01
  1.3227177e-01
 -1.4018777e-01
  5.2058730e-02
  1.4022161e-01
 -7.4568027e-01
 -3.8853490e-01
 -1.6381358e+00
 -3.6888641e-01
 -2.4974985e-05
 -1.9293746e+00
 -1.6876756e-01
  2.2047608e-01
  1.8781677e-01
  3.0411342e-02
 -3.6556743e-02
 -1.6468285e-01
  3.8966428e-02
 -4.6501506e-02
 -2.3770678e-01
  2.0890003e-02
  5.5732239e-02
  1.6797143e-01
  1.5526768e-02
 -3.7576017e-01
 -4.6191782e-02
 -4.0721200e-02
 -5.1520029e-03
 -2.6349207e-02
 -2.1825239e-01
  9.5620476e-02
 -7.7972032e-02
 -7.7816713e-01
  6.4669423e-02
  4.3656191e-01
  5.2263051e-02
  1.3435646e+00
 -1.2757368e-01
  3.2829326e-01
  4.8452961e-01
  2.2496973e-01
 -2.4208784e-01
  4.8027065e-02
  1.6858582e-01
 -2.2805547e-02
  4.8507176e-02
 -9.2571238e-03
 -1.7117676e-01
 -1.0006635e-01
 -1.4936793e-02
  2.6664846e-02
 -2.7213458e-02
 -5.6767009e-02
  9.3307503e-02
  4.7142476e-01
  7.2807543e-02
 -1.6876000e-01
  1.5552796e-01
 -1.7222926e-01
 -2.0081882e-01
 -1.2034030e+00
  2.3164999e+00
  5.0250924e-01
 -1.6870011e-01
  1.3847631e+00
  1.7464113e+00
 -3.6482525e-01
  4.8031130e-01
 -1.6055173e-01
  3.8022494e-01
 -3.1301025e-02
  1.0250947e-02
 -2.2634076e-01
 -2.2092074e-02
  7.1288899e-02
 -2.9632726e-01
 -3.9285138e-01
 -5.8866030e-01
 -1.3048646e-01
 -1.7624614e-01
 -9.4201773e-02
 -1.2439614e-01
 -5.3047188e-02
  1.0076974e-01
 -3.0809024e-01
  1.4147684e-01
 -8.8480008e-01
 -9.5847130e-01
  7.7264872e-03
 -1.4057927e-01
 -4.7182769e-01
 -9.5977679e-02
 -4.5059554e-02
 -2.3921964e-01
 -4.8680641e-02
  4.4118440e-01
 -2.2938909e-01
 -2.2117501e-01
 -5.3487939e-01
 -2.6058885e-01
 -1.5276296e-01
 -3.1324327e-01
 -5.6787169e-01
  2.7050701e-01
 -2.5242707e-02
 -3.2984782e-02
 -1.0272979e-01
 -6.9331564e-02
 -1.7151166e-02
 -7.4040450e-02
  4.2739086e-02
 -5.1323917e-02
  3.1671646e-01
  3.5502000e+00
  5.8935535e-01
 -1.2675883e+00
 -1.4830290e+00
 -8.5015655e-01
 -1.1603283e+00
 -1.5283676e+00
  5.0196505e-01
  1.9272591e+00
 -1.4623754e+00
 -1.0932162e-01
  3.2750306e+00
 -1.4470939e-01
  1.4447410e+00
  1.3457617e+00
  1.6537834e+00
 -1.3887413e+00
 -8.4384805e-01
  4.7452590e-01
 -4.4987336e-01
  9.1127831e-01
  4.9646834e-01
  8.2384223e-01
  4.1249710e-01
  5.8160424e-01
 -1.2898244e+00
  7.9278696e-01
  9.3206263e-01
 -6.1151576e-01
 -1.0773690e+00
  1.5632781e+00
  1.0059717e+00
  7.5406104e-01
  7.1159470e-01
 -1.0238256e+00
  7.6416916e-01
  4.0336311e-01
 -2.2602649e+00
  1.0151942e+00
  1.1948164e+00
  1.1415915e+00
  7.3659129e-02
  1.3560414e+00
  4.1482690e-01
 -4.1779405e-03
  2.3817909e-03
 -3.4194749e-02
 -5.2992124e-02
  6.7892321e-03
  2.3318687e-02
 -6.9948190e-01
  1.2800841e-01
  4.0763709e-01
  1.8206355e-01
  3.3391973e-01
 -2.8832752e-02
  7.2786681e-02
 -6.2677130e-02
  6.5543488e-02
 -1.3789592e-02
 -3.4869701e-01
  3.7906885e-02
 -6.8882249e-02
 -1.8183959e-01
 -2.2743948e-01
 -6.1840311e-02
 -6.5471634e-02
 -1.3150716e-01
  9.9885717e-02
  2.6636260e-02
  6.5079726e-02
 -1.7348535e-01
  1.7726929e-01
 -2.6865182e-02
 -1.2947758e-01
 -5.5752505e-02
  3.1092504e-02
 -1.7066989e-02
 -9.3404710e-02
 -2.5380071e-02
  7.2966553e-02
  2.1278333e-02
 -7.7721655e-02
 -1.3770915e-02
  6.7049582e-03
 -5.6744330e-02
  7.2182277e-03
  4.0016174e-02
  1.0567706e-01
  2.8477976e-02
 -3.8810638e-01
  6.3580394e-02
 -9.0709813e-02
 -3.3788900e-03
  1.6903569e-01
 -9.7291000e-02
  7.9069436e-02
  8.1282575e-04
  3.5738729e-02
 -1.7878098e-02
  1.9084537e-02
 -3.6585823e-02
 -3.9731212e-02
 -2.1634050e-01
 -2.1529566e-02
  3.9557925e-01
 -1.6651832e-01
  1.3539651e-02
  2.8226941e+00
 -1.5551816e+00
 -5.9398198e-01
 -3.2203346e-02
 -1.9504097e+00
  1.6468641e+00
 -2.5040650e+00
 -1.0072303e+00
  4.7876129e-01
 -5.0061069e-02
  1.1084539e+00
  6.7120236e-01
 -2.9824698e-01
 -5.6828946e-01
 -8.3040129e-03
 -3.3946773e-01
  1.9006253e+00
 -1.9457880e-02
 -6.3270710e-02
 -8.6494190e-01
 -3.5659704e-02
  2.2589264e-03
 -1.2302352e-01
 -1.4181097e-01
 -1.2325552e-01
 -9.9580514e-01
  1.1518544e-02
  4.1826911e-02
  1.4545693e-01
 -1.1500038e-01
 -1.2462519e+00
 -6.7670681e-03
 -4.2366177e-02
 -1.4505850e-01
  4.4764191e-02
  7.7156037e-02
 -6.9960587e-02
 -4.1219382e+00
 -1.4563815e-01
  3.3393019e-01
 -5.1112194e-02
 -8.6317092e-02
  3.5366851e-03
  1.1008281e+00
  3.1920925e-02
  5.0967978e-03
  4.6138212e-01
 -6.2155373e-02
 -2.6415166e-01
  4.8835289e-02
  3.8614865e-02
  1.0570436e-01
  2.2900965e-02
 -9.1343913e-03
  1.3592125e-01
  1.1915737e-01
 -6.9435671e-02
  2.5004926e-03
  2.1217242e-01
  5.7682659e-02
  9.7225122e-02
 -2.6748460e-02
 -1.5459922e-01
  3.4726586e-02
 -1.4187968e-01
 -1.2283240e-01
 -7.1399800e-02
  3.2843892e-02
  1.7340459e-01
 -1.2159523e-01
 -1.8808454e-01
  3.9932817e-02
 -7.6801777e-02
  8.6479113e-03
 -5.2773885e-02
  4.2027780e-01
  8.8912882e-02
  4.4945437e-02
  7.7906467e-02
 -1.2521137e-01
  1.5975016e-03
  3.2842569e-02
 -5.4142009e-02
  1.5776360e-01
 -1.6825597e-03
 -4.5509748e-02
  3.1712651e-02
  2.8059013e-02
  5.0260550e-01
 -3.1167679e-02
 -2.0111144e-01
  2.3208894e-01
  6.9240682e-02
  7.3611371e-02
  8.2423657e-02
  8.0676906e-02
  3.2445136e-02
 -1.0119115e-02
 -9.0569898e-02
 -1.7559826e-01
 -1.2279609e-01
  1.3669865e-01
  1.6871421e-02
 -1.7906899e-02
  4.0385034e-02
  7.2211497e-02
 -4.3397274e-02
  2.3765152e-02
 -1.0009314e+00
  1.1993365e+00
 -1.0746242e+00
 -1.2069377e+00
  1.2989273e+00
 -6.5403336e-01
 -2.1574138e-01
  3.1195393e-01
 -6.8880212e-01
 -1.1087332e-02
  4.4714397e-01
 -1.2268167e+00
  1.1528566e-01
 -5.4251248e-01
 -7.2722340e-01
 -2.1961175e-01
 -5.8896613e-01
  8.5679674e-01
 -9.5108576e-02
 -4.8160148e-01
 -1.1901168e+00
 -1.2649436e-01
 -2.6691931e-01
 -3.1235123e-01
  2.9375786e-02
  1.7144288e-01
  8.5641074e-01
  8.5358042e-01
 -6.6297568e-02
 -5.8517492e-01
  7.3441453e-02
  1.0188314e-01
 -3.1778139e-01
 -1.4142688e-01
 -1.1888539e+00
 -4.1085077e-03
  8.9638561e-02
 -2.6062610e+00
  4.0062271e-02
  8.0243781e-02
 -1.3384650e-02
 -2.6621301e-02
 -1.0395735e-01
 -5.4671321e-02
  1.1243292e-02
 -4.8837557e-02
 -2.5712302e-01
  1.8961946e-02
  2.6631054e-01
 -5.3473312e-02
  1.0662482e-01
 -7.6914169e-02
  4.6607044e-01
  6.8792693e-02
  3.0167613e+00
 -1.4960338e+00
 -3.4073117e+00
  8.0108577e-01
 -2.2570946e+00
 -4.4308284e-01
 -4.1590165e-02
 -4.6968112e+00
 -1.4098732e-01
 -5.7141644e-01
  2.1778776e-01
 -2.0012765e+00
  8.5397713e-02
 -1.8833396e-01
 -4.6039391e-02
  2.7045004e-02
 -2.1858432e+00
  9.2762537e-02
 -1.1930649e-01
  3.4642995e-03
 -6.3431136e-02
  1.7105946e-02
  1.1669648e-01
 -4.3940049e-02
  4.8734210e-03
  4.3881601e-01
 -1.9444617e-02
  3.4053600e-01
  7.1000445e-01
  3.5496053e-01
  8.9140052e-01
  2.0108055e-01
 -9.5088445e-02
  2.8823690e-02
  6.1819857e-01
  1.3294728e-01
 -1.5206431e-02
  1.6348659e-01
 -1.7273352e-02
  2.5644857e-01
 -6.8712220e-02
 -2.8605822e-01
 -2.3720991e-02
  9.5042193e-01
 -4.6080324e-01
  1.3253051e-02
  7.6537095e-03
 -2.1060314e-02
 -4.7328275e-02
 -1.4204043e-01
  6.5947644e-02
 -1.4644223e-01
 -3.8500864e-02
 -8.5358061e-02
 -5.1869601e-02
 -3.8773030e-01
  9.2360146e-02
 -7.8929551e-02
  2.2053386e-01
  3.4901891e+00
 -1.3817434e-01
 -1.7313451e-02
  1.5110895e-01
 -2.6852209e-02
 -3.5899574e-01
 -4.5822971e-02
 -2.3359457e-01
 -2.9746493e-02
 -5.7488952e-02
 -5.3969368e-02
 -6.4387135e-02
  4.6703268e-02
  3.6485612e-02
 -1.0214717e+00
  7.1943633e-02
 -4.2917121e-02
 -1.9165240e-01
 -7.3189013e-02
  8.1464149e-02
  4.7064517e-03
  1.6526775e-02
  5.3640645e-02
 -2.1093294e-02
  8.9931734e-02
  1.7645195e-01
  2.0280480e-05
  8.5817715e-03
  7.7852360e-03
 -1.3071448e-01
 -3.0317074e-01
 -3.1384507e-01
  1.0056176e-01
  1.7599881e-01
 -6.3878740e-04
 -7.4133622e-03
 -2.3935582e-03
  1.8161429e-01
 -2.2673072e-02
  2.8879292e-02
 -1.8842314e-01
 -4.6024164e-03
 -8.5679345e-02
 -2.6074326e-02
  7.4381256e-03
 -8.5307166e-02
 -2.3939034e-02
  1.5353763e-02
 -3.1197613e-02
 -2.4004858e+00
 -7.4449730e-01
  1.2002311e+00
  7.2033817e-01
  1.7248511e-01
  4.3450600e-01
 -4.3747216e-01
  2.7004857e+00
  7.2923496e-02
 -2.4635750e-01
  1.7176419e-02
 -5.1296428e-02
  3.2090661e-01
 -1.1662871e-01
  5.3847609e-03
  2.1400219e-02
 -9.7070146e-01
 -1.9540980e-01
  4.1763386e-01
 -4.1508023e-02
  3.3843860e-01
 -6.4424565e-03
 -4.6793755e-02
  5.8410179e-02
  1.8999960e-01
 -4.2585844e-01
 -4.4225998e-02
  4.5024601e-01
 -6.6743386e-01
 -1.0965683e-01
 -2.5205126e-01
  1.9213023e-02
  1.2673919e-01
 -1.9573554e-01
  2.5746589e+00
  1.3365878e-02
  6.4144164e-02
 -9.0997145e-03
  2.6093332e-02
 -1.0749655e-01
 -4.7574043e-03
 -1.0576601e-01
 -1.0395133e-01
  5.5673767e-02
  1.0368755e-01
 -2.5182348e-02
 -1.5988605e-01
  1.1550665e-02
 -2.1955851e-02
 -4.6396323e-02
  7.9998866e-02
  7.5876653e-02
 -7.2304390e-02
  6.0501739e-02
 -6.4970352e-02
 -4.1908953e-01
 -1.0410967e+00
 -2.4400470e+00
 -2.4853711e-01
  2.2085636e+00
 -5.9515017e-01
  1.8615135e+00
 -3.5017449e-01
 -3.4150459e-02
 -3.4445679e-01
 -6.7256961e-04
 -5.6839961e-01
 -8.1458472e-02
  8.4522245e-03
  1.0014025e-02
 -6.2331676e-01
 -6.7359471e-01
  1.7452517e-01
 -2.9865019e-02
  9.6422762e-02
 -1.6273488e-01
 -1.6865419e-01
 -4.8929740e-02
  1.9176714e-01
 -2.1133736e-01
 -3.6722302e-02
 -4.1647655e-01
 -1.2918177e-01
 -1.4879899e-02
  9.2022739e-02
 -6.5730274e-02
 -4.8236243e-02
  8.3454605e-03
 -1.0950381e-01
 -2.2239028e-01
 -3.6968440e-01
 -5.2102681e-02
 -1.2193578e-01
 -5.0761443e-01
 -2.0255062e-01
 -3.6462307e-02
  1.2280663e-03
 -6.6994613e-01
 -1.7472357e-02
  2.6925512e-02
  3.2224259e-01
  1.6027277e-02
  7.2536737e-02
  1.4209614e+00
 -7.8669988e-02
  2.4505831e-01
  7.6897129e-02
 -5.8468789e-01
  1.6114351e-01
 -5.6667519e+00
 -1.1036150e-01
  4.2339423e-01
 -9.4599932e-02
  1.3610436e+00
 -1.5336733e-02
 -5.3135143e-04
  1.2796572e-01
  3.1089063e-03
  6.9382513e-04
  1.0495771e-01
  1.7489883e-01
 -2.1273151e-02
  4.3187965e-02
 -1.2019088e-02
 -6.6797258e-03
  1.4893338e-01
  1.7832829e-02
  1.9289757e-01
  3.9231095e-02
 -1.6263162e-01
  5.5110548e-02
 -1.5942063e-02
  9.6099764e-02
 -8.8850837e-03
  3.5252094e-02
  9.3656898e-02
 -2.9692134e-01
 -9.1664411e-02
 -3.3371794e-01
 -7.1850300e-02
  2.1758175e-01
  1.4538306e-01
 -1.1870548e-02
 -4.2812828e-02
 -3.0377546e-01
  8.2196351e-03
 -2.7449662e-03
  6.5489881e-02
 -2.1663457e-02
  5.6584176e-02
 -3.1314906e-02
 -2.0314592e-01
 -1.5336045e-02
 -3.6927633e-02
 -2.5171391e-03
  7.5873118e-03
 -3.2583829e-02
  2.4290814e-03
  2.6522559e-01
  8.7985851e-02
  9.7246757e-03
 -1.1619569e-02
  4.5157797e-03
 -2.2792535e-02
  4.6675742e-02
 -8.4147491e-03
 -4.9366184e-02
 -6.1815236e-02
  8.2408451e-02
  3.3501677e-02
  7.6991253e-02
 -2.7115127e-02
  1.1224439e-01
 -3.2084960e-02
  5.9531111e-02
  5.3720712e-03
  4.3711703e-02
 -4.4693343e-02
 -2.1701759e-02
  1.9635503e-01
 -4.9483955e-02
 -6.9272004e-02
 -1.4440483e-01
  1.3241451e-04
  1.2177010e-01
  1.6045411e-01
 -1.4198799e-01
 -1.0976704e-01
 -2.2558253e-01
 -1.8816367e-01
 -8.1571358e-01
  7.3473208e-02
 -4.8799241e-01
 -1.2700939e-01
  7.5054377e-02
 -6.5048516e-02
 -3.4875590e-02
  4.8196815e-02
  4.7221843e-02
  7.4587204e-02
  1.0134687e-01
 -9.5348530e-02
  6.6083081e-02
 -2.6906094e-02
  7.0631802e-02
  4.5246813e-02
 -8.6905986e-02
 -1.9413359e-01
  8.7145336e-02
 -5.0761376e-02
  7.3092929e-03
  4.4725165e-02
  1.1705119e-01
 -9.5339403e-02
  5.2761327e-02
  7.3318236e-02
  1.4185870e+00
  1.1906841e+00
  8.2503617e-01
 -1.1696606e+00
  3.6577269e-01
  3.7659144e+00
  5.0671062e+00
 -1.9994767e-01
  4.0423501e-01
  5.2210853e-02
  1.4674513e-01
 -4.7265686e-02
  5.7983917e-01
  6.0631365e-02
  6.5801907e-01
  3.8154688e-02
 -5.4298405e-02
  9.4584131e-01
  4.2370477e-01
  8.9330606e-02
  5.0419658e-02
  1.9276677e-01
  8.2471475e-02
  3.0242932e-01
  3.8221943e-01
  4.1857772e-02
  2.2523521e-02
  4.3704244e-01
 -3.4390677e-02
 -3.8285255e-02
  4.4565335e-01
  1.7650221e-01
  3.6408755e-01
  8.9274399e-02
 -3.0615531e-02
 -7.6330855e-02
  2.6410975e-02
  2.2005782e-01
 -7.2301719e-03
  6.0135573e-03
  3.7577423e-01
  6.6230237e-01
 -4.2855460e-02
 -2.4835484e-02
 -1.5416566e-01
  2.1385247e-01
  8.8898093e-02
 -4.3087672e-03
  4.7147486e-02
  6.9689609e-02
 -1.5674343e-02
  9.2878833e-02
 -1.3598908e-01
 -9.4918638e-02
  1.9218735e-01
 -2.5211906e-01
  8.2011068e-01
  4.5272434e-01
  2.4299391e-01
  8.9850873e-01
  1.8020906e+00
 -1.1731882e+00
 -1.1165236e+00
  2.4156672e-01
  6.1195169e-02
 -4.7237998e-01
  4.6980355e-04
  1.8634574e-01
 -2.6781419e-01
 -2.0781410e-01
  4.0165949e-01
  3.2837993e-01
  2.9510888e-01
  1.7499512e-01
  6.7660742e-02
  9.3710065e-02
  2.2102547e-01
 -3.6683552e-02
 -4.4773546e-01
 -1.2895342e+00
  5.0422877e-02
  2.9243683e-03
  1.4487419e-01
  6.0099553e-02
 -5.6433231e-01
  1.2368052e-01
  4.7862552e-02
  4.1557316e-02
 -3.5210651e-01
 -3.7535723e-02
 -1.4586344e-01
 -2.0285109e-01
 -3.5417250e-01
 -5.0945771e-01
 -4.2939195e-01
 -1.1161940e-01
 -1.3703240e-01
 -1.1392808e-02
  1.5999919e-01
 -1.0823061e-01
 -3.1433541e-02
  3.6300566e-02
 -9.4057783e-02
  3.1562456e-01
 -1.9291644e-03
  4.0217616e-02
  6.5419175e-02
 -4.8340242e-02
 -5.6666452e-01
  2.1316713e-01
  1.7422464e+00
 -2.0935001e+00
 -2.2465820e+00
 -1.3408446e+00
  6.1348186e+00
  1.1631650e+00
 -3.7017825e+00
  8.1038125e-02
  9.7607985e-02
 -2.2172267e-02
 -2.2169435e-02
  3.8065354e-03
 -5.8272112e-02
 -2.9656485e-01
 -1.3509066e+00
  2.0985729e-01
  3.0395055e-01
 -2.9245842e-01
 -2.8748706e-01
  3.3791444e-01
  2.9912511e-01
 -1.2495670e-02
 -1.1879659e-01
  3.4401974e-01
 -3.3192426e-02
 -3.2706940e-01
  2.6536262e-01
 -6.3757218e-02
  5.4572201e-01
  4.4372808e-02
 -2.1207171e-02
 -7.8551425e-03
  3.4740690e-02
 -2.1772891e-02
 -2.5478069e-02
 -4.1903492e-02
  1.0868821e-01
 -6.3993907e-01
 -1.8174399e-02
 -1.3704294e-01
  3.6942282e-01
 -1.1014704e-02
 -1.8188564e-01
  8.5061684e-02
 -1.5881057e-01
 -6.5909944e-02
  2.8346276e-01
 -6.3394234e-02
 -5.5444568e-02
  5.0454136e-02
 -3.1269443e-01
  3.9152209e-02
  7.4947491e-02
 -1.2234237e-01
 -1.4963208e-02
 -4.3611314e-02
  1.1354130e-01
 -5.2631819e-01
 -1.0619690e-02
 -3.8320154e-02
  1.1742739e-01
 -4.9702536e-02
  5.4690033e-02
  4.0414374e-02
  5.8223080e-02
  1.3095832e-02
  1.7974392e-01
  4.2139795e-02
 -4.5648675e-02
 -8.8876210e-02
  1.9763174e-02
  3.5452522e-02
 -3.3843141e-02
  1.9391125e-01
  9.7455427e-02
 -8.1126671e-03
  1.0538706e-01
 -3.4240995e-02
 -2.8397840e-01
 -2.5375032e-01
  1.7679837e-01
  1.4768417e-01
 -2.2898987e-01
  7.1078897e-02
  7.8276470e-02
  9.2572087e-01
  6.1144602e-02
 -2.3669256e-02
  3.8198072e-02
  7.2876036e-02
  3.3956375e-02
  3.8211100e-02
 -3.0424265e-02
 -6.6954486e-02
 -6.6761740e-02
  1.0725685e-01
  2.1728282e-01
  6.4019160e-03
  7.6820470e-02
 -3.8670775e-02
  4.3890253e-02
  6.4483270e-02
 -1.2247104e-02
  3.8481507e-02
  1.2256180e-01
  3.4288090e-02
 -7.6243168e-01
  3.6357339e-02
 -7.1359299e-02
  2.5252581e-01
  5.5507682e-02
 -4.1726476e-01
  1.0791111e+00
 -2.6462920e-02
  1.0570307e-01
  2.8403670e-01
  3.0967537e-01
  1.1166896e+00
  3.2275014e-02
 -1.8052027e-01
  2.4354777e-03
  2.3550529e-02
  7.7678382e-01
  7.5107984e-02
 -1.9973139e-01
  3.4701793e+00
  2.2166739e-01
  4.0012136e-02
 -1.2050300e-01
  1.2782183e+00
  7.3418838e-01
 -3.5803252e-01
 -2.0460330e-01
  1.3128969e-02
  7.9745507e-01
  2.0273330e+00
 -1.6523829e-02
 -1.4771309e-01
  9.9580377e-01
  1.6032358e-01
  5.4528646e-02
  1.3678280e-01
  2.4637912e-01
  2.0462582e-02
  2.1076554e-01
  3.8170338e-02
 -1.1713669e-01
  1.8990250e-02
 -7.1693077e-03
 -6.1235738e-01
  2.7999641e-02
 -1.9138713e-01
 -7.0561834e-02
 -1.4677973e-01
  1.5228949e-02
 -2.3093764e-02
 -6.3627869e-02
  3.1877056e-02
 -4.7197863e-02
  1.5816689e-01
  5.3041291e+00
  4.4614467e-01
  2.9597810e-01
  4.7273791e-01
 -2.6972630e+00
 -9.0144761e-02
 -1.5956413e+00
 -3.8312695e+00
  3.3556128e+00
 -1.2738836e-01
  4.0934393e-01
 -1.2826318e-01
  1.7582323e-02
 -1.8641587e-01
 -1.9836268e-01
 -3.4605455e-01
  1.1254116e-01
 -4.2718392e-02
  6.4197533e-02
  1.7547725e-01
 -7.9380415e-02
 -1.1592349e-01
  9.4019726e-02
 -2.8255469e-01
 -2.9018294e-02
 -9.5608592e-02
 -1.2187504e-01
  2.5949972e-02
 -2.3184332e-01
  7.7586643e-02
 -8.6873829e-02
  1.6118890e-02
 -5.1640116e-02
  3.4814283e-01
  2.4959540e-01
 -2.9351177e-02
 -3.0121857e-03
 -9.3168497e-02
  6.3577195e-04
  1.2716290e-01
 -4.8862070e-01
 -2.3776421e-01
 -2.7603510e-01
 -7.7179378e-01
 -2.2047494e-02
 -3.2456574e-01
  5.7775248e-02
 -6.4492591e-02
 -3.3733947e-03
  5.1745918e-02
 -3.8531397e-02
 -6.4170780e-03
 -3.8551766e-02
 -1.9264543e-02
 -4.6393518e+00
  1.6243232e+00
 -6.4633694e+00
  1.2732685e-01
  2.3993876e+00
  2.9447033e+00
  5.6043968e+00
 -6.2376075e+00
  1.3180779e+00
 -2.3760686e+00
 -4.9775156e-01
 -2.5670712e+00
  3.3513258e+00
 -1.0996283e-02
  2.7225854e-02
  2.1041296e-01
  5.5596930e-01
 -1.8117985e+00
  9.5146723e-02
  6.8127459e-01
 -7.9316296e-02
  1.0145384e-01
 -1.4203860e-02
 -2.8653947e-01
 -1.6576424e+00
 -3.7390018e-01
 -1.6508700e-01
 -8.5760601e-04
 -2.6405035e-02
 -5.3683114e-01
 -4.0895122e-01
 -2.2925897e-01
  5.8390539e-02
 -1.1134883e-02
 -8.0108792e-02
  6.9718361e-01
 -3.6820188e-01
 -3.9172478e+00
  3.7785223e-01
  3.5416767e-01
 -9.0289152e-01
  5.6164619e-02
 -8.1221730e-02
  1.7663519e+00
 -2.0028919e-01
  2.4702992e-01
 -4.1331317e-02
 -3.9099723e-02
 -8.7668560e-02
  4.3399800e-02
  1.6040763e-01
 -2.3741785e-01
 -1.6380300e-01
 -1.2533990e-01
  5.5425487e+00
  2.3814306e+00
  4.8176876e-01
  8.6711138e-01
 -3.7752822e-01
  1.7028975e-01
 -4.7776852e+00
 -9.9266207e-01
  1.6165049e+00
  1.7493764e-02
  3.9627600e-02
 -7.1619761e-01
 -1.1118349e-01
  1.6849801e-01
  5.3019866e-02
  8.9516610e-02
  1.1962620e+00
  2.6742628e-02
 -1.1644791e-01
 -1.1259103e-01
 -5.2033808e-02
  2.5850633e-01
 -3.7421573e-02
  1.5956719e-01
 -1.8372726e-01
 -3.1374574e-02
 -1.6566806e-01
  2.3259027e-02
 -3.3148378e-02
 -3.9769813e-01
 -1.0410037e-01
  1.3021408e-01
 -5.4372616e-02
  1.5530406e-01
 -9.5430829e-02
 -3.4252599e-01
 -1.5994816e-01
 -5.4068846e-01
 -1.8111931e-01
 -1.1503135e+00
 -1.7027313e-02
  3.5632305e-02
 -1.3352827e+00
 -4.3863181e-02
 -2.0878626e-02
 -3.5076756e-03
 -1.9496261e-01
  1.2853013e-01
  6.6793021e-03
 -1.2069344e-01
  1.3595210e-01
  6.1475549e-02
 -1.1484943e-01
  5.4761007e-02
 -5.8686517e-02
 -5.0818883e-02
  1.0702442e-01
 -2.4499457e-01
 -2.8725612e-01
 -4.9065553e-02
 -9.7495362e-02
  5.5668861e-02
 -7.0988402e-02
  2.7240154e-01
  1.7581229e-01
 -5.7859972e-02
  1.8237367e-01
 -7.8473397e-02
  6.4711971e-03
  6.0519889e-02
  1.1046743e-01
 -9.5086731e-02
 -1.6929652e-01
  2.7054043e-02
  3.5079386e-02
 -8.7955408e-02
  1.4418361e-02
 -6.9783896e-02
 -1.6685978e-01
  8.8754846e-03
  1.0145362e-01
 -3.0615743e-02
 -1.1968984e-01
 -6.5363497e-02
  2.9791083e-02
  1.0316289e-01
  4.6532995e-01
 -1.2523229e-01
  3.8407592e-03
  3.2963611e-02
 -1.4062162e-01
  3.9345726e-02
  1.6377883e-03
 -7.3220253e-02
  1.1898651e-01
 -5.6335244e-02
 -1.0304991e-01
  1.8121487e-02
  2.2030689e-01
 -2.0358464e-02
 -2.0550242e-01
  1.7155085e-02
  6.6518202e-02
 -9.0916879e-02
  4.8746683e-02
 -1.1768463e-01
 -2.6795032e-02
  1.5554839e-01
 -1.3648982e-02
  1.8200820e-02
  1.4049648e-01
  4.3461833e+00
 -7.3733616e-01
  1.2499684e-02
  1.6644849e-01
 -1.0158858e-01
 -6.2315259e-03
  2.9249200e-01
  3.2353309e-01
  2.8328495e-02
 -9.3733229e-02
  3.0421749e-02
 -8.3574444e-02
 -1.5861217e-02
  2.3405427e-02
 -1.4301221e-01
 -8.7520219e-03
 -2.4861610e-02
  2.2538610e-01
 -5.4024093e-02
 -3.0079642e-01
  1.1692838e-01
 -2.1000354e+00
 -6.5376610e-02
  9.9859752e-02
 -7.6444820e-02
 -2.8237723e-02
 -5.5336587e-02
 -1.6982563e-01
  1.7281203e-02
 -4.6407979e-02
  8.9140460e-02
  2.4081928e-01
 -1.8931661e-02
  1.8921809e-01
  7.6980777e-02
 -7.8167208e-02
  1.6209225e-01
 -1.0800586e-01
  1.0583493e-01
 -1.3684934e-01
 -3.9509092e-02
 -1.6285863e-02
  4.9336290e+00
  2.6293063e-01
  7.5652078e-02
 -1.0644680e-01
 -5.7650123e-02
  8.8184617e-02
  1.7468814e-02
  2.4720924e-02
 -1.7258063e-01
 -1.5515450e-01
 -7.0396197e-01
 -3.4045342e-01
  8.4345855e-02
  1.7516563e-02
  5.6096438e-02
 -4.5343110e-01
 -1.2438308e+00
  4.2662118e-02
 -7.2667569e-02
  7.2775610e-02
 -4.5752026e-02
  1.6126640e-01
 -1.2228022e-01
  1.6015444e-02
  1.0003101e-01
  1.8823479e-01
 -1.2210373e-01
 -4.3755721e-02
  7.5259651e-03
  2.2271857e-01
  6.8380900e-02
  1.7546799e-03
 -6.1998904e-02
 -1.1022508e-01
  1.4883937e-01
 -1.4390334e-02
 -7.2626974e-03
 -2.4027333e-02
 -2.0890979e-02
  1.4444482e-01
  8.8386327e-02
 -2.2846428e-03
  8.3086632e-02
 -2.3829667e-02
 -1.3176557e-01
  2.4236374e-02
  1.2975891e-01
 -7.4515440e-02
 -1.3440600e-01
  1.1683362e-02
  3.1352449e-02
  2.0167570e-01
 -7.1849778e-02
  9.1631085e-02
 -3.3234090e-02
  3.3870138e-02
 -1.8814345e-03
  3.2500303e-01
  1.0106960e-01
 -3.1100830e-02
 -3.3900782e-02
 -2.5061479e-02
  9.8641559e-02
 -6.0278815e-01
  2.2343941e+00
  8.8687462e-01
 -2.1376525e-01
 -9.3242852e-03
 -6.0401535e+00
  1.0347884e-02
 -1.3315980e+00
  9.1114238e-02
  3.4633473e-02
  1.3649820e+00
 -8.5000060e-03
  5.1749855e-01
  1.0709910e-02
  1.3924114e-01
 -3.8330708e-02
 -7.2254911e-02
 -9.9597842e-02
 -1.3735826e-01
 -4.2754120e-01
 -3.6953822e-01
  4.6846759e-02
  5.3018339e-02
  9.7644471e-02
 -1.7863338e-01
 -9.4971240e-01
 -1.0302715e-01
  1.8739286e-01
  9.0525329e-02
  1.9369182e-01
 -3.9305892e-02
  1.3145258e-01
 -4.6866030e-02
  2.6548642e-01
 -1.9839418e-01
 -7.3108710e-02
  1.4003195e-01
  5.9214723e-01
  2.9813126e-01
  2.0516160e-01
  1.1901341e-01
  7.3005468e-01
 -1.4368205e-01
  8.6730844e-01
  1.6804150e-01
  1.5916197e-01
  2.8202739e-02
 -6.7800239e-02
 -1.3271864e-01
 -2.3338427e-01
  3.1563714e-02
 -6.5127141e-03
 -1.4195048e-02
 -5.2010763e-02
 -1.9240674e-01
  1.8885766e+00
  1.3603212e-01
 -5.8259171e-01
  5.2537565e-04
 -3.7108953e+00
  7.9280931e-01
  1.9082012e+00
 -1.4387226e-01
  5.1141437e-04
  1.1089405e-02
 -1.7395910e-02
  1.1480112e-01
  7.1069193e-03
  1.0131661e-02
  1.7275400e-02
 -7.1796006e-01
 -1.1545781e-01
  1.6278796e-01
  1.9426054e-01
  3.7163754e-03
 -7.8984469e-02
  4.9774233e-01
  3.1388637e-01
  5.7136619e-01
  3.6574221e-01
 -1.3439658e-01
  5.3626603e-01
 -1.4913542e-02
  3.2214433e-01
 -1.8013746e-01
  1.9693927e-01
  3.9546773e-01
  3.4677465e-02
 -9.6117817e-03
 -1.6761901e-02
 -2.0313799e-02
 -8.5296571e-01
  8.9785159e-02
  1.2008727e-01
  7.1498066e-02
  4.2285883e-01
  1.9784360e-01
 -3.0269817e-01
 -3.8489977e-01
  2.1871615e-02
 -1.0674642e-02
 -8.5329656e-03
  7.4167135e-03
 -2.9099394e-02
 -5.0980203e-02
  8.3405701e-03
 -1.4534060e-02
  9.7910218e-02
  1.0107831e+00
  3.1126169e-02
  1.9623674e+00
 -1.2528154e+00
 -2.9596618e-01
 -9.2889565e-01
  2.2933040e+00
  6.8789309e-01
 -6.8713850e-01
 -9.8597109e-01
 -2.0600015e-01
  5.6099761e-02
 -1.3096819e+00
 -7.6030123e-01
  3.3012024e-01
 -3.1770147e-02
  6.5911722e-01
  7.9076447e-02
 -1.2230614e-01
  1.8572041e-01
  5.7783462e-02
 -6.4905888e-01
 -5.3172368e-01
  4.5747781e-01
  4.8105111e-03
 -4.8131195e-01
 -1.6189234e-01
  2.4042599e-01
  8.8212115e-01
  9.9227411e-01
  1.2834840e-01
 -2.6252260e-02
 -7.0219897e-02
 -2.7638212e-01
 -2.0882161e-01
  1.5632738e-01
 -4.0791425e-01
 -1.2007279e-02
 -3.7358788e-01
 -2.0013545e+00
 -6.8999194e-02
  1.1821781e-01
 -1.7963758e-01
 -4.9098903e-01
  5.0008982e-01
  1.8024068e-02
 -1.3387363e-01
  1.9908242e-01
 -3.8556004e-01
 -7.8986965e-02
 -4.8073743e-02
 -1.8147770e-01
  8.6221650e-02
  7.7728823e-02
  1.5705363e-01
 -1.7168535e-01
  4.7248673e-02
  1.3755511e-01
 -1.2502722e-01
 -9.0584892e-01
 -2.0830311e-01
  3.3486667e-01
 -6.9829166e-02
 -2.6483536e-01
  1.1363676e-01
 -5.4205362e-02
 -2.4841027e-01
 -1.3989303e-04
  2.2721155e-01
 -1.9268405e-01
  3.0575160e-02
  5.5182790e-03
 -6.0269527e-02
 -4.1766196e-02
  1.2667568e-01
  3.6388554e-02
 -3.7121204e-01
 -2.7255565e-02
 -6.7656779e-01
 -1.1514544e-01
  6.1508048e-02
  1.3645989e-01
 -3.0908310e-01
  1.9841690e-01
 -5.1728234e-02
 -7.1794949e-02
 -2.8417861e-01
  1.3272712e-01
  7.0684262e-02
 -6.8555556e-02
  2.7536545e-02
  6.1599325e-02
  7.5232640e-02
 -3.2122797e-01
 -4.2299978e-02
  3.9422140e-03
 -6.1253205e-02
  1.0019739e-01
 -3.9105085e-01
  9.3440928e-02
  4.4616464e-01
  3.7183996e-02
  1.9447375e-02
 -8.1552766e-02
 -2.4504602e-02
 -1.8496463e-01
 -1.2908557e-01
 -9.9500250e-03
 -3.9292469e+00
 -3.6992311e+00
  9.1032244e-02
  1.4282557e-01
 -9.6072996e-01
 -2.3782147e-01
 -3.3352561e+00
 -2.2118742e+00
  1.5905029e+00
 -3.1895968e-01
 -9.9500176e-03
  1.9634554e-02
 -2.1863114e-02
  2.8313416e-01
 -2.6756322e-01
  5.1307295e-02
 -2.5755697e-01
 -4.9326184e-01
 -5.8842354e-02
 -2.5392303e-02
  1.6940789e-01
 -1.9480161e-01
  3.2348451e-01
 -2.5512578e+00
  1.0664345e-02
 -1.4146639e-01
  9.2656039e-02
  1.2809850e-01
 -1.4558909e+00
 -5.4307859e-03
  4.3280011e-01
 -9.5964596e-02
 -1.2583464e-01
  7.1623303e-02
  5.3730298e-02
  3.6410056e-02
  9.1503464e-02
 -3.4264499e-01
 -3.6766764e-02
  3.0648139e-01
 -5.3529389e-02
 -3.2351801e-01
  1.9420097e-02
  3.0336944e-02
  4.5098690e-04
  4.2253040e-02
  1.0566985e-02
  4.6216924e-02
  6.9765158e-02
 -4.5886502e-02
 -2.7462188e-02
 -9.4257118e-03
 -1.8692532e-01
  9.2622295e-02
  2.6529643e-01
  1.5586586e-01
  5.8429066e-02
  1.7274837e-01
  1.2950895e-02
  1.0372556e+00
 -1.3941886e-01
  3.4941068e-01
 -6.4374916e-03
  1.2083521e-01
  3.9104491e-02
 -1.1380631e-01
 -1.3438925e-01
 -3.2346216e-01
  9.2017703e-02
  1.2413233e-01
  6.1748046e-02
  1.6025239e-01
 -1.2241649e-01
  1.3488805e-01
  1.9455005e-01
 -3.0583559e-02
 -7.4164150e-03
  3.2615259e-01
  2.7249050e-01
 -7.6529689e-02
 -1.0060232e-02
  2.9506594e-02
  8.4210247e-02
 -8.6354606e-02
 -1.1781465e-01
  3.4417090e-01
  2.0628014e-01
 -1.3035120e-02
 -2.7005322e-02
 -8.2483597e-02
  5.2855022e-02
  2.0753275e-01
 -2.1946582e-03
  5.4661896e-02
  7.9880983e-02
  5.2368358e-02
  1.1131709e-01
  2.3544664e-02
  1.0490184e-01
 -2.0479852e-01
 -3.1716388e-02
 -1.2522441e-02
 -9.2759460e-02
 -1.3265306e-01
 -3.2472298e-01
  1.2550090e-02
 -1.0706152e-02
 -6.4263538e-02
 -1.3545769e-01
  3.0737686e+00
  9.7586453e-01
  1.2076546e+00
 -1.0977370e-01
  2.0845781e-01
 -2.6783347e+00
 -2.7967951e-01
 -2.6045576e-01
 -1.9494804e-02
  1.8590161e-01
 -3.4481767e-01
  4.5933317e-02
 -3.6453353e-03
 -3.6334060e-02
 -7.3215120e-02
 -2.0884406e-02
  4.0682320e-02
  3.0439997e-01
 -3.1645596e-01
 -1.0010614e-01
 -1.3463432e-01
  2.9602917e-02
 -6.7913122e-02
 -4.3750969e-03
 -8.0650799e-02
 -1.1840037e-01
 -1.3998130e-01
  5.0165817e-02
 -2.2506276e-02
  5.7354555e-02
 -2.2868796e-01
  1.4658619e-01
  2.0961089e-02
 -5.1835254e-02
 -5.9015047e-02
  9.1672882e-02
 -1.3129687e-01
 -9.3723230e-02
 -2.7218807e-01
 -4.7316477e-02
 -5.3990517e-02
 -1.3102607e-02
  6.0159344e-02
 -1.0671580e-01
  1.2025557e-02
 -1.2883684e-01
  1.9135028e-01
 -6.3825071e-02
 -8.2989797e-02
  4.9250286e-02
  2.4007116e-02
 -1.6005807e-01
  5.9131268e-02
  2.9706185e+00
 -2.2752514e+00
  1.3389542e+00
 -1.3014028e+00
 -3.5262439e+00
  2.2794394e+00
 -1.0729504e+00
  3.0090886e-01
  1.2155038e+00
  2.6102140e+00
 -4.5910678e+00
  3.8535365e-01
 -1.7331134e+00
 -6.7504311e-01
  2.0394973e-01
 -3.0134261e-01
  1.7234269e+00
  1.3968846e+00
  1.7560629e-02
  2.3332198e+00
  5.9870726e-01
  4.9916402e-01
  9.7448207e-02
 -3.4466603e-01
  2.0420337e-01
  2.6580408e-01
 -2.5462034e-01
 -1.1056187e-01
 -4.1510101e-02
 -1.0998770e+00
 -2.2782730e-01
 -9.9334502e-01
 -4.7937337e-01
 -1.1189125e-01
 -3.1934645e-02
  2.3067321e-01
  2.2009987e-02
 -2.8017484e-02
 -4.6866670e-02
 -1.7502284e-01
 -7.2955793e-01
 -2.0340312e-01
 -4.2358270e-01
 -2.1807200e-01
  4.4665140e-01
  7.7702418e-02
  8.3097267e-01
  8.8568665e-02
 -6.3571072e-01
 -2.7286859e-02
 -1.3767985e-01
  1.3468279e-02
 -3.3231393e-01
  1.4357562e-01
  3.9181819e+00
 -2.4734862e+00
 -1.0356523e+00
  6.2589936e-02
  2.1735983e+00
 -1.8225785e+00
  2.4784973e+00
 -8.1581450e-01
 -1.1541731e+00
  2.2167222e+00
 -2.1581774e+00
  5.5947053e-01
  4.8059034e+00
  1.3917147e+00
 -1.4716445e+00
 -9.9248832e-01
  4.2671915e-02
  4.4692087e-01
  2.9815748e-01
  1.0353662e+00
 -1.5347970e+00
  9.0865928e-01
 -2.2738142e+00
 -1.8600062e+00
 -1.0113413e+00
  9.8503703e-01
 -3.0039399e+00
  3.1223742e-02
  1.7391686e+00
  1.6246536e+00
 -9.4028902e-01
  1.8593277e-01
 -1.8183804e+00
  2.2091792e+00
 -1.4861755e+00
  7.8525788e-01
  7.7474751e-02
  3.3237700e+00
 -1.2634354e+00
 -4.4673294e-02
  3.4702170e+00
 -2.3516397e+00
 -8.5389525e-01
  1.0532092e+00
  5.8501516e-02
  2.1111364e+00
  1.6982620e+00
  1.2126461e+00
 -7.9561937e-01
  1.7250670e+00
  6.9210917e-01
  1.9072953e+00
 -8.7543416e-01
 -1.9508815e-01
 -1.9045849e+00
  6.6439843e-01
  1.0217344e+00
 -2.6705794e+00
  8.4444153e-01
 -3.5559430e+00
 -2.2699957e+00
  2.9201267e+00
 -1.2475654e+00
  4.5437548e-01
  1.5608387e-01
  1.7921168e+00
  1.4329823e+00
  2.9017779e-01
  1.7355287e-01
  5.9484929e-01
  3.5984838e+00
 -7.3935729e-01
 -5.7863575e-01
  2.7914298e+00
 -7.6009333e-01
 -1.1149842e+00
 -4.2543178e+00
  5.4171646e-01
  8.3211206e-02
  4.1373739e-01
  9.5007062e-01
  1.2761112e-01
 -1.3147289e-01
  2.3776185e-02
  1.4815921e+00
 -2.4100680e+00
 -1.1289994e+00
  4.7377819e-01
 -1.9892886e-01
 -1.0928687e-01
 -2.3738954e+00
  5.1230872e-01
 -9.3697643e-01
 -1.0665958e+00
  6.8021798e-01
 -1.4561186e+00
  2.8396955e-01
 -3.7966117e-01
 -6.3928007e-03
  7.2974223e-01
 -1.5919633e-01
 -8.5780971e-02
 -6.2603551e-01
 -2.3712318e+00
 -9.4200104e-02
  3.4282476e-01
  3.0854254e+00
 -3.4286790e-02
  9.2974430e-01
  5.5589402e-01
  5.5874270e-01
 -5.0787801e-01
 -1.2464463e+00
  9.8952127e-01
  8.9895326e-01
 -2.7802220e-01
 -6.3680297e-01
  4.6976396e-01
  5.8063388e-01
 -1.7894951e-01
  1.0509268e+00
 -6.6074520e-01
 -1.3976945e-01
  2.1138354e-01
 -1.4881045e-01
 -2.5839350e-01
 -2.2935085e+00
 -1.3172483e-01
 -3.1321850e-01
 -8.6706889e-01
  7.4898231e-01
  1.2699547e+00
  2.3988643e-01
  4.8510036e-03
 -1.7830205e+00
 -2.3274568e-01
  6.4976525e-01
  1.3872528e+00
  2.0466490e+00
  1.6777617e-01
 -6.2815201e-01
  3.7840555e+00
 -1.6489960e+00
 -2.3254389e-01
  6.4843707e-02
  4.5921746e-01
 -2.6057169e-01
 -3.6790898e-01
 -1.8216734e-01
  4.8484173e-02
  8.0754735e-02
 -1.5801881e-01
 -1.7339096e+00
  1.2223292e-01
  1.2497779e+00
  3.2504410e-01
 -3.7522927e-01
  2.5243154e-01
 -1.3571177e-01
  1.0426536e+00
 -2.1673585e-03
  8.6498238e-02
  1.5594186e-01
 -1.6709766e+00
 -1.0442975e-01
  9.3287341e-02
  1.0918897e-01
  7.3462382e-02
 -2.7679341e-02
  3.9363900e-01
 -4.2197067e-02
  6.3292742e-02
  2.1395609e-02
 -3.1688621e-03
 -1.3407703e-02
 -1.2168162e-02
 -7.1098588e-02
 -2.8073354e-02
  1.5802877e-01
 -2.6017043e-03
 -4.3599406e-01
 -1.1252902e-02
  5.3891681e-02
 -7.4124774e-03
  5.7746500e-02
 -7.9124738e-03
  4.7598699e-01
  5.1547647e-02
 -7.1375802e-02
 -8.4011391e-02
  1.9238122e-02
 -4.7818631e-02
  2.9363379e-02
 -5.2371379e-02
 -2.1714676e-02
  1.2789336e-01
  1.1063810e-01
  6.1803810e-02
 -1.2929569e-01
 -5.6715306e-02
 -4.8376382e-03
 -2.1885512e-02
 -2.8336149e-01
 -5.8737900e-02
  3.7876721e-02
  4.6432067e-02
 -1.1743455e-01
  6.0706504e-02
 -1.9243775e-01
  8.5869059e-02
 -8.7458782e-02
 -3.1078467e-02
 -1.0143367e-01
  1.7788659e-01
 -1.9721180e+00
  1.4721682e+00
 -1.9955063e+00
 -3.0209539e+00
  4.9285118e-02
 -2.0759340e-01
  3.7026172e+00
  5.0656092e-01
  3.2881958e+00
  3.9583808e-01
  9.6138191e-01
 -5.6266624e-01
  1.2486695e+00
 -8.7319493e-02
 -4.7517102e-02
  2.5860512e-01
 -1.4595156e-02
  3.2707667e-01
 -9.7956640e-01
  5.7051084e-03
  4.8457664e-01
  1.5344189e+00
  5.7700175e-01
  4.4538596e-01
 -1.5183800e-01
  7.2945511e-01
 -8.4910709e-01
  1.8367052e-02
 -1.9638245e-01
  3.0808061e-01
  9.2029583e-01
 -3.9257132e-03
 -1.0229857e-01
 -9.4183576e-01
  3.6655232e-01
  4.6962878e-01
 -8.0726999e-01
 -1.2241224e-01
  8.2109593e-02
  2.3731177e-01
 -1.8288830e-01
  1.0771842e-01
 -8.7005965e-02
  6.6761744e-01
 -4.7047344e-01
  6.4387163e-03
  9.5815621e-02
  5.1281781e+00
  4.3588586e-02
  1.8466492e-01
 -1.5731850e-01
  1.2542176e-01
  1.0869335e-03
 -2.1958627e-01
 -1.1452937e+00
  5.4918891e-01
  1.2906399e+00
 -3.4343314e+00
  3.2865832e+00
  2.0380259e+00
  5.6977659e-01
  3.5226026e-01
 -4.1314891e-01
 -2.7698696e-01
  3.7914562e-01
 -3.1002021e-01
  3.4856334e-01
  2.6440459e-01
  3.8595255e-02
  1.2836913e+00
  1.2868373e-01
  3.3438457e-03
 -1.2329689e-01
  9.8041791e-01
  6.4298138e-02
  1.4496604e-01
 -5.8839407e-02
 -2.1063250e-01
 -4.2071521e-02
  1.3964590e-01
 -7.3150700e-01
 -4.0551923e-02
  2.3851463e-01
  2.4535295e-02
  1.8775567e-02
  7.1080320e-02
 -1.2795115e-01
 -2.9663828e-01
  2.9671577e-01
 -2.5495824e-01
  2.2208934e-01
 -1.3228657e-02
 -2.7292097e-02
  2.2404267e-01
 -1.3631515e-01
  2.4278800e-01
 -3.8519494e-02
 -2.7222285e-01
 -4.2523384e-01
  3.3717193e-02
 -1.1638924e-01
 -1.8974032e-01
  9.9201994e-03
 -4.0180412e-01
 -6.2514441e-03
  1.2530375e-01
  3.2512899e-02
  5.2437160e-02
  2.4416656e+00
 -9.7462600e-01
 -4.2634955e-01
 -2.0358720e+00
  4.4876962e+00
  2.2236593e+00
  2.0225573e+00
  1.0927777e-01
  1.1801083e+00
 -3.0733496e-01
  1.1617832e+00
  1.8725141e+00
  1.5349773e+00
  8.1988774e-02
  8.0531351e-02
  5.6524956e-01
  1.4050040e+00
  1.3628742e+00
 -1.8335236e+00
 -1.6348923e+00
 -3.4654650e-01
  1.1447921e-01
  9.1145754e-01
 -1.4918718e+00
 -3.5931256e-01
 -2.7363194e-02
 -9.3743628e-01
  9.7201651e-01
 -4.4379240e-01
 -1.3342121e-01
  3.6660425e-02
 -3.8627750e-01
  5.8286715e-02
 -6.8863821e-01
  1.5960276e-01
  6.0735214e-01
 -4.3137258e-01
 -9.1626411e-03
 -5.1972155e-02
  2.3290464e-01
  4.8949200e-01
  2.0689316e-01
  4.8503324e-01
  4.6524074e-02
 -2.4976568e+00
 -3.6605045e-02
 -3.8289189e-02
 -3.5257319e-03
 -1.0035061e-01
  8.5714601e-02
 -3.3731274e-02
 -5.1638242e-02
  5.6347840e-02
 -8.7799348e-02
 -1.3917203e+00
 -1.3984796e-01
 -3.4533148e+00
 -1.9785422e+00
  9.4457811e-01
  3.5361326e-01
  2.5091693e+00
  2.6848283e+00
  4.9571633e+00
  5.0490922e-01
  6.6391714e-02
 -7.5929880e-02
  5.4315913e-01
 -2.0480268e-01
 -6.0955625e-02
  5.3742605e-01
  6.4980596e-01
 -5.9183574e-01
  1.0907483e-01
 -9.7641122e-01
 -1.0358768e-01
  2.3014552e-03
 -1.7730193e+00
  3.1365129e-01
 -1.3207327e-01
  1.2835066e+00
  1.3723357e-01
 -3.1545737e-01
  1.2537203e+00
 -6.9968855e-01
 -2.0571338e-01
  3.7356418e-01
  6.7494243e-01
  7.1103513e-01
 -1.4705486e+00
  1.2089250e-01
  2.4007265e-02
  6.3740869e+00
  2.0741703e-02
 -2.4663952e-01
 -3.3702940e-01
  1.4171390e-01
 -1.5753452e+00
  8.6076373e-01
 -9.9193895e-01
 -9.0082828e-03
 -4.6016805e-02
  4.8118979e-02
 -1.4165552e-01
 -1.4903408e-01
 -3.2971665e-02
 -2.2086386e-01
  1.1149115e-01
 -1.0012364e-01
  2.1702453e-01
  1.3271907e-01
  1.8496561e-01
  2.0083185e-01
 -5.5102147e-02
  3.5000376e-02
  4.3821065e-03
 -1.7762477e-02
  8.6938767e-03
 -4.2903706e-02
  5.6461673e-02
  5.6809928e-02
  2.0412101e-01
 -8.2906306e-02
  4.8654839e-02
 -1.8858938e-01
 -4.6901248e-02
  7.3593035e-02
  4.7062110e-02
  1.1802589e-02
 -1.3096239e-01
  7.3078468e-02
 -2.9986011e-02
  2.2589264e-02
 -5.9587348e-02
 -4.5045495e-02
 -3.6191493e-02
 -3.5816333e-03
 -1.1069243e-01
 -5.0745461e-02
 -1.9619467e-02
  5.9385311e-02
  1.2611240e-01
 -1.8959400e-01
 -1.5423729e-01
  8.2374901e-02
  3.7748810e-02
 -6.9632279e-03
  1.2697820e-01
 -1.3297106e-01
 -1.8175165e-01
  1.4007138e-01
 -3.0580627e-02
 -5.3892087e-02
 -1.5377130e-01
  8.1796974e-02
 -6.8138041e-02
  1.2400429e-02
 -5.8517776e-02
 -1.2368672e-01
 -8.8715851e-02
  4.2110463e-03
 -1.4447466e-01
  2.4058849e-01
  5.9355859e-02
 -9.1630772e-02
  1.9629234e-01
  1.3771767e-02
  3.3533263e-01
 -7.6929515e-04
  1.6030543e-01
 -8.2624562e-02
 -3.0729566e-02
 -1.8024060e-01
  2.4160090e-01
  4.9700156e-02
 -3.1134726e-02
  7.3631808e-02
 -1.4536962e-02
  1.3273369e-01
 -3.5620995e-02
 -2.7691359e-03
  6.1568968e-02
 -1.0199404e-01
 -3.1248288e-02
  2.4433056e-02
  1.5249835e-01
  1.3601384e-02
 -1.9212581e-01
  5.9849862e-03
 -1.3022250e-03
  2.6122484e-02
  1.7744930e-01
  4.4481516e-02
  9.2670947e-01
 -7.6375932e-02
  1.2863506e-01
 -7.2131450e-03
 -8.8632330e-02
  1.3196854e-01
 -1.0980292e-01
 -8.6497895e-02
  1.4470370e-01
 -2.2457330e-02
 -1.1222725e+00
 -1.0159709e-01
  1.2738948e-02
 -1.7068468e-01
 -2.5226545e-01
 -1.2851505e-01
  1.2275666e-01
  9.0697959e-02
 -2.1655980e-01
 -5.5440158e-02
 -5.1902976e-02
  7.6032996e-01
 -4.3530215e-02
  1.2287585e-01
  8.2056653e-01
 -5.3074419e-01
  1.8492286e-01
  6.1920691e-01
 -5.1201397e-01
 -1.3850100e-01
  2.7151060e-01
  3.5371054e-02
 -9.2848545e-01
 -2.5465998e-01
 -5.8957834e-02
  6.8008468e-02
 -5.9561636e-02
  6.2748395e-02
  1.0386979e-01
 -5.0182547e-02
  4.0878166e-02
 -6.5535888e-02
 -2.9138338e-02
 -1.0576198e+00
  2.1816704e-01
  1.7337257e-01
  1.5538812e-02
  9.9287935e-02
  1.7806015e-03
 -1.7521989e-02
  3.0104868e-02
 -1.7136820e-01
  1.5038304e-02
 -4.7920316e-02
 -4.2552222e-02
 -1.4438160e-01
  3.7737750e-02
  3.9130321e-01
 -1.6548765e-01
  8.1368461e-02
 -1.0142474e-01
 -1.7935341e-02
  5.6241103e-02
 -3.9201999e-01
 -8.7837011e-02
 -9.3758225e-02
  3.3115631e-01
  7.8609459e-02
  3.1863555e-02
  3.4304731e-02
  1.3588251e-01
 -1.5037577e-01
  2.1703660e-02
 -1.0083336e-02
 -1.0280728e-01
 -5.3441528e-02
 -2.6050812e-02
 -1.1265450e-01
 -1.0317472e+00
 -6.0564631e-01
  8.2344723e-01
 -1.7159907e+00
 -1.3295200e+00
 -3.3046982e+00
 -5.0885981e-01
 -1.0389897e+00
 -3.9421442e-01
 -4.0021637e-01
 -1.2609802e-01
  6.4188391e-02
  8.3048470e-02
  2.4866959e-02
 -1.5057401e-01
  9.5891476e-02
 -1.3423131e-01
  3.7042595e-02
 -7.9171854e-01
  1.1775258e+00
 -4.0329196e-02
  6.8915069e-01
  4.9957082e-01
 -2.7384567e-01
 -4.6027976e-01
 -5.9936140e-02
  4.8104060e-01
 -7.7842012e-02
  4.2830971e-03
  3.0894476e-01
  2.9119909e-01
 -4.2754883e-01
 -1.8859742e-02
 -2.2104321e-02
 -2.3728235e+00
 -1.5205559e-01
 -1.0958166e-01
  1.5357083e-01
 -5.7347801e-02
  6.1645389e-01
  2.1713762e-02
 -5.8234626e-01
  9.8823392e-01
 -2.2167517e-01
 -5.1972546e-02
  1.8231443e-01
  1.3441317e-01
 -2.9294126e-02
  1.1088089e-01
  6.3787051e-02
  1.1499476e-01
  6.7936294e-03
  2.1081135e-01
 -1.9648330e-02
  6.7968108e-02
 -4.4545993e-02
 -5.5680718e-02
 -2.3676854e-02
 -1.6573615e-01
 -8.6529732e-02
 -2.2669016e-01
  1.8540177e-01
  1.3403648e-01
  5.1516688e-01
 -3.6830753e-02
 -1.1366746e-01
 -1.0672984e-02
 -9.3415558e-02
 -6.3364409e-02
 -1.9673759e-01
 -1.3866328e-01
 -1.7726454e-01
  1.6678278e-01
 -2.9862976e-01
 -4.1584555e-02
 -3.6020573e-02
 -2.4062546e-02
 -3.0694589e-02
 -3.4964457e-01
  1.1264738e-02
 -4.3572865e-02
  1.1013865e-01
 -1.1966071e-02
  1.4277904e-01
 -5.4970989e-03
 -4.3308444e-02
  8.2972441e-03
  2.3209738e-02
  3.7786063e-02
  1.3979094e-02
 -6.5667324e-02
 -1.1722785e-02
  2.0830132e-02
 -5.9304614e-02
  1.5302984e-02
 -2.9668353e-02
  1.6333845e-02
 -2.7717006e-01
  1.7692687e-02
  5.8721505e-02
 -9.2105031e-02
 -6.5673254e-02
  4.2702269e-02
 -3.0472204e-03
 -1.1562108e-01
 -3.8186956e-02
 -2.7316814e-02
  9.0499409e-02
  7.5186515e-01
  6.9230306e-01
  7.8823739e-01
  7.1628690e-01
 -1.6129067e+00
 -2.7946308e-02
 -9.8475796e-01
  4.8032403e-02
  1.3110706e+00
 -2.6184782e-01
 -6.4733453e-02
 -1.1707565e-02
  7.2659679e-02
 -3.6406478e-01
  1.3998778e-02
 -1.6342077e-01
 -6.0613103e-02
  8.4871516e-02
  3.9629798e-02
  3.2443195e-03
 -5.3628016e-01
  9.7693205e-02
  6.2268037e-02
  3.4675743e-02
  2.6008949e-01
  6.6265382e-02
 -9.8267414e-02
  4.3044403e-02
 -1.7874341e-01
 -4.8389785e-02
  6.3076369e-02
 -2.7733728e-01
 -5.2864179e-02
 -1.6792589e-01
 -3.7710705e-01
  1.4069481e-01
  6.6377625e-02
 -1.1427170e-01
 -3.1210912e-02
  2.8484988e-01
  1.2546328e-02
 -2.0296188e-01
  4.2310029e-02
 -3.8381687e-01
 -1.1383215e+00
  5.4786067e-02
  7.3370904e-02
  1.9501580e-01
  2.2189045e-02
 -2.4087453e-01
  5.7086866e-02
  3.9994775e-04
 -1.0875325e-01
  4.9833669e-03
 -2.3543177e+00
 -3.2968199e+00
  8.8632268e-01
 -5.1539063e-02
 -4.2933893e+00
 -1.6382960e+00
  2.3758059e+00
  2.7336764e+00
  3.4736559e+00
  4.6632652e+00
 -3.6183462e-01
  4.8492931e-02
 -2.5275481e+00
 -2.2626089e-01
 -2.9960459e-01
  1.4591882e-01
 -7.7156119e-02
 -6.1327904e-01
  9.5624042e-01
 -1.6172017e+00
 -4.5504805e-02
 -4.0455094e-01
 -6.6021699e-01
  1.6593684e-01
  9.5699555e-01
  7.8170979e-01
 -1.0627068e+00
  1.8380694e-02
 -1.1638752e+00
 -2.4890960e-03
 -4.7383219e-01
 -2.9088461e-01
 -1.1481778e-01
  3.8637799e-01
 -1.4307824e-02
  4.0948278e-01
  7.1664616e-02
 -3.8698266e+00
 -6.7095123e-02
  6.2650621e-02
 -8.6483490e-01
  2.5658035e-03
  2.3880588e-01
  2.2068556e-01
 -6.9242299e-02
  2.0758179e-01
 -4.2501021e-02
  5.3536166e-03
 -1.3373445e-01
  1.1316775e-02
  2.0776628e-01
 -2.1712057e-02
  3.4386821e-02
  1.2252194e-01
  4.0702528e-01
 -5.4811593e-02
  2.6453033e-02
  2.0490716e-01
  5.4206081e-02
  7.8414243e-01
 -1.6564994e-01
  2.6275446e-03
 -6.3091606e-01
  9.7238801e-02
 -1.4799072e-01
  7.7980287e-02
 -1.3141835e-01
  1.7725249e-01
  8.3363777e-01
  3.8561385e-02
  2.4390267e-02
 -2.1830419e-01
 -4.8369154e-02
 -6.6900975e-03
 -1.0950200e-01
  1.7432824e-01
 -2.2730533e-02
  7.2539590e-02
  7.1548048e-04
  6.8049856e-02
 -2.7505076e-02
  1.3016573e-01
  5.9253115e-02
  4.2249359e-02
 -1.7140795e-01
  2.8901841e-02
 -2.2154455e-01
  5.1045112e-02
  2.0650094e-02
 -5.7058077e-02
 -1.2941079e-02
  7.2287172e-02
  2.6668420e-01
  2.4897942e-02
 -6.9441991e-03
  1.1599243e-01
  1.7018605e-02
  1.5383524e-01
 -5.3699322e-02
 -4.2911623e-02
 -1.5681118e-01
 -1.8393859e-01
  2.4433969e-02
 -1.3454928e-01
 -7.8777760e-02
 -1.2202539e-02
  1.4144146e-01
 -6.8668388e-02
  5.1586062e-02
 -3.4609118e-01
  2.6526171e-01
 -1.3113301e-01
  1.7686095e-02
  6.0846433e-02
  2.9630548e-01
  6.1114769e-02
  1.2432793e-01
 -2.1758759e-01
 -4.0071540e-02
 -9.6879289e-02
  1.4063311e-01
  1.2315714e-01
 -1.8909705e-01
 -6.9217798e-03
 -7.3188126e-02
  1.2647870e-02
  4.0249623e-02
 -4.9661282e-02
 -7.7803815e-03
 -1.5191299e-01
 -1.3388684e-01
 -5.9297472e-02
 -1.1862391e-01
  7.6594613e-02
 -3.4998155e-03
 -5.6544868e-03
 -4.4406517e-03
 -6.4073682e-02
  8.1487946e-02
  8.0972865e-02
  3.2871455e-01
 -7.8964844e-02
  6.4372905e-02
 -3.3580929e-02
 -6.9220461e-02
  2.9466733e-02
 -2.7091324e-02
  1.9539576e-02
 -1.5201849e-01
  2.1033962e-01
  4.0156890e-02
 -3.8163040e-03
  2.9570414e-03
 -2.7618621e-02
  9.4276242e-02
 -1.0375089e-01
 -4.9310247e-03
  5.6402266e-02
 -5.1528409e-02
 -2.6559681e-01
  7.0897557e-02
 -7.4871436e-02
 -1.0088683e-02
 -5.6021027e-03
 -1.3118790e-01
 -2.9041880e-01
  1.0016640e-01
  2.3974003e-01
 -1.3199063e-01
  4.9501728e-02
 -6.4039297e-02
  5.9520643e-02
 -1.8095560e-01
 -6.1349254e-02
  1.9390936e-01
  5.9613511e-03
  3.8127523e-02
 -9.5328107e-02
 -3.2409333e-02
 -2.2303263e-02
  4.8650242e-02
  4.3219730e-02
 -4.1923520e-01
 -6.1336257e-02
 -1.0119113e-01
 -6.7559376e-02
 -1.0184400e-02
 -1.5985911e-01
  8.3264977e-02
 -3.9467607e-02
 -1.1661241e-02
 -1.9612531e-01
  3.7655864e-02
 -3.2828074e-02
  1.4811040e-02
  9.4731133e-03
  4.4152647e-02
 -1.3630483e-01
  1.2788016e-01
 -1.0251629e-01
  4.1329052e-02
  4.9305756e-02
  2.8217048e-03
 -7.4618310e-03
 -4.5420315e-02
 -5.0523318e-02
  3.4522124e-02
  9.1205284e-02
  1.0254163e-02
 -2.3123187e-01
  2.8596310e-02
  1.0726376e-01
  1.7829084e-01
  1.4676698e-01
 -4.6169516e-02
  6.4429015e-02
  4.8559282e-02
  1.5361365e+00
  8.6499286e-01
  2.1315472e+00
 -6.4741027e-01
 -7.1174300e-01
 -1.4537874e+00
 -1.1658520e-01
 -9.3889564e-01
  2.8840313e-02
 -3.1178185e-01
 -1.6953556e-02
 -1.5143304e-01
 -2.6533321e-01
 -2.1759455e-01
  9.4770861e-01
 -6.2800355e-02
 -2.2554530e-01
  1.5575488e-01
 -1.3977230e-01
 -7.5147830e-02
  1.8981653e-01
 -1.6092400e-01
  5.9345078e-01
 -6.3883163e-02
  4.1846145e-04
  7.7144623e-02
 -6.9105148e-02
 -3.5930440e-01
  9.5512033e-02
 -2.2975907e-01
 -4.7297943e-01
 -1.3912551e-01
 -4.9278465e-01
 -3.6268693e-01
 -1.8979570e-01
  8.0624855e-01
  2.7864981e-02
 -9.2038311e-02
  2.6286596e-01
 -8.2216442e-02
  2.8897002e-03
 -1.8754295e+00
  7.1912371e-02
 -7.9151178e-03
  4.0441833e-02
 -4.1454311e-02
  2.2429991e-01
  4.9905535e-02
 -5.0174996e-02
 -1.4394353e-01
 -2.6226821e-03
  1.5811907e-01
 -1.8663827e-01
 -3.4442924e-02
  2.5569854e-02
  2.4800705e-02
 -6.9537358e-03
  1.6640601e-01
 -6.7678407e-02
  1.4952534e-01
 -7.0952855e-02
  2.5688570e-02
 -3.8726924e-03
 -6.0462117e-02
 -2.1795209e-01
  5.6457777e-02
 -3.2986575e-01
 -7.1130738e-02
 -2.4776652e-02
  3.5742559e-02
 -8.5841473e-03
  2.0857671e-01
 -1.1755662e-01
 -9.7286209e-02
 -8.8785976e-02
 -2.7512975e-02
 -6.0134180e-02
 -8.8508621e-02
  9.7065933e-02
  1.0767531e-02
 -3.1326469e-02
  2.3181748e-02
  8.9265354e-02
  5.5052698e-02
  2.1801205e-01
  5.0608654e-02
  2.4476150e-02
  1.3434417e-02
  8.9942757e-03
  7.3030517e-02
  5.5238873e-02
 -3.5028160e-02
  3.0328961e-02
 -3.2675099e-01
  7.4738495e-02
 -3.3516395e-01
 -8.3189830e-02
 -7.1256936e-02
 -4.0122560e-01
 -1.0169793e-01
  1.0035011e-01
  2.0478404e-01
  4.0761024e-02
  2.2617634e-03
 -9.1244985e-04
 -3.4097694e-02
 -6.7693368e-03
  1.0517407e-01
  3.3397913e-02
 -1.9853553e-02
  1.2071594e-02
  1.6313526e-01
  1.4700579e-02
 -7.1672402e-02
  5.8793064e-02
 -1.1496247e-01
  1.5587877e-01
  5.1790934e-02
  7.0188791e-02
  1.5405810e-02
  2.5155064e-02
 -2.4683294e-01
 -1.4192317e-01
  8.1994265e-02
 -4.9270620e-03
 -6.5038718e-02
 -5.1512472e-02
  3.1524271e-02
  1.2001514e-01
 -7.9122908e-02
  2.9302828e-02
  6.5328270e-02
  2.8222172e-02
 -2.1534741e-02
 -2.5780441e-02
  3.0263203e-01
  5.8206152e-03
 -4.7942209e-03
  9.0055186e-03
  3.4352008e-02
 -1.7754668e-01
  7.7710755e-02
 -1.0824518e-01
  5.3413581e-02
 -5.5812836e-02
  6.6392841e-03
  3.1782780e-02
 -2.1699418e-01
 -1.8806355e-02
  2.2638757e+00
  1.8983327e-01
  1.5495197e-01
 -1.5955573e-02
 -1.2892839e-01
  6.8024611e-03
 -1.3964263e-01
 -1.3766617e-01
 -1.3980681e-01
  8.5863233e-02
 -6.4377487e-02
  2.4698241e-01
  2.9304257e-01
 -2.5513608e+00
 -3.6642304e-01
 -3.4398758e+00
  2.9051752e+00
  1.9608681e-01
  2.3810499e+00
  5.8734316e-01
  1.1231780e+00
 -2.2770202e-02
  1.6980793e-01
 -9.5903881e-02
 -4.2156551e-02
  7.3245466e-02
 -5.5150229e-02
 -3.4239960e-01
  1.8744202e-01
 -1.9169120e-01
  8.2471400e-02
 -1.2317718e-02
 -1.6354677e-01
 -4.6701753e-03
 -1.1238873e-01
  1.9475515e-01
 -2.7521862e-02
  2.3532945e-01
 -1.9966498e-01
  5.6712115e-01
  2.7216837e-01
 -1.4281708e-01
 -1.2012476e-01
  3.4866735e-01
 -1.9165985e-02
  1.2084616e+00
 -4.7345152e+00
 -1.3904983e-01
  2.3969272e-03
  1.2598713e-01
 -2.8387511e-03
 -5.7627451e-02
 -1.1554232e-01
 -5.8395499e-01
 -2.1159828e-01
  5.0529152e-01
  2.6952499e-01
  1.1991806e-01
  9.8321833e-02
 -1.7054121e-01
 -3.9224554e-02
 -5.3639866e-02
  2.3617484e-01
 -5.3236593e-02
  9.4915070e-03
  1.2308015e-02
 -6.4377445e-01
  3.7918830e+00
  4.1308799e+00
  4.6574802e+00
  2.9425721e+00
  1.2666144e+00
  5.0560206e-01
 -2.6161644e+00
 -2.4617572e+00
  4.0354002e-01
 -3.7348885e-02
 -7.9900518e-02
  4.2404622e-01
 -4.6939988e-02
  8.6536326e-02
  1.4337057e+00
  1.7054975e+00
 -2.5214474e+00
 -8.8141590e-02
  1.1363748e+00
  4.1222525e-01
 -2.8361169e-01
  1.0324881e+00
 -1.0332323e+00
  5.7909298e-01
 -1.4161094e+00
  3.0326563e-01
 -8.6435936e-02
 -9.7593470e-03
 -3.4971428e-01
 -2.1281492e-02
  7.0113671e-01
 -2.5268841e-01
  1.1626401e+00
 -4.8935306e-01
 -7.5551504e-01
 -1.1752830e-01
 -4.2569068e-01
  4.0069309e-01
 -6.6913813e-02
  2.4529805e+00
  2.8119221e-01
  1.7969811e-01
 -7.0536107e-01
  9.3478441e-02
 -2.5170726e-01
  4.4055175e-02
  2.9302977e-02
  1.7623100e-02
  8.7936193e-02
  5.1903732e-02
  4.9990270e-02
 -9.5091157e-02
 -1.0633109e-01
 -8.7442988e-01
 -3.9047603e-02
 -1.3750548e-02
 -8.0531582e-02
  1.0684432e+00
  1.7490369e-01
 -4.0684480e-02
 -7.5517945e-02
  4.0608466e-01
  1.2005464e-01
  5.0229523e-02
  1.3257204e-01
 -3.9546788e-01
  5.2681189e-02
  2.3895899e-02
  1.4919579e-01
 -3.9579460e-01
  7.6565407e-02
 -6.6147171e-02
  1.1513055e-01
 -1.8712299e-01
 -4.6215013e-02
 -2.2084065e-02
  6.8249337e-02
  3.8960138e-03
 -1.4142640e-01
  2.4386680e-02
  1.1202388e-01
  6.7395926e-02
  1.8878745e-02
  1.2025417e-01
 -1.3524307e-02
  1.6741000e-01
 -1.6441929e-01
 -1.1722544e-02
 -7.3269964e-03
 -2.7320904e-04
  2.2621241e-01
  2.0053343e-01
  1.7526132e-01
  2.1638696e-03
 -3.0524004e-02
  1.4039792e-01
 -1.1905237e-01
 -2.0698300e-02
 -3.8172316e-02
 -2.6896355e-01
  1.5241577e-03
 -2.6218777e-03
 -1.2426343e-02
 -1.6615762e-01
  7.8079775e-03
 -8.3340453e-03
 -1.0786335e-01
  4.7710037e+00
  6.5725368e-01
  1.3366256e+00
  1.7836034e+00
  1.8453406e+00
  2.6247010e+00
  6.9255978e-02
  3.0209205e+00
  1.7391801e+00
  1.4159304e+00
 -1.3872912e+00
 -7.6218843e-01
 -2.4845240e-01
 -1.7891449e-01
  1.7838618e-02
  1.2414351e+00
  6.1557145e+00
 -9.4393320e-02
 -1.5158913e-01
  1.2060335e+00
  5.3168520e-02
 -3.7930161e-01
  4.7112593e-01
 -4.0863073e-01
  9.0308380e-01
 -9.1237080e-01
 -2.7482250e-01
 -3.1022438e-01
  2.1923670e-01
  3.2743961e-01
  1.1408563e-02
 -6.3133775e-03
  2.6156711e-03
  5.5433029e-01
 -4.4787210e-01
 -4.7283268e-01
 -9.3404120e-03
 -1.4466268e+00
 -1.9016707e-01
 -6.1486411e-01
  8.0202088e-02
  8.3243214e-02
  9.8279560e-01
 -6.6094464e-01
 -7.1116656e-02
  4.4633020e-02
 -2.2217935e-01
 -3.1037372e-02
  2.3311990e-01
  1.9474586e-02
  3.0421415e-02
 -1.8352075e-02
  1.0928068e-01
 -3.1036049e-01
  6.8290755e-02
 -1.1743028e-01
  1.2795135e-01
 -8.8847987e-03
 -4.9949544e-03
 -2.4277279e-01
  8.3114050e-04
  1.8141013e-02
 -3.1038081e-02
  5.6523312e-02
  8.0967862e-03
  5.0208304e-02
 -1.9042239e-03
  4.6770297e-02
 -1.8171731e-01
 -2.9938964e-02
  7.8168377e-02
  8.8139679e-03
 -3.4368455e-02
  1.1777085e-01
 -1.3181946e-01
 -2.4222640e-02
  1.1836243e-01
  2.5801266e-02
  1.4257893e-02
 -5.5679645e-02
 -2.6360977e-02
 -2.2318067e-02
  9.1764890e-02
 -6.6763826e-02
 -9.0615653e-02
  4.9641389e-02
 -3.1154433e-02
  1.2064829e-01
 -1.1727362e-01
 -6.2786959e-02
 -6.4546935e-02
 -7.9313919e-02
  5.1488902e-02
 -3.0965334e-01
 -3.6549397e-02
  2.3509462e+00
  1.6504467e-01
  5.6327395e-02
  1.9957754e-01
 -6.2145744e-02
  4.2389479e-02
  2.6735974e-02
 -2.0308512e-01
 -4.4280194e-02
 -2.9745042e-01
 -4.8662826e-02
 -3.2226902e-02
  1.4164136e-01
 -1.7417613e+00
  1.4111648e+00
 -1.8437490e+00
 -2.5350027e+00
  1.6963198e+00
  2.0918877e+00
  3.8590372e+00
 -8.3525455e-01
  4.8078613e+00
 -6.3798785e-01
  1.5986075e+00
  4.3763363e-01
  6.1440015e-01
 -1.6581269e-02
  5.8693234e-02
 -6.2727326e-01
  3.2190156e-01
  5.1838976e-01
 -3.4188315e-01
 -1.8266913e-03
  1.0328119e-01
  2.1290736e+00
 -1.1608037e-01
  1.3173245e-01
  1.5575922e+00
  1.8483366e-01
 -1.1633204e+00
 -3.0900186e-01
  2.7614024e-01
  7.0093796e-02
  2.0910094e+00
  2.1337503e-01
  5.1576369e-02
  1.6145149e+00
  5.5021030e-01
  3.8613757e-01
 -2.2347736e-01
 -4.8152763e-01
 -8.9710087e-02
 -6.1600246e-02
 -1.7021807e-01
 -4.9579874e-02
  1.0082680e+00
  7.0083338e-01
 -6.6956952e-02
  9.5281288e-02
  3.8205944e-02
 -1.2957072e-01
  7.8986716e-03
 -6.6678576e-02
 -2.2336251e-01
 -1.5897173e-01
  4.4313198e-01
  5.8067578e-01
  3.6122220e+00
  2.6283090e+00
  4.8438409e-01
  6.7711771e-01
 -3.4188557e+00
 -2.8289347e+00
  2.9412925e+00
 -3.8876495e+00
  3.1306353e+00
 -2.7523220e-01
  9.0717897e-02
 -4.2661369e-02
 -1.3458867e+00
  7.0785224e-01
 -3.2253664e-02
 -1.0964793e-01
  3.0689746e-01
  6.2506258e-02
 -2.8112093e-01
  3.1800320e+00
  4.2973208e-01
 -1.1469477e+00
  5.6955788e-02
 -2.6388872e-01
 -2.4733882e-01
  1.6007219e-02
 -2.7459526e-01
 -5.6113458e-01
  1.1452192e+00
 -1.0398281e-01
 -2.6718336e-01
  6.8890816e-01
 -3.2087886e-01
  3.8178739e-01
 -1.3459604e+00
 -8.3416209e-02
 -9.8486036e-01
  1.7657344e+00
 -7.0527202e-01
  2.0571011e-01
  3.5543793e-01
  2.3437846e-01
  8.6717671e-01
 -7.8623223e-01
 -1.7442054e-01
  1.5713146e-01
 -7.5451992e-02
  9.1889434e-02
 -3.0057779e-02
  5.7888232e-02
  9.1845300e-03
  1.0376018e-01
 -6.1594844e-02
  1.0310046e-01
 -1.6106209e+00
 -2.1987839e+00
  3.5365524e+00
 -3.8633935e+00
 -1.6088806e+00
 -4.4739151e-01
  2.1737833e+00
  2.7541230e+00
  1.3446416e+00
 -2.5033228e+00
  2.8217912e-01
  1.0003676e-01
  1.2113800e-01
 -1.7369489e-01
  7.6311693e-02
  1.9632473e+00
  4.1558182e-01
  2.4328162e-01
 -6.6942739e-01
 -2.1143660e-01
 -6.7681313e-01
 -1.7404888e-02
  9.5137306e-02
 -4.8985869e-02
 -1.1207389e+00
 -8.1987426e-02
 -1.1815975e-01
 -7.6834911e-01
 -2.2116035e-02
 -1.8672168e-01
 -1.0632219e-01
 -1.1971403e-01
  1.9465001e-01
  4.5290864e-01
  5.0367069e-01
 -1.2437198e-03
 -8.1429881e-01
  8.3538547e-02
 -9.2735931e-02
  3.4642644e-02
 -1.2440854e-01
 -1.0592658e-02
  1.6558609e+00
  1.8406528e-01
 -3.2643337e-02
 -5.5924351e-03
  1.3802904e-01
 -1.0868475e-01
 -1.3527305e-01
  3.8640320e-02
 -4.7719516e-02
  8.2479388e-02
 -2.8479329e-01
  5.8938883e-02
  1.6779406e-01
  2.4098167e-01
  1.0727892e-01
  7.0250158e+00
  7.3042316e-03
 -2.9418817e+00
 -2.9581529e-01
 -4.2298269e-02
  2.8914336e-02
 -8.3516479e-02
  2.4345323e-02
 -3.2235660e-02
 -1.2227730e-01
 -8.1520237e-02
 -1.2183076e-01
 -7.2338569e-01
  2.9021323e-02
  1.5725787e-01
  2.1113555e-01
 -1.6220352e-01
  5.9895605e-01
  2.4507493e-02
 -6.9633372e-02
 -5.9443988e-02
  2.0728607e-01
 -4.3772727e-01
 -1.7379442e-01
 -9.5490143e-02
 -1.6746109e-02
 -1.2023021e-02
 -2.7554870e-01
 -3.2238388e-01
  7.5383068e-05
  6.5224245e-02
 -6.9676928e-02
  8.8484839e-02
 -1.8354304e-02
 -1.4357804e-01
  3.3114932e-02
 -1.7790462e-01
  8.4720230e-01
 -1.7186417e-01
  8.7196633e-02
 -4.2711239e-02
  2.9026681e-01
 -4.1616958e-02
 -6.9116309e-02
  2.1895657e-01
  7.3593542e-02
  5.8525808e-02
  1.2661397e-02
  2.4387462e-02
  3.1369696e-03
  1.7905794e-03
 -6.2824273e-01
 -1.8005862e+00
 -8.6729127e-01
  3.9071989e-01
  4.4127753e-01
 -1.0825988e+00
  2.5357294e+00
 -5.8080636e-02
 -4.2472699e-01
 -1.9788040e-01
 -4.0443577e-02
  1.3826449e-01
 -5.2343108e-02
 -1.7275771e-01
  2.4468558e-01
  4.9845289e-02
  4.3498483e-01
  9.0156697e-02
 -6.3754708e-02
  3.8984429e-02
 -1.7667882e-01
 -4.6110339e-02
  4.6079493e-01
 -6.2980205e-01
 -6.4281560e-02
 -1.1336184e-01
 -1.8047471e-01
  1.1202290e-01
  1.5428555e-02
  4.6985891e-02
 -1.4464633e-02
  5.4292146e-02
 -5.6194577e-02
 -5.6723271e-02
  4.1204363e-02
  7.1848166e-01
  4.2886043e-01
 -2.2140567e-01
  2.4634571e-01
  3.4358568e-02
  1.3684859e-02
 -1.4644757e-01
  1.0672744e-01
 -3.9390478e-02
 -4.1895533e-01
 -6.5914743e-02
 -1.4942707e-01
 -1.6458489e-01
 -3.1937838e-02
 -5.0328910e-02
 -7.4996003e-03
  1.3596340e-01
 -2.4866436e-02
 -3.9200526e-01
 -1.7290115e+00
  3.2989008e+00
  1.3678411e+00
  5.2869063e-02
  6.1164351e+00
  4.8361444e+00
  2.4538016e+00
  7.8414506e-01
  1.2703749e+00
 -1.4894000e+00
  1.6977973e-01
 -7.2742991e-02
  1.1689266e+00
 -8.1192076e-01
  2.4998280e-01
 -2.6761408e+00
 -5.1032715e+00
 -1.0687755e-02
  1.2361515e-01
 -6.7147270e-02
 -5.6173527e-01
 -1.4013127e+00
 -5.7882465e-02
 -2.2173239e-01
 -3.1323090e-01
 -4.4518925e-02
  1.5014473e-02
  2.3284356e-01
  2.8722100e-03
 -2.4853739e-01
  4.6360302e-01
 -6.8402010e-01
 -1.8349530e-01
 -5.0077128e-01
 -3.2373121e-01
  2.0402472e-01
 -2.3927419e-01
 -1.5422714e-01
  5.9558712e-03
 -8.9025682e-01
 -3.7337723e-01
  5.2531660e-01
 -2.7095541e-01
  1.4823402e+00
  1.6097513e-01
  7.9024203e-02
 -2.3217808e-02
 -7.3939288e-01
  1.8862975e-01
 -1.9006902e-02
  1.9150437e-01
  9.4320863e-01
  1.8854748e-01
 -5.1520832e-02
  3.8185039e+00
 -1.3317976e+00
  1.6778939e+00
  7.1281552e-01
 -8.6465836e-01
 -2.0215297e+00
 -7.7468097e-01
 -6.6795640e+00
 -3.1416328e+00
 -4.4979796e-01
 -3.9729197e+00
  1.3242348e-01
 -7.5583732e-01
  6.8630062e-02
  6.1891656e-02
  1.9780735e+00
 -1.9003902e-01
 -4.3131337e-02
 -1.6761947e+00
 -3.7817430e-02
  5.7069576e-01
  1.7074211e-01
 -1.2950252e-01
 -8.9381181e-02
  8.9979583e-01
  8.1001079e-01
  5.2393812e-01
  8.9812160e-01
 -8.2126451e-01
  3.4170255e-02
 -7.0722520e-01
 -7.9941507e-03
 -1.7995687e-02
  1.2738646e+00
 -1.6624697e-02
 -7.5992003e-02
 -7.1126580e-01
 -6.5379429e+00
 -1.2428293e-01
 -3.7205808e-02
 -5.5759698e-01
 -3.9426568e-01
  3.1920857e+00
  8.9035235e-02
 -1.3800670e-01
 -2.9682558e-02
 -1.3788398e-02
 -2.2062196e-01
 -1.0148128e-02
  1.8226889e-01
  1.1302260e-01
 -1.8665901e-01
  9.5660943e-01
 -5.1124584e-02
  3.1962830e-01
  2.4387004e+00
  1.2971669e-02
  8.1529951e-01
 -2.1848091e-01
  2.7807791e-02
  4.2264581e-02
  2.0325610e-02
 -8.5585189e-01
  2.2451304e-02
  2.9553965e-02
  8.6806349e-02
 -1.5987283e-01
 -1.6778061e-01
 -1.0567995e-02
  6.3336536e-02
 -2.5960305e-01
 -5.5474648e-03
 -4.5842867e-02
 -1.1864201e-02
 -1.2663932e-02
 -2.9540369e-02
 -8.2904629e-02
  1.3146758e-02
  3.4247649e-01
  2.4164167e-01
 -1.1288759e-01
  3.5843369e-02
 -1.4085555e-01
 -4.1157018e-02
 -1.0481089e-02
 -1.4022125e-01
 -1.4383183e-01
  2.5564760e-01
  1.0502798e-01
  1.3113155e-02
 -1.0662090e-01
  3.9854072e-02
  1.2608948e-01
  1.4265749e-02
 -1.6943961e-01
  2.0037061e-01
 -7.9486541e-02
  1.0185089e-02
 -5.6301285e-02
  4.2663753e-02
  1.3275058e-02
  1.3109306e-01
 -3.8940318e-02
  2.8085889e-02
  3.0790344e-02
  1.5981203e-02
 -1.1904415e-02
 -3.0039260e-01
  8.4521554e-02
 -1.0076915e-01
  4.4939317e-02
 -1.2805474e-01
  1.3887092e-02
  9.0211883e-02
 -2.8280385e-02
 -5.9388150e-02
  1.4142793e+00
 -1.8910213e-01
 -1.0367595e-01
 -9.5016882e-02
  3.0455574e-01
 -7.8111425e-02
  7.1371384e-02
 -1.3957459e-02
  5.3702481e-02
 -4.6742581e-02
 -3.5419366e-01
  7.3817708e-02
 -1.3862598e-01
 -1.2440842e-01
 -6.9321223e-02
 -4.6133287e-02
  4.6486378e-02
  8.8564493e-02
 -1.3810453e-02
 -4.2822346e-02
  1.3481762e-01
  7.6969430e-02
  4.0428620e-02
  1.8923016e-01
 -3.8789588e-03
 -1.8756650e-01
  2.1448752e-02
  1.7629258e-02
  9.1874413e-02
  4.4718623e-02
  6.2440202e-02
  3.4613270e-02
  1.2666103e-03
  1.2903603e-02
 -2.0432739e-02
  1.8402235e-01
 -4.9111068e-02
 -1.2513907e-01
  6.3163601e-02
 -7.6918177e-02
  1.1949681e-01
  8.9607447e-02
  2.2308979e-02
  2.5983464e-02
 -2.0077674e-01
  8.8779191e-03
  1.3298173e+00
  1.1348796e+00
 -6.9277696e-02
  4.9602132e+00
  1.2816998e+00
 -2.8101501e+00
 -2.6629198e-01
 -1.4317676e+00
 -1.9114484e+00
  9.8284686e-01
 -6.7162560e-03
  2.5538480e-01
 -2.0961970e-02
  7.2000191e-02
  2.0863304e-02
  6.9566607e-01
 -3.9597854e-01
 -1.1910425e+00
  1.5981008e+00
  8.5777551e-01
 -2.5644837e-02
  3.6635056e-01
  3.8275209e-01
 -9.4063532e-01
 -4.2043519e-01
 -5.8983094e-01
  1.2379434e+00
 -1.0544978e+00
  6.1727291e-01
 -1.6232385e-01
 -4.2102233e-01
  6.4364076e-01
  8.6433269e-02
 -4.1634221e-02
 -9.6077681e-01
 -3.1776797e-02
 -4.1542824e-02
